tree
version=v4
num_class=1
num_tree_per_iteration=1
label_index=0
max_feature_idx=65
objective=binary sigmoid:1
feature_names=meeting_icon race_no_int race_no_pre ozz_flg entry_count heikinTokuten_mean heikinTokuten_std heikinTokuten_min heikinTokuten_max nigeCnt_mean nigeCnt_std nigeCnt_min nigeCnt_max makuriCnt_mean makuriCnt_std makuriCnt_min makuriCnt_max sasiCnt_mean sasiCnt_std sasiCnt_min sasiCnt_max markCnt_mean markCnt_std markCnt_min markCnt_max backCnt_mean backCnt_std backCnt_min backCnt_max style_ryo style_oikomi style_nige heikinTokuten_range heikinTokuten_cv nigeCnt_range nigeCnt_cv makuriCnt_range makuriCnt_cv sasiCnt_range sasiCnt_cv markCnt_range markCnt_cv backCnt_range backCnt_cv style_total style_ryo_ratio style_oikomi_ratio style_nige_ratio entry_intensity race_no_norm heikinTokuten_cv_x_nigeCnt_cv entry_count_x_heikinTokuten_cv heikinTokuten_std_x_sasiCnt_cv nigeCnt_cv_x_makuriCnt_cv heikinTokuten_range_x_backCnt_cv heikinTokuten_cv_squared heikinTokuten_std_squared entry_count_log heikinTokuten_range_log nigeCnt_sum_log backCnt_cv_squared year month day day_of_week is_weekend
feature_infos=[1:8] [1:12] [1:12] none [5:9] [0:116.27222222222224] [0:42.989243770971363] [0:114.69] [0:121.8] [0:11.571428571428571] [0:10.453980786557544] none [0:27] [0:12.857142857142858] [0:7.9970232557109] [0:8] [0:23] [0:9] [0:7.1180521680208741] [0:5] [0:19] [0:4.5714285714285712] [0:5.2734735999646203] [0:3] [0:14] [0:17.428571428571427] [0:17.297398648351724] [0:11] [0:42] [0:7] [0:8] [0:9] [0:117.33] [0:2.6457513110645907] [0:27] [0:3.0000000000000004] [0:21] [0:3.0000000000000004] [0:19] [0:2.6457513110645907] [0:14] [0:3.0000000000000004] [0:42] [0:2.7300412084801944] [0:9] [0:1] [0:1] [0:1] none [0.1111111111111111:1.8333333333333333] [0:4.534715003532213] [0:18.520259177452136] [0:107.5917733843996] [0:9.0000000000000036] [0:283.76818083780995] [0:7.0000000000000009] [0:1848.0750800000001] [1.791759469228055:2.3025850929940459] [0:4.7734773313964673] [0:4.6051701859880918] [0:7.453125] none [1:12] [1:31] [0:6] [0:1]
tree_sizes=6699 6750 6761 6774 6777 6751 6773 6802 6777 6779 6780 6775 6799 6789 6779 6782 6776 6786 6805 6797 6780 6818 6804 6811 6801 6804 6802 6791 6833 6820 6819 6833 6831 6812 6840 6842 6818 6818 6809 6834 6844 6813 6846 6849 6830 6833 6801 6821 6817 6813

Tree=0
num_leaves=63
num_cat=0
split_feature=33 4 8 44 50 4 14 33 9 44 43 43 16 7 29 39 54 33 52 10 54 9 7 7 39 54 32 9 6 17 25 52 10 14 54 43 54 50 13 54 54 18 7 35 52 32 6 33 10 35 18 39 46 10 1 6 54 63 4 7 50 49
split_gain=859.222 342.835 318.141 222.67 116.457 112.245 78.2015 59.7759 55.6668 54.6153 50.8793 50.8709 66.8602 47.0123 43.8744 38.6285 37.6715 50.7862 35.8752 35.2741 33.218 37.9317 30.044 29.5879 29.5631 28.8639 28.2067 27.7501 26.5923 26.2427 25.7296 25.6105 25.5505 24.8693 23.623 29.5663 26.4037 23.3782 22.9443 22.3801 22.0901 22.0265 26.3265 25.4812 21.7164 21.7027 21.5081 21.3343 20.7292 33.8664 24.0865 25.95 20.6819 20.3282 20.1498 22.9399 19.9011 26.7883 19.7483 19.6409 19.6309 19.602
threshold=0.044254685845606163 8.5000000000000018 80.295000000000016 6.5000000000000009 0.05050201915086381 7.5000000000000009 1.4025811075924517 0.054583366496011011 1.3095238095238098 5.5000000000000009 1.6799870829547447 1.4225535264885283 4.5000000000000009 94.010000000000005 3.5000000000000004 1.4148599123994414 29.150674763409828 0.070566060954100562 4.2847642015102929 2.4808781002100506 4.1180157993314337 4.5857142857142863 66.785000000000011 92.605000000000004 1.0734319981749423 19.751578843408137 12.730000000000002 1.8166666666666669 4.3116809781270682 3.8452380952380958 2.8452380952380953 2.292232181725026 4.8452234702013994 0.96150752350944624 15.511897804137799 1.7141945173324242 19.572550164329769 0.17914717057680377 0.94444444444444453 20.497319045097907 14.606002310651137 3.3419509124496218 85.385000000000019 1.7317688523591308 2.9135650053208075 19.279999999999998 4.51542382954048 0.055705170314073703 2.1547219351057638 1.0921307514797409 1.2447997111193143 1.2912611280383903 0.5634920634920636 0.76883245299451319 6.5000000000000009 3.5393868840525502 9.9346890923091866 18.500000000000004 6.5000000000000009 66.695000000000007 0.077701321578083363 1.4642857142857146
decision_type=2 2 2 2 2 2 2 2 2 2 2 2 2 2 2 2 2 2 2 2 2 2 2 2 2 2 2 2 2 2 2 2 2 2 2 2 2 2 2 2 2 2 2 2 2 2 2 2 2 2 2 2 2 2 2 2 2 2 2 2 2 2
left_child=1 3 6 9 15 11 8 -7 18 -1 40 48 24 34 19 20 17 38 60 -14 -5 41 -11 45 32 30 27 -26 -3 37 -10 -15 61 -32 35 -12 -36 -21 -8 46 53 52 -43 -44 -33 -9 -40 -35 49 -4 -51 -52 59 -6 55 -38 -24 -58 -20 -22 -2 -13
right_child=2 28 5 4 10 7 16 23 25 22 13 12 14 31 -16 -17 -18 -19 58 29 21 -23 56 -25 26 -27 -28 -29 -30 -31 33 44 -34 47 36 -37 54 -39 39 -41 -42 42 43 -45 -46 -47 -48 -49 -50 50 51 -53 -54 -55 -56 -57 57 -59 -60 -61 -62 -63
leaf_value=-1.0580026857664573 -0.92061552042207684 -0.90337073699780601 -0.90648008973501681 -0.91053785715149438 -0.93320630597323506 -0.92718136496976056 -1.0547067079208827 -0.91516576122191762 -1.0664537392328046 -1.0302393725927836 -1.0050841779496249 -0.96459378003973528 -0.99383369667380783 -0.91804258583470078 -0.9156176676504495 -0.98604212950700076 -0.96123539775031186 -1.0509031396959672 -1.0484274388995609 -1.0378133620065959 -0.98180650371490474 -1.0072257572654231 -0.95891179878139321 -0.99990809186334406 -0.99110130689511666 -1.0562513383137875 -1.0127383340267739 -0.92793719486703929 -0.95488953263831555 -0.98223564138648645 -0.96274021179153735 -1.0015630628775183 -1.0371244934396102 -0.99193283468943416 -0.99832598766269598 -0.96039377714037588 -0.972411063922059 -0.96746873636802444 -1.0145082738525899 -1.0488968324421466 -0.94319724267602711 -1.0070969121018698 -0.9375788378234674 -1.0045255035179406 -0.94313014462169009 -0.98835552167677421 -0.97445876511010654 -1.0749385090147221 -0.97919743963950567 -1.0184746783380751 -0.9552710233993903 -1.0139852422541136 -0.94833928496523912 -0.96281859302924633 -0.94844237674197374 -1.0426376435530844 -0.97485609341568913 -1.0313516329219452 -0.98773585044901213 -0.93078751158952822 -0.96973807968587789 -1.0106460220670055
leaf_weight=41.400302052497864 29.017014980316162 339.89399239420891 26.148329198360443 86.27964973449707 65.089848935604095 151.82935661077499 38.299825310707092 25.099683910608292 13.256772458553312 44.895786345005035 44.785476833581924 321.59381139278412 190.86333733797073 52.642482846975327 12.918395966291426 49.637419700622559 23.348217785358429 152.27213740348816 16.824555099010468 149.4526347219944 20.28202822804451 22.87718790769577 53.018870502710342 59.444166988134384 67.590366393327713 36.400038510560989 104.1461735367775 23.701490193605423 28.158425509929657 31.179155945777893 36.999997794628143 25.863631159067154 13.724078357219694 20.901378780603409 213.34924167394638 228.78972759842873 48.710255861282349 12.720892190933226 354.07806158065796 42.255167543888092 270.15869507193565 25.901642322540283 78.16028955578804 17.759166896343231 43.132376909255981 17.683144569396973 37.114031285047531 12.132104843854902 391.33514681458473 20.859643638134003 175.6985587477684 21.402971863746643 366.03269240260124 660.64642435312271 60.507708191871643 15.080536931753157 50.803822457790375 35.396852344274521 63.015673607587814 519.67759415507317 73.764480650424957 25.358314096927643
leaf_count=192 83 899 70 236 197 448 176 70 63 192 177 1104 727 149 36 184 79 692 76 654 74 91 178 231 255 168 422 70 93 114 126 101 60 79 825 773 172 44 1443 191 853 103 241 70 136 66 132 59 1417 86 582 87 1180 2253 195 67 181 152 235 1558 258 102
internal_value=-0.969432 -0.952959 -0.990135 -0.958318 -0.954614 -0.978018 -1.01365 -0.947127 -0.992658 -1.00623 -0.962917 -0.982966 -0.990297 -0.972967 -1.006 -0.942529 -1.02347 -1.02582 -0.975288 -1.00908 -0.940638 -0.943126 -0.994554 -0.976873 -0.979098 -1.01923 -0.994856 -0.974553 -0.907277 -1.02417 -1.00298 -0.944497 -0.970586 -0.990856 -0.978654 -0.967679 -0.987577 -1.03223 -1.01771 -1.01442 -0.955533 -0.941706 -0.961976 -0.949881 -0.964887 -0.94513 -1.01068 -1.02261 -0.971984 -0.960467 -0.967021 -0.96161 -0.938994 -0.960143 -0.969209 -0.989084 -0.983091 -0.998087 -1.00059 -0.932685 -0.955728 -0.967938
internal_weight=6301.36 3508.93 2792.43 3140.88 2915.36 1842.75 949.679 254.056 302.312 225.516 1728.76 1588.69 953.249 732.861 397.134 1186.61 647.367 624.019 182.622 384.216 1136.97 1050.69 184.115 102.227 556.114 119.69 195.438 91.2919 368.052 193.353 83.2903 121.638 360.676 70.0335 611.223 273.575 337.648 162.174 471.747 433.447 995.895 1027.81 121.821 95.9195 68.996 42.7828 391.192 33.0335 635.445 244.11 217.961 197.102 905.992 725.736 124.299 63.7908 139.22 86.2007 79.8402 539.96 102.781 346.952
internal_count=22027 11522 10505 10530 9635 6645 3860 815 1147 895 5898 5830 3588 2595 1575 3737 2713 2634 652 1539 3553 3317 703 367 2013 495 747 325 992 812 327 386 1266 264 2209 950 1259 698 1942 1766 3303 3226 414 311 237 136 1575 138 2242 825 755 669 2812 2450 434 239 511 333 311 1632 341 1206
is_linear=0
shrinkage=1


Tree=1
num_leaves=63
num_cat=0
split_feature=33 44 8 44 44 33 5 14 52 54 33 60 14 57 46 10 60 40 25 21 29 10 37 60 39 12 32 58 41 28 52 37 33 6 41 5 5 10 10 54 52 18 54 8 14 10 13 38 64 7 39 9 53 29 54 60 10 33 6 37 1 5
split_gain=752.667 295.46 234.654 167.073 100.306 92.0174 61.358 59.3842 45.712 48.6999 45.2249 43.7213 55.6399 43.2776 38.2777 30.5884 30.5456 27.2932 27.1019 26.7931 26.6973 25.9223 25.4483 25.2809 25.2721 25.8769 25.7228 32.0072 25.0922 24.3992 24.2021 23.0318 22.91 30.8523 23.7036 22.8094 23.8028 22.5002 26.8383 26.42 25.3441 24.8191 22.4734 21.4238 21.9281 21.3358 21.8196 21.332 20.7839 20.7316 20.3525 25.0718 42.9178 25.893 21.7715 20.1884 21.0623 20.3568 32.0142 19.9788 19.7938 20.5821
threshold=0.044254685845606163 8.5000000000000018 80.295000000000016 6.5000000000000009 7.5000000000000009 0.030318639173913853 88.537142857142882 0.91277775530749461 4.6493419115286043 28.734392830817445 0.054336129947361402 1.9139080117237761 2.1185106428047296 1.8688348091416842 0.5634920634920636 3.486367592464287 2.5900000000000003 3.5000000000000004 2.6904761904761911 2.4142857142857146 1.0000000180025095e-35 2.2734596132924607 1.0584566850496326 1.5201343533737026 1.0497363154925792 12.500000000000002 12.330000000000007 2.512440667826747 1.2454767126539614 14.500000000000002 3.3912793424665302 1.0937700110284569 0.070019723241802362 4.7778768652636971 1.1637227459271813 101.66785714285716 105.46071428571432 1.2592387025616849 2.2269982572248264 17.131721800731249 4.1015108236451745 1.3312467345792298 14.096277717032805 56.215000000000011 2.9874055879241781 2.4340473624485619 2.9444444444444451 6.5000000000000009 2.5000000000000004 74.015000000000015 0.96817132744509893 1.5634920634920637 2.4448672282225163 1.5000000000000002 13.460397390121573 2.0001594387755111 0.75435079936376781 0.051800897052636206 4.5516394216582663 1.7802444490510476 4.5000000000000009 86.333571428571446
decision_type=2 2 2 2 2 2 2 2 2 2 2 2 2 2 2 2 2 2 2 2 2 2 2 2 2 2 2 2 2 2 2 2 2 2 2 2 2 2 2 2 2 2 2 2 2 2 2 2 2 2 2 2 2 2 2 2 2 2 2 2 2 2
left_child=1 3 7 13 11 14 15 55 22 29 31 21 24 -1 47 16 50 -17 20 -20 -8 -4 23 43 25 -13 27 -26 42 32 -30 -6 33 34 -10 -12 -37 -18 40 41 -39 -40 -15 -9 -45 -23 -47 -5 49 -28 60 54 53 -53 -52 57 -57 -2 -59 -19 -7 -62
right_child=2 -3 4 5 10 6 18 8 9 -11 35 12 -14 28 -16 17 37 59 19 -21 -22 45 -24 -25 26 -27 48 -29 30 -31 -32 -33 -34 -35 -36 36 -38 38 39 -41 -42 -43 -44 44 -46 46 -48 -49 -50 -51 51 52 -54 -55 -56 56 -58 58 -60 -61 61 -63
leaf_value=-0.024460629335634206 0.1058735358834855 0.11203108356871783 0.065662602547747334 0.099778943991598285 0.1225384204428322 0.088717230170772265 0.016120375572535348 0.092587841887683361 0.024283356537472191 0.058138741593226267 0.071709293720885331 0.05363592595084396 0.018803894925402565 0.031874851056239509 0.071455799750154078 0.015932581712438911 0.06613375000052106 0.042446283026898998 0.077242272568890408 0.1220078700678527 0.066369689329928497 -0.01320468612631211 0.015013810674344517 -0.0084059896844040846 0.023541813190266131 -0.0066620816079839247 0.064574762847877096 0.077540082898728768 0.073390263529451896 -0.034021469481598635 0.010642181187675679 0.080069114434419358 -0.021357095057486453 0.087953375553303514 -0.029405573891024623 -0.0011914948047628241 0.06786402342959251 0.012559104911212805 0.011397264388514813 0.023811892348833269 0.088604824447629488 0.07656822115208993 -0.020233083280763182 0.066738097146564826 -0.015640044176774778 0.041588248642364496 0.079244547518313363 0.079750581397166898 0.0016529092380456461 0.011350794452272904 0.058729101874138101 0.014524966658902006 -0.04074472037982696 0.076555688265445149 0.10658252771100177 0.070737737941842654 0.020961987741595179 -0.00037851916291589075 0.099186984497109235 0.083953501057355273 0.045141829152138782 0.085652350478745948
leaf_weight=36.122979462146759 21.541159301996231 398.46591587364674 250.58160908520222 297.86434158682823 45.83387790620327 163.19344647228718 31.134184345602989 28.678630903363228 54.568315476179123 27.497596248984337 59.592084988951683 435.88734701275826 316.83747290074825 93.566738024353981 511.9691369831562 79.138611137866974 143.25326196849346 135.72851984202862 498.25444580614567 36.560022830963135 189.02157841622829 15.248930633068083 399.89664170145988 16.526230990886688 56.102606102824211 18.375197097659111 36.853865951299667 54.525338932871819 58.163113757967949 83.245897948741913 21.19043256342411 115.91948844492435 79.038240015506744 12.457687288522719 32.813800722360611 31.3308065533638 20.484188884496689 92.979207664728165 17.362346485257149 51.477644681930542 12.376454278826712 100.15966978669167 26.360771268606186 19.64375364780426 13.479053497314451 271.74300371110439 45.372691184282303 254.36179050803185 84.09237377345562 36.871388748288155 101.81663399934769 28.390296459197998 15.109732329845427 42.217009976506233 31.790747880935669 27.015050992369652 101.87005929648876 18.510504961013794 14.082840994000433 37.492476761341095 75.879334673285484 55.091797351837158
leaf_count=169 59 1011 818 823 112 481 121 87 215 93 189 1504 1259 355 1623 310 472 485 1539 92 611 66 1625 72 216 80 125 172 188 394 86 347 364 38 152 132 68 371 69 199 37 316 118 66 60 983 142 770 353 150 340 111 70 131 86 87 401 77 40 114 266 164
internal_value=0.056304 0.0713787 0.0370422 0.0663712 0.0472108 0.0695524 0.0630465 0.0167619 0.0106498 -0.00501189 0.0752696 0.0424794 0.0363105 0.0257606 0.0813913 0.055912 0.060112 0.0403784 0.0742147 0.080334 0.0592967 0.0534635 0.0201444 0.0462219 0.0439748 0.0511849 0.0317409 0.0502472 0.0348968 -0.0116753 0.0567315 0.0922022 -0.00123474 0.0146505 0.00405433 0.0505793 0.0260903 0.0499962 0.0415308 0.0538966 0.0216154 0.0670004 0.0203722 0.0609006 0.0331183 0.0442341 0.0470151 0.0905788 0.0187129 0.0380756 0.0683178 0.0566399 0.0353509 0.0517405 0.070224 0.0423575 0.0314808 0.0680551 0.0426603 0.0515023 0.0769855 0.0622727
internal_weight=6483.01 3636.49 2846.52 3238.03 1895.65 3002.62 1938.43 950.865 767.846 289.622 273.16 1622.49 1039.55 235.404 1064.2 1183.46 931.098 252.36 754.97 534.814 220.156 582.946 478.224 78.3277 722.708 454.263 268.446 110.628 199.281 262.124 79.3535 161.753 178.878 99.8398 87.3821 111.407 51.815 417.609 274.355 169 105.356 117.522 119.928 61.8014 33.1228 332.365 317.116 552.226 157.818 73.7253 513.489 219.324 85.717 70.6073 133.607 183.02 128.885 54.1345 32.5933 173.221 294.165 130.971
internal_count=22074 11528 10546 10517 6716 9601 6385 3830 3166 1256 848 5868 3859 916 3216 4022 3113 909 2363 1631 732 2009 1910 285 2600 1584 1016 388 747 1163 274 459 769 405 367 389 200 1464 992 584 408 385 473 213 126 1191 1125 1593 628 275 1649 738 312 242 426 664 488 176 117 599 911 430
is_linear=0
shrinkage=0.05


Tree=2
num_leaves=63
num_cat=0
split_feature=7 33 8 57 6 57 54 14 54 10 13 21 33 33 1 54 43 14 39 54 25 37 57 9 9 39 50 62 30 35 9 10 37 0 5 13 5 18 50 18 5 1 50 7 54 39 64 8 8 41 47 10 41 32 7 10 62 53 26 39 49 5
split_gain=582.376 232.185 159.377 138.587 98.1953 91.4329 82.4983 54.745 50.7472 47.847 39.8189 38.3149 36.7695 30.7204 28.9049 35.1679 28.459 37.4268 28.2525 27.7147 27.4953 26.3084 24.2472 24.1635 31.5817 23.1349 22.9507 22.7613 22.6802 23.7933 21.3161 20.618 20.5567 20.4592 25.5083 26.2948 23.2589 22.6766 20.1622 19.9842 19.8624 19.7886 21.8932 19.7634 19.5884 19.5845 21.5918 18.7894 24.1711 19.6834 23.0079 27.3827 25.1384 19.4257 24.6112 28.6628 18.7495 18.5457 23.5551 18.2897 18.3348 31.7476
threshold=83.665000000000006 0.044254685845606163 80.295000000000016 2.1383330595080285 5.470946518799825 2.0126758453675748 12.280330813563712 0.80164618669858478 11.789240292754991 3.7670195435514109 1.1547619047619049 1.267857142857143 0.067218125873462556 0.06224587329785871 4.5000000000000009 32.196065894149378 1.6442942874387494 1.9583855831611665 1.1012764020868262 13.398616548333377 3.8452380952380958 1.0584566850496326 2.0126758453675748 2.2539682539682544 3.3666666666666667 1.0328441839496063 0.080528790088970167 6.5000000000000009 2.5000000000000004 1.4668896546582528 1.8452380952380951 1.4110497577732273 1.4029878766901216 2.0000000000000004 82.280714285714296 1.4142857142857144 87.720714285714294 1.6805907178536295 0.051995754567527856 1.4025811075924517 69.663571428571444 3.5000000000000004 0.11779177339334027 67.675000000000026 15.439837884651526 1.4131147015119214 1.0000000180025095e-35 96.450000000000003 95.045000000000016 1.0513767538636609 0.47222222222222227 2.1436434530208177 1.5954480704349316 15.369999999999996 80.235000000000014 3.6703444185276264 10.500000000000002 3.8999674264064077 5.5988588733596858 0.76430777143244566 0.15476190476190474 70.857857142857156
decision_type=2 2 2 2 2 2 2 2 2 2 2 2 2 2 2 2 2 2 2 2 2 2 2 2 2 2 2 2 2 2 2 2 2 2 2 2 2 2 2 2 2 2 2 2 2 2 2 2 2 2 2 2 2 2 2 2 2 2 2 2 2 2
left_child=1 5 7 6 19 10 -2 26 9 45 18 22 21 -13 15 -14 32 25 40 -5 31 23 -8 27 -25 57 39 -9 -24 -30 -22 -10 47 37 35 -35 56 -34 -23 -3 -1 42 -28 -11 -33 46 -7 48 49 -4 51 -51 53 54 55 -53 -36 -18 -59 -40 61 -61
right_child=3 2 16 4 -6 8 11 12 20 43 -12 13 14 -15 -16 -17 17 -19 -20 -21 30 38 28 24 -26 -27 41 -29 29 -31 -32 44 33 34 36 -37 -38 -39 59 -41 -42 -43 -44 -45 -46 -47 -48 -49 -50 50 -52 52 -54 -55 -56 -57 -58 58 -60 60 -62 -63
leaf_value=0.044641062462488022 0.075552474944704018 0.091651953592059798 0.068972754133434691 0.11344674344732245 0.047776894769689333 0.05006137281046822 -0.002024315667559287 0.10323383360804061 0.057055573374940209 0.07610446242669322 0.06296378477470517 0.064855750240656845 0.0023831282765136002 -0.0005280892825580962 -0.020874087326201218 0.090137785822860014 0.038129854231562323 0.0091684078162264163 -0.029853530983133633 0.090307327291697617 0.090781606885878177 0.068128757267387735 0.069189182454892723 -0.047643508248879946 0.046552374382573418 0.025219165138031824 0.013488844761044722 0.033410220728592489 0.065957941258957972 0.033326521880410173 0.054816867739347422 0.047156699307300418 -0.018521637652988022 0.079812606834044009 0.033289836333816686 0.015012860217790705 0.070423941437301449 0.033938235042540246 -0.013334415670344513 0.021613714279710827 -0.0037852927175914932 -0.0006507746709586927 0.063580623032440761 0.025489579417274685 0.025563511199032569 0.045104058723130162 0.078026606688529301 0.017193881667865171 0.09254762708042967 0.067952166868059743 0.079585501815545676 0.0029419896953852809 0.070745178472741796 -0.040082740810271786 -0.01941032708778296 0.071962433796924269 -0.018945950615170376 0.081461706610353748 0.016658344383193233 0.016906368928584981 0.010069707680959054 0.10828379887183953
leaf_weight=43.292448699474335 853.84947462379932 32.736089557409286 129.29810334742069 200.4117297232151 116.53390727937222 81.121754944324493 27.324295997619629 21.839925482869148 203.5727836638689 24.81020824611187 38.173663809895515 581.8123274743557 87.75006391108036 18.379075616598129 146.74440973997116 13.049196019768713 118.03354549407959 131.36915478110313 40.117562144994736 395.20517526566982 58.230165377259254 15.271592065691946 87.262298390269279 13.903282552957533 24.219407498836517 147.04007409512997 38.926019042730331 25.87619049847126 71.81594106554985 261.21163725852966 150.26550689339638 239.88861730694771 27.543602123856544 78.684293881058693 133.54029673337936 19.852559104561806 37.997562244534492 79.842335298657417 71.42268730700016 15.174949154257773 40.983775913715363 38.993094056844711 50.588421270251274 89.283383816480637 190.20215570926666 64.324738323688507 544.59252233803272 30.600912049412727 45.665450915694237 48.631591379642487 37.438743770122528 28.920334815979004 22.901432648301125 14.725678876042364 25.298560470342636 31.62378141283989 19.518615886569023 71.186448112130165 17.784771233797073 32.802654683589935 331.04086349904537 13.415989473462103
leaf_count=157 2487 90 407 456 395 265 114 60 658 74 127 1824 374 75 672 37 416 532 184 1033 163 50 267 67 86 557 153 95 222 927 493 807 118 237 485 77 120 289 313 56 172 161 166 326 711 218 1587 117 129 151 112 116 72 68 109 99 84 210 68 131 1357 38
internal_value=0.0526268 0.040818 0.0301663 0.0710559 0.0898964 0.0541874 0.0639933 0.0148671 0.0577213 0.0667301 0.0183552 0.0545628 0.00927971 0.0628455 -0.00670579 0.0138712 0.0416422 0.0320188 0.00458605 0.0981194 0.0491065 0.0164862 0.0434341 0.0419225 0.0120337 0.0404784 0.0400718 0.0656225 0.0464011 0.040396 0.064924 0.0438847 0.0473837 0.039183 0.0461097 0.0668363 0.0353645 0.0204315 0.0117613 0.069664 0.0210553 0.0289546 0.041893 0.0365968 0.0376272 0.0716992 0.0744176 0.055203 0.0582097 0.0535413 0.043967 0.0361478 0.0235356 0.0126758 0.0218204 0.0391348 0.0265879 0.0512758 0.0685973 0.0098168 0.0142154 0.0437152
internal_weight=6693.92 4080.11 2271.25 2613.81 712.151 1808.86 1901.66 973.755 1646.29 804.133 162.567 1047.81 797.336 600.191 247.544 100.799 1297.5 485.414 124.394 595.617 842.159 549.793 447.614 85.8388 38.1227 354.045 176.419 47.7161 420.29 333.028 208.496 633.664 812.084 396.979 289.593 98.5369 191.056 107.386 463.954 47.911 84.2762 128.508 89.5144 114.094 430.091 690.039 625.714 415.105 384.504 338.838 209.54 172.101 123.47 100.568 85.8427 60.5441 153.059 207.005 88.9712 448.682 377.26 46.2186
internal_count=22221 14421 8479 7800 1884 5942 5916 3906 5302 2470 640 3429 3280 1899 1083 411 4573 1783 513 1489 2832 2197 1530 308 153 1251 626 155 1416 1149 656 2176 2790 1410 1003 314 689 407 1889 146 329 480 319 400 1518 2070 1852 1380 1263 1134 727 615 464 392 324 215 569 694 278 1839 1526 169
is_linear=0
shrinkage=0.05


Tree=3
num_leaves=63
num_cat=0
split_feature=7 33 4 54 58 4 52 62 56 33 58 13 33 39 26 14 35 39 53 43 41 12 33 56 53 39 54 26 32 41 32 62 63 30 30 53 33 41 16 35 22 39 22 43 21 38 54 28 39 39 50 46 7 21 43 41 12 2 62 52 14 20
split_gain=487.791 152.266 122.534 87.3817 75.9953 75.8306 56.8813 54.1517 46.2103 57.9262 45.4609 39.194 37.3783 35.6094 40.9599 35.0462 33.7034 33.6484 32.7003 28.998 27.7123 27.007 26.3488 33.9583 38.8574 26.3211 25.8494 25.267 23.9232 31.3046 23.1526 21.7111 20.7188 25.5246 26.3421 20.554 24.0222 20.5095 20.2295 23.1187 21.3211 19.8042 19.6785 19.6534 21.0255 20.5248 19.6224 19.1571 18.9105 18.7547 18.4795 18.3833 22.2722 25.9984 22.9455 19.9918 18.3745 20.7114 18.0375 19.2697 18.4601 27.6729
threshold=82.02500000000002 0.047234742167751413 7.5000000000000009 10.925453012127866 2.5900171341906182 6.5000000000000009 2.0631214039138546 3.5000000000000004 23.066842857142877 0.061469524437945809 3.065025072844044 0.64583333333333337 0.044254685845606163 1.2480593817545464 3.1933089473227998 2.3557550203429893 1.708015711874745 1.317397886017222 1.4866125465976323 2.3219240653152187 0.9009380917257962 12.500000000000002 0.059095581568784007 29.931255952380965 4.6083055369650205 0.72844315871285648 10.431743775218838 3.7384729952001501 12.525000000000004 0.96891799618612395 10.910000000000005 1.5000000000000002 21.500000000000004 1.5000000000000002 3.5000000000000004 1.514860168069224 0.032031662994689659 0.87277683803879069 4.5000000000000009 1.503425405124623 2.5471728989589004 1.0580989180776468 1.6747417363816017 2.1746277205344469 1.4142857142857144 5.5000000000000009 21.42104011783017 20.500000000000004 1.7090441326543202 1.5952201167125413 0.038591091028777454 0.38750000000000007 71.010000000000005 1.4142857142857144 1.6442942874387494 0.78749291453556025 2.5000000000000004 3.5000000000000004 9.5000000000000018 4.7823775693650861 1.2412282679704181 4.5000000000000009
decision_type=2 2 2 2 2 2 2 2 2 2 2 2 2 2 2 2 2 2 2 2 2 2 2 2 2 2 2 2 2 2 2 2 2 2 2 2 2 2 2 2 2 2 2 2 2 2 2 2 2 2 2 2 2 2 2 2 2 2 2 2 2 2
left_child=1 5 3 35 -4 11 27 13 9 51 31 -1 43 14 41 19 -10 -17 -16 25 -11 22 -18 -24 -25 42 -15 -7 -28 -30 -14 -6 33 -27 -35 36 -2 -13 39 -20 -40 46 -8 -5 -45 -46 -3 58 -22 -31 -36 -9 55 54 -54 -53 -21 -58 60 -60 -32 -62
right_child=2 7 4 12 10 6 15 8 16 20 -12 37 30 26 18 17 21 -19 38 56 48 -23 23 24 -26 32 28 -29 29 49 47 -33 -34 34 50 -37 -38 -39 40 -41 -42 -43 -44 44 45 -47 -48 -49 -50 -51 -52 52 53 -55 -56 -57 57 -59 59 -61 61 -63
leaf_value=-0.0082520076231123677 0.089985058466353171 0.10425776810288756 0.097252979421235008 0.058280682844092851 0.10345749106484969 0.077354601790007624 -0.013468341968376943 0.03721923981935852 0.049947899517404047 0.022959100630956422 -0.0050823666617766834 -0.012788327911059908 -0.0079809633571274515 0.074684557372980909 0.077905818016467773 0.03379642614296826 0.07416220210929611 -0.024743813990243776 -0.0092509184918589012 0.04707965449128429 -0.01081887412334015 -0.041424628771371687 -0.010433084078971339 0.050429378258750907 -0.017630599749884356 0.008654321671237461 -0.018155953504417014 0.053922966690999032 0.083118119127488579 -0.014750502394683519 0.069828184242306843 0.064734018782562269 0.040625981963813645 0.07328274067810199 0.10068150893212631 0.064584560655332121 0.059149122853054195 0.051557808186425247 0.024300923981711506 0.049635210904181569 -0.03926460222652596 0.033764376592902143 0.046422173219873686 -0.00081560177054549167 0.086392209867294942 0.020144297843170525 0.057302069134428639 -0.0043664801511237306 -0.060558475308531992 0.050442664448181698 0.049344810713919676 0.046588277839767774 0.026785269637689679 0.041240147895673769 -0.016085540025897887 0.00059985125857917542 -0.041689112485620933 0.032396515295281647 0.0419028135706856 -0.012737817648338879 -0.0010586487297063478 0.047910856062282715
leaf_weight=88.062037765979767 226.1350063085556 48.06566658616066 375.24885082244873 888.16922487318516 42.047392964363098 217.58262383937836 27.141484826803207 154.89416363835335 196.43396762013435 56.860822856426239 21.567747756838799 14.999366804957388 24.725340947508812 16.485779225826263 43.269676521420479 206.31888742744923 25.206806883215904 27.68605437874794 18.494369119405746 27.143280953168869 147.12945976853371 15.71567218005657 61.882861882448196 92.90661296248436 26.895011633634567 26.201931834220886 50.222783610224724 252.83509302139282 18.251582637429237 33.455903008580208 78.664633810520172 301.69533810019493 266.98818530142307 220.74668547511101 18.578205287456512 477.10544374585152 90.527114897966385 67.003450348973274 139.23271082341671 154.40528985857964 14.426363080739973 28.404003113508224 27.367690831422806 29.996159985661507 22.963978961110115 24.371956467628479 43.650005131959915 21.429686918854713 21.967706516385078 16.302657470107079 391.19026446342468 26.663709491491318 83.57504403591156 149.52557046711445 49.546526476740837 204.03504613041878 19.933195903897285 17.688667848706245 39.727903142571449 26.874406591057777 32.432069763541222 247.05488736927509
leaf_count=376 574 126 859 2707 100 607 112 556 648 225 87 64 100 52 126 719 77 118 76 88 649 74 261 310 114 98 223 786 54 143 237 860 895 641 46 1384 271 227 527 518 67 103 90 117 62 87 138 87 113 56 1273 95 302 515 209 848 90 63 134 111 129 819
internal_value=0.0485318 0.0367943 0.0637611 0.0578957 0.081408 0.0467878 0.049891 0.0269017 0.021126 0.0146929 0.065096 0.0148626 0.0505183 0.0390306 0.045296 0.0443956 0.034835 0.0268413 0.0370103 0.0483264 -0.00717282 0.0214601 0.0262787 0.0195707 0.0351065 0.0504741 0.0161908 0.0647856 0.00793624 0.0272761 0.0389167 0.069514 0.0524692 0.0572695 0.0592801 0.0712315 0.0812069 0.0397259 0.0315541 0.0433058 0.0182789 0.0707125 0.0165396 0.056167 0.0317823 0.0525028 0.0820515 0.041528 -0.0173422 0.00656712 0.0517085 0.0220941 0.0175142 0.026926 0.0107916 0.00595465 0.0157824 -0.00673019 0.0438557 0.019794 0.0483095 0.0422121
internal_weight=6826.11 3855.37 2970.74 2230.18 740.559 1917.47 1747.4 1937.91 1313.24 894.198 365.31 170.065 1436.41 624.667 489.948 1276.98 419.041 234.005 369.828 1042.98 225.958 222.607 206.891 181.684 119.802 978.214 134.719 470.418 118.233 68.0101 470.909 343.743 923.705 656.717 630.515 793.768 316.662 82.0028 326.559 172.9 153.659 120.12 54.5092 965.501 77.3321 47.3359 91.7157 446.184 169.097 49.7586 409.768 668.24 513.346 282.647 133.122 230.699 64.7651 37.6219 424.754 66.6023 358.152 279.487
internal_count=22223 13498 8725 6819 1906 6293 5626 7205 4996 3512 1047 667 4590 2209 1681 4233 1484 837 1314 3396 987 836 762 685 424 3155 528 1393 476 253 1617 960 2953 2058 1960 2229 845 291 1188 594 594 367 202 2973 266 149 264 1517 762 199 1319 2525 1969 1026 511 943 241 153 1430 245 1185 948
is_linear=0
shrinkage=0.05


Tree=4
num_leaves=63
num_cat=0
split_feature=33 44 5 57 44 30 7 39 10 25 53 16 51 10 9 41 5 50 49 39 44 63 20 39 33 13 37 52 44 50 50 49 33 10 25 54 62 1 18 10 7 22 54 52 26 9 9 41 52 62 7 52 50 7 52 53 52 13 7 41 43 35
split_gain=421.73 186.451 127.618 87.2121 67.0834 51.4948 50.0463 47.5582 43.5401 45.9221 40.5807 37.9949 35.222 33.3288 30.7677 28.7285 28.3079 27.8777 27.5458 29.0864 26.1756 26.0484 25.922 25.6874 27.2786 25.4852 37.7179 36.6426 31.5697 24.5525 23.9369 22.9884 21.7993 21.4329 22.3013 21.4026 21.1165 25.3887 21.2808 20.6895 20.5487 20.5397 20.4227 20.2214 26.8343 19.9862 21.3988 19.6312 19.4969 21.5885 21.4237 19.3305 19.0659 19.2464 26.7672 18.7558 18.7435 18.5066 24.1558 18.3681 18.8525 18.9929
threshold=0.044254685845606163 8.5000000000000018 77.093571428571451 2.0126758453675748 7.5000000000000009 3.5000000000000004 1.0000000180025095e-35 1.2480593817545464 3.6866329624640737 5.6904761904761916 4.6083055369650205 12.500000000000002 0.21935241056256574 2.4808781002100506 3.3666666666666667 1.3758326726541392 67.73642857142859 0.10638916701953306 1.4642857142857146 1.0933730821967209 5.5000000000000009 17.500000000000004 7.5000000000000009 1.4018194564820543 0.067753254272593003 0.47222222222222227 0.9783868175761522 2.7955624095391127 6.5000000000000009 0.058689128019123953 0.081272627798895963 0.64583333333333337 0.054583366496011011 3.8893418418831343 4.8452380952380958 25.166589383447327 8.5000000000000018 3.5000000000000004 1.5142164904236097 3.7670195435514109 92.605000000000004 2.1989277071978139 13.279587217132658 3.3912793424665302 7.2188026092359054 2.9444444444444451 3.6904761904761902 0.8162137625422311 2.0009072808372532 1.5000000000000002 94.010000000000005 4.4551049253840818 0.064332636568524518 66.225000000000009 3.8687766160291814 1.1001491468510511 1.9220187232608914 2.9444444444444451 76.445000000000007 1.0453385822455716 1.7077006415358185 1.7112202156452325
decision_type=2 2 2 2 2 2 2 2 2 2 2 2 2 2 2 2 2 2 2 2 2 2 2 2 2 2 2 2 2 2 2 2 2 2 2 2 2 2 2 2 2 2 2 2 2 2 2 2 2 2 2 2 2 2 2 2 2 2 2 2 2 2
left_child=1 3 6 16 13 7 10 12 11 36 21 23 -5 -4 15 -14 -1 22 19 -19 -18 31 57 25 -25 28 -27 56 -8 33 -30 -2 51 -7 -35 -20 37 38 -10 -21 -34 -39 -3 44 -16 -24 -47 -22 -31 -50 -51 -6 -29 54 -54 -9 -28 58 -15 -55 61 -61
right_child=2 42 4 5 32 29 8 55 9 -11 -12 -13 14 17 43 -17 20 18 35 39 47 -23 45 24 -26 26 27 52 30 48 -32 -33 40 34 -36 -37 -38 41 -40 -41 -42 -43 -44 -45 -46 46 -48 -49 49 50 -52 -53 53 59 -56 -57 -58 -59 -60 60 -62 -63
leaf_value=-0.033295888398673638 0.079016613319426332 0.099395554851168702 0.042852947832072302 0.073610327806448703 0.087887790150090461 0.057968736936135717 -0.0037243663498544156 0.0022775582043570012 0.057773721855615558 0.032233625586172834 -0.015744678181969816 -0.022043786000337559 0.054590422576985015 0.05357352125320626 -0.030703847276974661 0.077423131345892612 -0.011139868772657035 0.031686435412656436 0.01636843339961714 0.010991868951239339 -0.0040228555515569595 0.11540030143801437 0.059024102477369139 0.024365985022559454 -0.018160610799532927 0.066628347254387765 0.0345523808483474 -0.018684562782857635 0.11481050947733691 0.058586153188462421 0.050578732015637541 0.0034890321431534678 0.069067697439874398 -0.011896796912044393 0.05124028059238861 -0.069415813902928405 -0.033673744765442909 -0.034431013544178234 -0.0054222531818511532 -0.053809994383134843 0.025937700409255138 0.020832780812355293 0.077530834491807546 0.066556762004156778 0.045308818339973515 -0.012078704437258603 0.0543113501506216 0.042950736117406574 0.075084355401296626 0.034073766041878305 0.059994660693450379 0.055258027594202688 0.042769699865106162 0.018675862453047688 0.0056467974088898476 0.044632844277760847 -0.026477953760872055 0.06381972413711505 0.015980448243927848 0.048224734337445126 0.012719978560822399 0.10293074072416497
leaf_weight=20.102844819426537 25.916819930076599 192.8627423197031 795.26943038403988 602.1198845654726 96.059069573879242 673.90705265104771 21.034431293606758 31.760363683104515 26.421448215842247 77.1702980697155 15.628917977213858 46.059243977069855 544.72005680203438 51.64959491789341 23.640480607748032 187.63817526400089 34.62305161356926 149.11521308124065 12.840948209166529 36.253667920827866 25.747472494840622 23.853202953934669 139.95258443057537 89.406337589025497 64.960820958018303 47.699194088578224 16.072094544768333 22.010857552289963 18.561016261577606 167.29468923807144 70.494149088859558 16.690164878964424 48.208327621221542 23.062186047434807 34.897892132401466 16.342724815011024 76.961565032601357 57.729421705007553 26.470808729529381 18.476450517773628 66.269882753491402 23.507869616150856 256.81900548934937 20.021781072020531 22.584942802786827 23.814538076519966 24.388620227575302 154.13986070454121 40.750348523259163 610.26113374531269 92.605420678853989 90.150420874357224 77.674119979143143 47.371984750032425 130.36809088289738 154.76328590512276 55.945388063788414 29.754084184765816 251.63396714627743 41.389716133475304 18.680720567703247 26.643194645643234
leaf_count=93 72 399 2616 1574 228 1961 84 118 89 284 66 211 1618 165 98 500 153 525 48 140 106 55 437 335 295 144 58 94 41 494 232 63 135 89 106 80 358 268 111 88 234 93 619 57 72 96 76 522 113 2045 270 253 278 179 539 483 249 87 931 140 73 71
internal_value=0.0457994 0.056627 0.0317387 0.0526889 0.0399031 0.0548282 0.0187627 0.0612685 0.015899 -0.0007296 0.0564053 0.0219388 0.0644334 0.0356969 0.0574998 0.060457 0.0232039 0.0281401 0.01372 0.0202412 0.0285351 0.0734455 0.0345739 0.0246552 0.00643739 0.0293798 0.0244104 0.0197677 0.0511331 0.0485991 0.0641359 0.0496252 0.0615427 0.0554521 0.0260548 -0.0315726 -0.0128135 -0.000790727 0.0261013 -0.0108518 0.0441884 -0.0183717 0.0869395 0.0246905 0.00634433 0.0494414 0.021451 0.0362011 0.0430822 0.0395801 0.0375041 0.0721556 0.0262162 0.0291242 0.0195448 0.0374527 -0.0127595 0.0261469 0.0224146 0.0439242 0.0576225 0.0698418
internal_weight=6929.22 3914.32 3014.9 3464.64 1850.18 3230.03 1164.72 1587.25 1082.63 288.261 82.0891 794.371 1400.73 1549.49 798.605 732.358 234.613 754.222 233.029 203.845 214.51 66.4602 521.193 748.312 154.367 593.945 483.855 436.156 110.09 1642.78 89.0552 42.607 300.688 731.867 57.9601 29.1837 211.091 134.13 52.8923 54.7301 114.478 81.2373 449.682 66.2472 46.2254 188.156 48.2032 179.887 910.912 743.617 702.867 186.209 364.139 342.128 208.042 186.524 72.0175 333.038 303.284 134.086 86.7136 68.0329
internal_count=22111 11490 10621 10472 6139 9598 4482 4520 4226 1203 256 3023 3919 5289 2345 2118 874 2673 881 753 781 190 1792 2812 630 2182 1825 1681 357 5078 273 135 850 2156 195 128 919 561 200 228 369 361 1018 227 170 609 172 628 2922 2428 2315 481 1374 1280 817 601 307 1183 1096 463 284 211
is_linear=0
shrinkage=0.05


Tree=5
num_leaves=63
num_cat=0
split_feature=5 6 8 4 4 54 6 10 25 14 6 5 17 30 10 9 13 43 10 43 6 39 32 62 9 37 17 60 17 39 22 28 5 8 14 37 39 32 5 32 35 54 35 31 39 39 35 21 35 10 20 64 37 32 39 35 39 35 63 53 10 53
split_gain=402.772 132.568 112.123 85.0261 69.695 64.6311 53.1874 44.5221 39.8117 38.87 31.9695 43.6767 31.5032 29.0142 27.2771 26.5646 25.8855 24.3628 26.4501 23.5109 23.6008 23.4145 23.3156 24.7022 23.2675 23.0212 22.7962 22.2722 22.0478 35.3746 21.9438 21.3826 20.9815 22.6772 21.1175 21.8921 20.472 20.2195 19.7445 19.3683 30.0724 22.1351 21.9665 20.0036 18.6192 18.6061 18.5008 18.0834 23.5714 23.1123 17.8377 17.7967 17.6823 17.6413 17.3899 17.369 17.1331 17.2731 19.5253 18.552 16.8371 16.6656
threshold=88.900714285714301 3.3439956852042085 69.035000000000011 7.5000000000000009 6.5000000000000009 12.860656891747652 4.2444653029598154 2.6314613737674342 3.9444444444444451 3.6726138663452921 2.0743214610560385 69.545857142857173 1.8452380952380951 3.5000000000000004 4.0328508432263392 0.15476190476190474 0.58571428571428574 1.5809045699406592 2.4340473624485619 2.2174497343810073 4.651531237563602 1.1012764020868262 20.295000000000005 1.5000000000000002 0.13392857142857142 1.5682044860363509 3.4722222222222228 2.9166666666666665 1.5634920634920637 1.0584566850496326 2.2191401914613365 11.500000000000002 85.04928571428573 92.145000000000024 2.8797318633466427 1.6287504533233632 1.342291176718611 4.8600000000000074 94.575178571428594 13.795000000000003 1.5374927444528981 20.497319045097907 1.5236984347325657 2.5000000000000004 0.88325156531777604 1.1885370959662127 1.5856156054334438 2.2361111111111116 2.4392904666669244 1.4980132415430958 9.5000000000000018 1.5000000000000002 1.9267762476364212 8.7050000000000001 1.0000799936010243 1.5045984654583078 1.3776487560152739 1.3588134534075986 9.5000000000000018 1.5395582162644013 4.8452234702013994 2.2282697965952454
decision_type=2 2 2 2 2 2 2 2 2 2 2 2 2 2 2 2 2 2 2 2 2 2 2 2 2 2 2 2 2 2 2 2 2 2 2 2 2 2 2 2 2 2 2 2 2 2 2 2 2 2 2 2 2 2 2 2 2 2 2 2 2 2
left_child=1 4 15 5 21 36 52 9 14 13 27 24 38 30 26 -3 -10 18 -13 20 45 31 23 -8 -12 46 -9 51 -17 -30 -4 44 33 39 35 -34 -2 54 -7 41 -41 42 61 60 -1 -14 -25 48 50 -49 -19 -6 -5 -50 -29 -36 57 58 -15 -59 -44 -18
right_child=3 2 7 6 10 12 22 8 16 -11 11 17 19 56 -16 28 32 47 -20 -21 -22 -23 -24 25 -26 -27 -28 37 29 -31 -32 -33 34 -35 55 -37 -38 -39 -40 40 -42 -43 43 -45 -46 -47 -48 49 53 -51 -52 -53 -54 -55 -56 -57 -58 59 -60 -61 -62 -63
leaf_value=-0.012442568363457389 0.063313630594080017 0.05136519208179946 0.051924844081920829 0.085218939611662575 0.040431502004339787 0.064593929113785642 0.095970742655764107 0.01192972969253253 0.058291199210253157 -0.021921172796893595 0.083633904875283341 0.065140364978774984 0.057710958132179135 0.016932501835604286 -0.012575346625285148 -0.037196574772118352 0.010188651837198495 0.051739737545623457 0.044055576519555995 0.016183727999566008 0.037766662623134696 -0.013313554842363424 0.014616233441908303 0.04318153754391299 0.021374089520695565 0.027842838811133599 0.050472292672975011 0.042778627306180123 0.049821070087243194 -0.019905891672372101 0.012398792344226903 0.056718621252397884 0.035419238508351672 -0.04770911001119188 0.04018857030872755 -0.018796683277136218 0.030737287309609548 0.061296570711159529 0.0168944827639597 0.073942679623563198 0.0078766170905859145 -0.04242537311719774 0.034725659539755614 0.06310742279693364 0.035317742366904277 0.019504941722502007 0.073808860450089817 0.063704123569284218 0.0075479895898957223 -0.0034789182724223782 -9.6428186260739124e-05 0.077722555338064644 0.043817390794859953 0.052611259670215509 -0.014778037982929934 0.095951190176129325 0.0081349017540334589 -0.024371801153766248 0.0767461612547366 0.0319944800800585 -0.018210390746130189 -0.043827924595906613
leaf_weight=41.434843212366104 863.13885726034641 14.952537089586256 340.79726196825504 415.05707755684853 41.177254989743233 25.447485715150833 42.859529733657837 336.04325588047504 69.030246078968048 28.865715578198433 15.884313017129896 276.46685253083706 520.22007822990417 20.223136186599731 103.42127779126167 79.240790009498596 97.079352378845215 309.43365094065666 330.52903565764427 58.063079029321671 296.51155459880829 57.861882224678993 30.791076749563217 79.484820827841759 268.48492148518562 61.992153495550156 43.369529381394386 33.145407035946846 24.714612782001495 67.999252066016197 39.609728008508682 37.34028434753418 137.72463013231754 12.673314347863196 34.663340196013451 21.336328908801079 52.03167313337326 66.970343574881554 149.68069869279861 37.295384526252747 32.326202869415283 16.414269626140594 46.305495619773865 37.756442070007324 39.85043478012085 34.514330998063087 137.28173875808716 17.220471903681755 71.381129294633865 48.575037285685539 17.332813605666161 160.85540583729744 28.400025188922882 31.360967248678207 21.450298443436623 24.182677492499352 76.338272631168365 14.836280718445776 43.875471085309982 535.83123348653316 21.997462376952171 16.628524944186211
leaf_count=173 2300 51 1047 891 124 74 93 1275 214 122 40 752 1483 71 439 385 371 933 1016 203 971 249 112 229 962 193 136 98 87 315 143 120 455 58 111 87 167 186 523 105 127 78 160 120 142 117 345 48 258 183 64 402 77 97 82 63 292 61 119 1824 95 77
internal_value=0.0424324 0.032755 0.0248894 0.0571841 0.0426537 0.0516673 0.0710304 0.0280645 0.0208787 0.035164 0.0457418 0.0424199 0.0433847 0.0367084 0.0101511 -0.0122579 0.0294229 0.0469331 0.0536764 0.0471313 0.0492342 0.0126908 0.0564518 0.0604357 0.0248976 0.0549217 0.0163607 0.0599436 -0.017846 -0.00123134 0.0478267 0.0254176 0.0256882 0.01747 0.0376628 0.0281081 0.0614705 0.0428624 0.023887 0.0202022 0.0433944 0.013329 0.0175334 0.0338932 0.0109253 0.0553468 0.0626265 0.0386499 0.042395 0.0140988 0.0489757 0.0701706 0.0825892 0.0213895 0.0200879 0.0633129 0.0305752 0.0333518 0.0580086 0.0304626 0.0176024 0.00221382
internal_weight=7057.76 4262.29 2375.53 2795.47 1886.76 1999.61 795.866 2188.62 1088.25 1100.38 1710.27 1386.67 1084.44 1071.51 482.834 186.907 605.414 1102.3 606.996 909.309 851.246 176.487 352.409 321.618 284.369 278.759 379.413 323.599 171.955 92.7139 380.407 118.626 536.383 318.476 217.907 159.061 915.171 121.566 175.128 305.803 69.6216 236.182 219.767 106.059 81.2853 554.734 216.767 495.304 429.509 65.7955 326.766 202.033 443.457 102.742 54.5957 58.846 691.104 614.766 64.0986 550.668 68.303 113.708
internal_count=22195 14417 8488 7778 5929 5838 1940 7650 3971 3679 5245 4353 3371 3557 1850 838 2121 3351 1768 2774 2571 684 972 860 1002 767 1411 892 787 402 1190 435 1907 1191 716 542 2467 366 597 1133 232 901 823 375 315 1600 574 1583 1352 231 997 526 968 355 180 174 2367 2075 190 1885 255 448
is_linear=0
shrinkage=0.05


Tree=6
num_leaves=63
num_cat=0
split_feature=7 4 33 54 33 8 4 52 14 52 33 46 10 35 43 39 1 17 39 9 50 32 43 37 37 14 51 14 4 28 8 39 8 22 41 52 1 17 43 7 41 54 54 10 8 22 37 9 10 28 39 7 58 7 39 28 35 10 45 13 9 50
split_gain=314.238 115.333 100.114 85.1989 67.2086 55.6258 51.1734 56.9299 59.2869 43.4811 47.6339 39.983 38.5579 26.9187 31.4886 34.5434 29.6481 25.612 25.3302 32.8265 25.1944 24.3503 22.8668 22.6529 22.3431 21.8179 21.7784 21.2387 20.9997 19.9603 19.5969 19.4725 19.5534 25.4879 19.3229 19.0717 18.0677 17.8392 28.236 20.7051 22.4831 22.6118 19.2675 17.7941 17.7041 17.593 18.1108 17.368 17.3706 17.2358 17.1702 25.0636 21.9407 16.9473 16.8012 19.4677 16.693 16.5332 16.1067 16.0257 18.3452 16.113
threshold=79.345000000000013 7.5000000000000009 0.050623801683352905 10.58193569422764 0.054778978428177659 79.375000000000014 6.5000000000000009 2.2747343936201898 1.3844306341717683 27.365471844425933 0.070019723241802362 0.47222222222222227 3.3130314765009437 1.1424875329732136 1.7634626987715742 1.0492500804098313 3.5000000000000004 1.8452380952380951 1.0633624211173107 0.84523809523809534 0.053412011124681504 7.2549999999999963 1.898215467828557 1.9782580154328739 1.2684635763883707 2.0383212153578731 0.33982849657801389 1.1153656346391345 6.5000000000000009 18.500000000000004 114.53500000000001 0.60202314236405385 87.490000000000023 1.3652427820533439 1.1392518503011033 2.9135650053208075 4.5000000000000009 3.4365079365079372 1.5614579858794368 72.605000000000004 1.41812757757084 18.244208360174312 16.983063652639554 2.5495097567963927 86.155000000000015 1.7360509461936515 1.4755660992027066 1.3095238095238098 2.6984709542835437 12.500000000000002 1.1181830400775339 76.075000000000003 2.5971185710393416 94.115000000000023 0.93608202322662259 9.5000000000000018 2.0444380417235748 3.9127374755171238 0.13392857142857142 3.3809523809523809 3.2539682539682544 0.10761204772046577
decision_type=2 2 2 2 2 2 2 2 2 2 2 2 2 2 2 2 2 2 2 2 2 2 2 2 2 2 2 2 2 2 2 2 2 2 2 2 2 2 2 2 2 2 2 2 2 2 2 2 2 2 2 2 2 2 2 2 2 2 2 2 2 2
left_child=2 3 6 31 20 9 22 43 13 10 12 23 26 -9 -15 16 -16 21 19 -12 -3 -5 54 37 -23 47 -4 -28 -19 -14 59 56 33 44 -6 -26 -21 38 39 42 41 -41 -7 -8 -33 46 53 -13 -49 -37 52 -52 -27 -22 -1 -56 -2 -34 -54 60 61 -30
right_child=1 4 5 17 34 11 7 8 -10 -11 18 25 29 14 15 -17 -18 28 -20 36 45 24 -24 -25 35 50 27 -29 30 -31 -32 32 57 -35 -36 49 -38 -39 -40 40 -42 -43 -44 -45 -46 -47 -48 48 -50 -51 51 -53 58 -55 55 -57 -58 -59 -60 -61 -62 -63
leaf_value=0.044928837032556665 0.080341050046733364 0.08500420280559301 -0.026550108115486776 0.062608042033537023 0.0049328852775845054 0.022811090237723926 0.061395558306847134 0.080917277871545068 0.0200858179130722 0.085976154694098236 0.066281110232846149 0.033262871993319468 -0.016921347327641896 0.050273910020035874 0.01260389620610885 0.0014165162898534039 0.076905717163074275 0.0090108126354155518 -0.026591331679496122 0.024601238547764099 0.083959633606367601 0.041924988095969506 -0.01751535951522416 0.077075857819121407 -0.017778487974690609 0.044319146159514121 0.050179844896081786 0.019999460279758567 0.044933673597302937 0.017871823028944706 -0.0079009357104968588 0.029146908044933841 0.059943596811919575 0.056497543652283835 0.048398310112238122 0.033607366529813658 -0.046273870148237466 0.074611359361386353 -0.00084847241321583326 0.05876426342878243 -0.02615585131606939 0.0021325557992602859 0.070613178941615604 0.040876383320186824 -0.039753013601647964 0.081701045432919964 0.041703078309273382 -0.037582334349518048 0.017204527606489158 0.0022018471583549145 0.047250886341653094 -0.030993878509419499 0.0076288291137719807 0.055159774311975329 -0.020217411667581862 0.033265162926909987 0.032398175529331392 0.039692904397816586 -0.044061035286438836 0.074056864198366462 0.016158130094139755 0.028816643508686037
leaf_weight=48.288560390472412 131.05731002986431 238.93066653609276 19.400459483265877 42.688823074102402 47.667466014623642 30.658342972397804 290.79622438549995 46.374987557530403 488.84686581790447 17.443866819143295 19.145244374871254 222.16800132393837 113.95993807911873 304.06603464484215 32.787559881806374 86.944298624992371 40.146452158689499 48.422563955187798 135.96212694048882 16.118803709745407 88.642129138112068 100.09468042850494 51.67438517510891 39.246805444359779 39.959338918328285 13.343204274773596 79.154823541641235 225.99705199897289 1553.5234799683094 64.364768460392952 18.879613474011421 22.568689376115799 613.68631856143475 44.267029210925102 55.82550223171711 103.47979407012463 19.956131592392921 27.438495174050331 51.555558621883392 43.311007753014565 18.199548736214638 30.004569992423058 70.93712916970253 170.72120709717274 15.732584387063978 114.00023311376572 108.18695250153542 16.541318371891975 108.94856579601765 76.199385285377502 34.287947118282318 14.411118030548094 23.11477530002594 128.02685171365738 34.164523288607597 33.617437720298767 21.725175186991692 123.59630638360977 42.283360376954079 41.219705745577812 65.334285125136375 175.12585319578648
leaf_count=161 304 484 84 117 169 105 783 113 1700 44 57 735 502 901 117 323 109 179 654 59 190 307 225 108 154 45 251 852 4625 251 69 70 1606 121 166 336 98 75 199 125 74 112 196 520 63 247 293 71 396 280 113 63 88 321 148 118 65 358 190 106 224 588
internal_value=0.0395866 0.0488368 0.0276931 0.0446681 0.0660974 0.0183554 0.0362778 0.0392826 0.032555 0.00821376 0.00624004 0.027522 0.014321 0.0444835 0.0408142 0.0227718 0.0481241 0.0393419 -0.014986 0.0134946 0.0718333 0.0271058 0.0100752 0.0414604 0.022332 0.0183703 0.0245835 0.0278584 0.0416687 -0.00433205 0.0425183 0.0570606 0.0539671 0.0307005 0.0284511 0.0133652 -0.0144872 0.0362787 0.0319306 0.0407036 0.0233212 0.0356902 0.0562738 0.0538266 0.000685635 0.0646334 0.0586052 0.0248563 0.00991887 0.0203252 0.000631512 0.023978 -0.0137563 0.0669985 0.022406 0.00624431 0.0735821 0.0565614 -0.0257313 0.0430402 0.0423206 0.0433055
internal_weight=7145.22 4018.84 3126.38 3237.56 781.28 1497.95 1628.43 1460.68 999.166 711.503 694.059 786.45 502.877 510.319 463.944 159.878 72.934 2264.93 191.182 55.2202 677.787 362.422 167.745 311.351 319.733 475.098 324.552 305.152 1902.51 178.325 1854.08 972.633 819.851 82.5683 103.493 219.639 36.0749 272.105 244.666 193.111 91.5151 73.3156 101.595 461.517 38.3013 438.856 324.856 347.658 125.49 179.679 127.44 48.6991 78.7413 216.669 116.071 67.782 152.782 737.283 65.3981 1835.2 1793.98 1728.65
internal_count=22207 11442 10765 9572 1870 5547 5218 4566 3263 2852 2808 2695 1940 1563 1450 549 226 6985 868 214 1535 1194 652 994 1077 1701 1187 1103 5791 753 5612 2587 2218 254 335 770 157 886 811 612 311 237 301 1303 133 1051 804 1202 467 616 499 176 323 511 427 266 369 1964 278 5543 5437 5213
is_linear=0
shrinkage=0.05


Tree=7
num_leaves=63
num_cat=0
split_feature=33 8 4 44 14 50 52 4 39 59 43 8 35 43 35 6 43 33 14 4 1 62 1 32 60 29 13 62 26 50 17 43 41 49 52 52 8 12 35 6 41 17 14 14 28 35 41 43 52 17 62 12 39 14 39 14 43 35 54 52 43 52
split_gain=288.11 120.164 117.542 78.2023 53.5841 47.0378 37.4781 35.7747 35.1554 26.311 45.3773 23.9708 22.4893 22.388 22.2534 21.953 21.8455 21.3889 28.0926 21.1446 23.6851 30.527 35.7659 27.2102 24.9238 29.0325 27.8878 22.3736 20.8653 20.1399 20.0847 19.9291 24.6633 18.5394 19.1429 17.8342 17.7731 17.6255 19.7728 24.1332 21.1204 20.7748 25.8591 18.1337 18.648 17.2664 16.2503 15.9885 15.9535 29.9029 24.1525 19.5089 22.1221 20.0685 15.928 20.6428 17.6051 23.5378 24.6851 17.0245 15.8291 17.5629
threshold=0.043628819395674055 80.295000000000016 8.5000000000000018 6.5000000000000009 0.91277775530749461 0.05050201915086381 4.4800393794803268 8.5000000000000018 1.1070082174867577 3.2384861814448418 1.2178551740098784 108.27500000000002 1.318176950681005 1.8555428042079993 1.3676898382435765 6.3061013522636191 1.1215993158912037 0.026586937475646104 2.1427198615434588 6.5000000000000009 10.500000000000002 3.5000000000000004 7.5000000000000009 9.5950000000000006 2.2817930594089928 1.5000000000000002 1.9444444444444446 2.5000000000000004 2.5085563808571316 0.12139691744813191 1.6904761904761907 1.1618277636844552 1.0639061178305942 0.41428571428571431 6.3537347660736208 5.593654216275092 94.575000000000003 10.500000000000002 1.7222177771150486 4.8500287184287307 1.1770372409854617 2.4722222222222228 2.6314613737674342 2.9310848478943847 9.5000000000000018 1.7073638026322977 0.64929623323994023 1.5732708695000628 2.9620865681578059 2.5634920634920646 8.5000000000000018 8.5000000000000018 1.1611895482726233 3.8747755647058768 0.60202314236405385 0.96150752350944624 1.9509197731424941 1.9129234303709306 14.469130692834144 2.7661989117703154 1.6799870829547447 2.0009072808372532
decision_type=2 2 2 2 2 2 2 2 2 2 2 2 2 2 2 2 2 2 2 2 2 2 2 2 2 2 2 2 2 2 2 2 2 2 2 2 2 2 2 2 2 2 2 2 2 2 2 2 2 2 2 2 2 2 2 2 2 2 2 2 2 2
left_child=2 4 3 8 35 9 48 19 13 10 -5 -9 -7 16 -10 -13 -1 -11 -19 28 21 31 23 -23 25 27 -27 -22 -3 -26 45 -21 47 -34 -35 -2 -36 38 39 40 43 42 -40 44 -8 -24 -25 -33 49 50 -6 53 -53 -50 -12 -56 57 58 59 -57 -14 -62
right_child=1 7 -4 5 6 12 37 11 14 17 54 15 60 -15 -16 -17 -18 18 -20 20 24 22 30 46 29 26 -28 -29 -30 -31 -32 32 33 34 36 -37 -38 -39 41 -41 -42 -43 -44 -45 -46 -47 -48 -49 51 -51 -52 52 -54 -55 55 56 -58 -59 -60 -61 61 -63
leaf_value=-0.011475232782403061 0.041669856498898483 0.043684560952786229 0.069802031631167549 0.066504378244076748 -0.031292964718536029 -0.002964108581623404 -0.030893116059450661 0.069273659182240641 0.042496241458573114 0.054086355072789805 0.062484573730941864 0.046147586768601472 0.044228710208177036 -0.0025103803089536821 -0.025525534871992807 0.0047864873211357342 0.04772392162666967 0.051952749126262569 -0.0096246422535016234 0.070233886348973026 -0.052893314365068111 -0.03678658931744757 0.043587552049327842 -0.017946164655673589 0.0088398479616858261 0.0093292143214045685 0.069983612785141688 0.01827204160516387 -0.015376548401008234 -0.046008446954919825 0.046755877770140349 0.063084009282372913 0.057032610814476283 0.028901965911408534 -0.031783950516061289 0.0059955894611361015 0.036851557400789561 -0.030834569515573496 0.021044741296165397 0.032983341494526676 -0.053549089100671882 0.061446166269839189 -0.029790265101905453 -0.040371143464400884 0.03856787234672545 -0.023668693823571091 0.024569966319297146 0.038084295370140554 0.035502738798295679 0.034548115237922054 0.016205899011711804 -0.0048018712561019739 0.057737331013000603 -0.0082375375372257635 0.059170538865450296 0.038928522282970682 -0.003842081492200073 0.072770792109855431 0.084506408082716977 0.013261355980017079 0.047841029242590954 0.030621838730772122
leaf_weight=18.080060198903084 164.12233705818653 21.407020583748817 448.59734196960926 453.39797872304916 68.47058579325676 30.517616376280785 15.207857117056845 92.612493142485619 14.733051419258116 55.651920095086098 136.36795954406261 181.20923614501953 1047.5649846047163 43.588066622614861 62.732023030519485 39.343348279595375 105.77429139614105 29.518099293112755 49.121400758624077 57.530267506837845 13.840234175324438 19.305746257305145 17.842966109514236 23.041257947683334 61.546549826860428 30.135239392518997 52.079075828194618 52.913454204797745 48.902604609727859 22.838729694485664 269.44752752780914 120.20561124384403 42.8597242385149 151.65008561313152 28.398733615875244 45.013968214392662 13.958888366818426 64.877749040722847 74.285349115729332 21.224058896303177 40.724706918001175 18.206668213009834 37.559937298297882 26.138326451182365 25.931524157524109 20.211155042052269 676.78841985762119 141.96611307561398 187.15458531677723 47.458251342177391 43.662713140249252 100.10552151501179 16.350322917103767 30.247373819351196 164.41690446436405 345.32023568451405 22.964219152927399 51.701281234622002 25.878111898899078 80.418728843331337 198.15117080509663 610.67333963513374
leaf_count=69 517 66 962 1096 301 106 71 216 50 144 337 491 2991 176 273 142 331 83 180 149 60 80 55 91 221 105 137 178 192 103 817 334 126 498 121 170 45 308 286 72 206 62 180 128 94 82 2277 452 650 162 165 418 53 130 425 968 79 122 59 259 558 1938
internal_value=0.0366889 0.0255717 0.0456658 0.0426096 0.0114386 0.0446326 0.00565243 0.0321644 0.0153096 0.0515406 0.0537552 0.0478455 0.039448 0.0281985 -0.0124859 0.0387975 0.0390395 0.0303622 0.0134622 0.0295567 0.0305982 0.0327934 0.0276616 0.0215395 0.0156761 0.0279743 0.0478501 0.00338529 0.00257115 -0.00598245 0.0419513 0.0422436 0.0389934 0.0272327 0.0205977 0.0340218 -0.00901394 -0.00754388 -0.00168707 -0.0155497 -0.0251551 0.0120505 0.00391728 -0.00783936 0.0127566 0.00776722 0.0231607 0.0495854 0.0143312 0.00129302 -0.0127552 0.0205466 0.0039777 0.0293931 0.0467529 0.0436311 0.0387566 0.0407105 0.0370139 0.0340962 0.040148 0.0348519
internal_weight=7221.95 3226.78 3995.17 3546.57 1026.74 3301.66 817.606 2200.03 244.907 1414.76 1280.47 313.165 1886.91 167.442 77.4651 220.553 123.854 134.291 78.6395 1886.87 1816.56 1583.21 1026.64 719.135 233.353 148.968 82.2143 66.7537 70.3096 84.3853 307.502 556.569 499.039 236.867 194.008 209.136 42.3576 324.156 259.278 129.226 108.002 130.052 111.845 67.2777 41.1394 38.0541 699.83 262.172 493.449 159.592 112.133 333.858 116.456 217.402 827.067 690.699 526.283 503.318 451.617 425.739 1856.39 808.825
internal_count=22217 11011 11206 10244 3973 9345 3286 7038 899 3752 3345 849 5593 576 323 633 400 407 263 6189 5931 5127 3402 2448 804 480 242 238 258 324 954 1725 1576 790 664 687 166 1407 1099 571 499 528 466 293 165 137 2368 786 1879 628 466 1251 471 780 2249 1912 1487 1408 1286 1227 5487 2496
is_linear=0
shrinkage=0.05


Tree=8
num_leaves=63
num_cat=0
split_feature=55 4 8 4 43 50 14 46 4 52 56 58 38 35 52 56 28 8 50 39 14 62 26 43 41 18 7 32 8 14 8 7 5 14 54 54 34 41 14 26 49 46 41 43 26 26 52 1 17 37 41 26 43 59 25 52 24 14 18 50 1 18
split_gain=269.284 106.587 95.5324 64.449 42.8406 40.4426 37.5633 24.5069 24.5039 23.7464 34.1465 22.7782 22.1204 22.4986 21.8104 21.2527 20.5291 20.4633 19.6104 19.0526 20.778 21.3864 19.8143 19.0056 19.769 19.8925 18.8185 18.6921 18.6711 18.0962 18.824 25.0269 17.5804 17.5635 18.6268 17.3739 17.2652 27.1997 21.989 20.1124 20.5041 19.881 17.9264 17.87 17.6443 17.1731 20.1955 17.3138 17.1569 17.0984 16.8828 18.2445 16.5292 16.2681 16.263 29.3202 17.0242 20.7185 16.2299 16.0166 15.7943 15.7808
threshold=0.0019584772209633506 8.5000000000000018 79.375000000000014 5.5000000000000009 1.1950508672229729 0.047924084036004462 0.91277775530749461 0.64583333333333337 7.5000000000000009 4.981243117848412 41.033536507936532 3.0162698947791369 1.5000000000000002 1.2400686871914213 2.7515420014496952 18.01548571428571 6.5000000000000009 104.54500000000002 0.066973292570454715 0.70165043599477528 3.1570961896189758 3.5000000000000004 1.4799382962544956 1.7895530168173284 1.6848668784485821 1.2724180205607041 97.165000000000006 13.924999999999999 78.825000000000003 0.96150752350944624 76.465000000000018 94.010000000000005 83.119285714285738 2.7036095170363166 10.925453012127866 16.055885349151541 7.5000000000000009 1.1481958692963108 3.387652649872841 7.2773294255982108 0.30952380952380959 0.64583333333333337 0.64536546334498623 1.5276720384992089 4.4894053221805352 8.6643760064302153 1.9220187232608914 11.500000000000002 2.5634920634920646 1.3230840152248999 0.79415904418267058 4.8810247323905296 1.2600774049671803 1.2424533248940004 1.788888888888889 5.0375215121028853 1.5000000000000002 3.0960796118906617 1.2447997111193143 0.047135689903817161 2.5000000000000004 2.1375329959713385
decision_type=2 2 2 2 2 2 2 2 2 2 2 2 2 2 2 2 2 2 2 2 2 2 2 2 2 2 2 2 2 2 2 2 2 2 2 2 2 2 2 2 2 2 2 2 2 2 2 2 2 2 2 2 2 2 2 2 2 2 2 2 2 2
left_child=1 3 6 -1 35 7 -2 14 36 -8 27 -10 18 -14 59 -3 -9 -16 -7 22 21 -21 -15 45 25 -25 -19 28 33 60 -31 -32 -22 34 -11 -4 37 41 39 44 -41 42 -6 -40 -38 46 -23 -48 -35 -42 -43 53 -46 -52 55 -39 -56 -58 -44 -5 -27 -60
right_child=2 15 4 5 8 12 9 16 11 10 -12 -13 13 19 17 -17 -18 26 -20 20 32 23 -24 24 -26 29 -28 -29 -30 30 31 -33 -34 48 -36 -37 38 54 43 40 49 50 58 -45 52 -47 47 -49 -50 -51 51 -53 -54 -55 56 -57 57 -59 61 -61 -62 -63
leaf_value=-0.023888556783045221 0.031272919921202652 0.069823673149818896 0.037288535355375761 0.053318234808658896 0.00056325194264918025 0.033436083405593384 0.011862297445081389 0.047393279465028318 0.047119546309166038 0.047940401164357799 0.05624469285191902 0.002430316392192692 -0.014179451460709242 0.088185261764933992 0.030902145912140896 0.033870649008765193 0.009171932461697143 0.099376279043569396 -0.040290431759817613 0.048956150529934107 -0.026625212200472231 0.071272981560567869 0.044976793598908715 -0.0092159928518345015 0.06388438069837174 0.012689150677626666 0.041708597411273744 -0.066903630879180512 0.052331419263362239 0.051558203686901505 -0.0051277689017638029 0.043437405819589672 0.024694274599115135 -0.044078577157346331 -0.0094784132872067373 0.059934989171275613 0.039335625075376995 0.028425114346683374 0.07163588374369291 0.079596433355954468 -0.00088772564797593822 0.044717961759120378 0.0091075596370053195 0.009846390593499307 -0.046492218678496629 0.075115326557920692 0.0342521827543373 0.07152422380606975 0.019287396016432302 0.037968267503254494 0.026446094324142008 0.045675291630341633 0.006162461763194493 -0.019511191189785965 0.067714309608796999 -0.029830274122397728 0.024658393321266611 -0.020811591123950424 0.058827149360487101 0.089958461881302215 0.052481794666421104 0.03783807518616885
leaf_weight=37.71435771882534 185.02747827768326 424.2422548532486 230.42199213802814 899.0675650537014 26.035789430141449 19.075931921601295 531.11361144483089 72.371973350644112 223.15806409716606 16.693647027015686 19.017688661813736 32.973990857601166 20.081279098987579 28.48020900785923 210.72600376605988 46.460117623209953 69.046743035316467 23.299351766705513 16.921473026275635 339.39931756258011 20.22383426129818 42.001042366027832 459.83161111176014 45.261433213949203 30.094201624393463 35.60798491537571 37.759076580405235 15.157777667045591 11.420303925871847 29.713102668523788 100.59254115819931 35.860909536480904 91.659596532583237 58.174840599298477 88.7262252420187 137.05348658561707 38.535020902752876 43.517124176025391 31.617776930332184 18.214084893465042 46.690404787659645 48.138391926884651 31.947871699929237 18.92091092467308 15.600937291979788 31.29781486093998 848.24734437465668 32.620878338813782 12.898257672786711 70.858173340559006 30.489737331867218 25.77680104970932 289.14639446139336 51.790215104818344 20.769660547375679 42.682422310113907 313.89748768508434 27.029659077525139 154.14478723704815 31.421812251210213 86.708005920052528 222.41660146415234
leaf_count=170 603 871 687 2279 93 58 2048 199 581 59 53 119 72 62 623 123 224 45 71 947 78 101 1280 169 81 125 101 79 39 85 365 101 280 303 393 364 123 140 85 48 174 145 112 71 66 77 2526 78 54 231 99 79 1057 202 58 176 1039 108 433 67 249 682
internal_value=0.0355351 0.0438634 0.0244483 0.041003 0.0301647 0.0416742 0.0110872 0.0485908 0.0270178 0.00611832 -0.00759474 0.041389 0.0376532 0.0382678 0.0509135 0.0662935 0.028787 0.0383596 -0.00109799 0.0387372 0.0363065 0.0377166 0.0475247 0.034815 0.025039 0.0215032 0.0639223 -0.0136227 -0.00926495 0.0263418 0.0155343 0.00762134 0.0153577 -0.0133063 -0.00030172 0.0457624 0.0246649 0.0284195 0.0172877 0.0139573 0.0302538 0.0354759 0.0409874 0.0486667 0.00749087 0.0385345 0.0372805 0.0356461 -0.0324978 0.0225045 0.020094 0.00904677 0.00343614 -0.00240909 0.0190958 -0.000363729 0.023746 0.0210337 0.0435508 0.0545705 0.0409582 0.0464565
internal_weight=7295.85 4165.79 3130.06 3695.09 2191.83 3657.37 938.23 1343.69 1824.35 753.202 222.089 256.132 2313.68 2277.68 1202.27 470.702 141.419 271.784 35.9974 2257.6 1769.29 1657.4 488.312 1318.01 363.838 333.744 61.0584 203.071 187.913 288.483 166.167 136.453 111.883 176.493 105.42 367.475 1568.22 1038.64 529.584 479.045 135.763 590.74 434.545 50.5387 343.282 954.167 922.869 880.868 71.0731 117.549 156.195 108.057 304.747 82.28 447.896 86.1995 361.697 340.927 408.509 930.489 122.316 376.561
internal_count=22110 11507 10603 10513 6972 10343 3631 3538 5921 3028 980 700 6805 6676 3115 994 423 769 129 6604 5262 4904 1342 3957 1175 1094 146 927 848 925 551 466 358 809 452 1051 5221 3366 1855 1699 453 1845 1320 156 1246 2782 2705 2604 357 405 525 380 1123 301 1521 316 1205 1147 1227 2346 374 1115
is_linear=0
shrinkage=0.05


Tree=9
num_leaves=63
num_cat=0
split_feature=5 55 4 8 4 9 52 6 52 52 41 43 13 60 55 41 26 9 53 13 7 43 43 7 55 20 4 12 41 35 43 32 22 26 52 26 41 54 55 43 26 29 20 53 50 7 60 43 43 53 50 43 26 22 13 29 9 60 0 5 8 41
split_gain=243.125 93.0798 71.9639 43.341 40.4686 39.4256 34.3953 34.0259 31.8287 30.7767 27.1747 21.7628 28.2687 21.6205 20.9039 44.5489 25.2436 20.8544 25.5356 19.6146 27.3769 19.2638 23.6705 23.2235 18.2175 20.6563 20.1058 19.2502 30.6738 33.2988 22.1745 21.6615 20.2338 19.527 24.5396 18.1749 18.1419 17.8642 17.7285 20.7577 19.8148 20.7099 20.2552 17.832 21.3158 17.7537 17.3604 17.2252 17.0572 36.5912 18.4219 17.0509 16.2778 16.7589 16.1655 15.9577 18.1321 15.6906 16.6702 16.6833 17.6606 15.1821
threshold=87.83785714285716 0.0022141313770222006 7.5000000000000009 79.035000000000011 5.5000000000000009 0.15476190476190474 4.72986345369186 4.2444653029598154 4.5971601370953552 27.365471844425933 1.1181830400775337 1.5418042947231823 1.1833333333333336 2.9166666666666674 0.0020432564247744004 1.4162908613197303 4.6460426087257165 1.3095238095238098 3.6436302166720229 2.6904761904761911 82.335000000000022 1.6033386201710742 1.7447206254515677 74.365000000000023 0.00079392731015180012 9.5000000000000018 6.5000000000000009 6.5000000000000009 1.0736359471391388 2.3040178777764289 1.28086884574495 8.5950000000000006 0.89708130092117677 6.0564473283285345 3.8871739380070931 8.1398977280150557 1.131001005130692 18.787493263108278 0.0027834267518290503 1.1892726787394168 5.1888919355915624 1.5000000000000002 6.5000000000000009 2.8043176586942145 0.080878616692632618 92.125000000000014 3.3703703703703707 1.0230789190382485 1.1549658544681918 2.1422693592617597 0.12813843221619151 1.3326034451854081 2.2595473095845002 1.6171202366154089 0.64583333333333337 3.5000000000000004 0.47222222222222227 2.9166666666666665 2.0000000000000004 82.19785714285716 72.320000000000007 1.3189914230275417
decision_type=2 2 2 2 2 2 2 2 2 2 2 2 2 2 2 2 2 2 2 2 2 2 2 2 2 2 2 2 2 2 2 2 2 2 2 2 2 2 2 2 2 2 2 2 2 2 2 2 2 2 2 2 2 2 2 2 2 2 2 2 2 2
left_child=1 4 8 5 -1 -3 17 -4 13 10 48 47 -13 14 37 16 -16 52 35 20 -18 -14 23 -23 26 27 54 30 -29 33 32 -32 -26 34 -30 46 -25 61 43 -40 41 -41 -42 44 -10 -45 -19 -5 49 -8 -50 -33 53 -7 -6 56 -49 -28 -59 60 -60 -2
right_child=2 3 7 11 24 6 9 -9 38 -11 -12 12 21 -15 15 -17 19 18 -20 -21 -22 22 -24 36 25 -27 57 28 29 -31 31 51 -34 -35 -36 -37 -38 -39 39 40 42 -43 -44 45 -46 -47 -48 55 50 -51 -52 -53 -54 -55 -56 -57 -58 58 59 -61 -62 -63
leaf_value=-0.027572060064916484 0.041940813461115299 0.049617622002973205 0.064948807352928337 0.00054648817939181025 -0.022616748320875256 0.023215219942853419 -0.011335088779794672 0.044512707632950323 0.014337231065011922 0.059676417239876295 -0.028341848701695656 0.022958935303756575 -0.04289806828010579 0.031930501672412293 0.055401202585520448 -0.034480206991894073 0.050785231827233802 -1.8504603319252007e-05 -0.040136743476355832 0.05509574596312982 -0.018277894564246309 0.060608701206078967 -0.016104165837642872 -0.034338696123699282 0.012895548836630686 0.006294156906217283 0.054294229107899307 0.013915766818726853 0.035698220813769145 -0.010986909639257587 0.024707637596385449 -0.00085109368544743821 0.05599787290530639 0.051390377246543231 -0.018226096151055558 0.048776114553349265 0.03444815930505063 0.08175215163446177 0.067366501281598101 0.019780386205173549 -0.039704550967562438 0.075110469446650424 0.02476394639160177 0.061255707576782031 -0.036313243090412915 0.013901399554508982 0.052322841974584838 0.063019303887336564 0.010870956752517709 0.098225135116093112 -0.035234212310079047 0.044543551966698479 0.031130286243168555 -0.044311115412671416 0.039988967847070227 0.078100626945144469 0.028158243411526132 0.069625358539864832 0.037836507552206827 0.044051828223569588 -0.017311984997301934 0.05399363874283606
leaf_weight=28.126403316855431 867.63024160265923 52.956279322504997 461.24334387481213 45.209564730525017 20.308079719543457 21.739386290311813 17.408472865819935 371.32838928699493 105.46137826144695 15.252862840890883 137.88242404162884 430.02337540686131 24.145533740520477 474.79130659997463 98.266914501786232 23.878209412097931 21.098613232374191 191.07031789422035 29.373931035399437 26.402001947164536 44.233747497200966 28.428100690245628 63.685414642095566 18.574458584189415 32.121348306536674 85.012304216623306 222.4859586507082 323.45025156438351 129.13267803192139 35.228767067193985 441.67667417228222 21.899180814623833 193.82570171356201 176.71025963127613 25.017571866512299 25.771459102630615 19.586443230509758 35.667469143867493 43.542949587106705 37.131731972098351 17.179069682955742 31.617537438869476 41.069691702723503 34.711478263139725 25.735392734408379 46.889066725969315 17.155587986111641 40.97945262491703 56.210897520184517 13.334789380431173 35.035908609628677 316.10912176966667 175.81539723277092 15.730332016944883 20.656124830245972 18.861959680914879 448.762715280056 25.298273906111717 25.059784293174744 56.644899249076843 34.114935398101807 383.171057254076
leaf_count=132 2303 159 950 155 85 74 78 969 339 40 650 1443 105 1398 264 94 61 761 137 71 166 86 261 78 102 289 549 1067 382 131 1374 74 500 496 96 86 65 80 110 124 73 81 136 94 104 156 58 107 228 39 171 911 608 70 63 45 1439 60 70 153 120 955
internal_value=0.0328088 0.0248347 0.0431912 0.0168422 0.0318492 0.00795003 0.00500206 0.0558467 0.0387193 -0.00906214 -0.0131373 0.0231233 0.0163698 0.0412833 0.0442373 0.0296723 0.0377748 0.0131306 0.00369393 0.018799 0.00399266 -0.00195018 0.00562799 0.0264805 0.0326177 0.0304269 0.0422353 0.0316337 0.0251671 0.0350878 0.0360599 0.0320365 0.0499008 0.0400106 0.0269081 0.0092322 0.000833885 0.0466524 0.0254884 0.0375192 0.0272014 0.0453712 0.00562936 0.01581 0.00434353 0.0341566 0.00429291 0.030237 0.00401622 0.0361886 -0.00679644 0.0415883 0.0247526 -0.00504272 0.00885081 0.0328657 0.0310977 0.0459793 0.0328054 0.0246666 0.00598282 0.0456411
internal_weight=7346.92 4155.87 3191.05 1943 2212.88 804.738 751.782 832.572 2358.48 275.125 259.872 1138.26 584.443 1975.14 1500.35 213.879 190.001 476.656 263.371 91.7344 65.3324 154.42 130.274 66.589 2184.75 1780.18 404.568 1695.17 689.54 366.089 1005.63 779.685 225.947 330.861 154.15 233.997 38.1609 1286.47 383.338 170.541 126.998 68.7493 58.2488 212.797 131.197 81.6005 208.226 553.814 121.99 30.7433 91.2468 338.008 213.285 37.4697 40.9642 508.604 489.742 363.604 141.118 115.82 59.1747 1250.8
internal_count=22125 13597 8528 6943 6654 3159 3000 1919 6609 1206 1166 3784 2038 5392 3994 656 562 1794 1042 298 227 595 490 229 6522 5422 1100 5133 2172 1105 2961 2359 602 974 478 905 143 3338 1217 524 414 205 209 693 443 250 819 1746 516 117 399 985 752 144 148 1591 1546 952 403 343 190 3258
is_linear=0
shrinkage=0.05


Tree=10
num_leaves=63
num_cat=0
split_feature=7 33 4 33 8 4 10 46 25 60 1 52 6 18 33 14 62 14 4 10 17 41 25 50 49 6 1 50 62 21 41 21 13 18 10 9 53 53 20 51 25 40 12 1 8 16 4 17 62 18 50 30 62 53 0 50 52 16 54 39 31 63
split_gain=187.89 69.8432 53.7025 61.4649 44.7808 39.2017 32.7011 32.4975 32.3933 30.7049 30.4527 27.6294 26.8892 26.7993 33.0117 24.2532 31.0283 23.9169 28.416 31.3351 23.9091 23.5826 22.537 22.0757 20.7675 20.7395 35.1207 19.9415 19.242 22.5691 18.6403 18.4161 18.1768 20.4923 18.141 18.0121 20.355 21.6891 18.7935 48.6173 17.1997 18.8126 18.671 17.6805 17.4266 16.9965 16.911 16.6346 16.6279 16.6016 17.4254 17.7585 17.2766 18.5892 16.3317 16.6634 16.2445 16.0571 20.6473 23.2427 26.9826 16.4121
threshold=79.285000000000011 0.047054557451910006 7.5000000000000009 0.054336129947361402 80.295000000000016 6.5000000000000009 3.6726138663452921 0.47222222222222227 5.6904761904761916 1.4057020967248237 10.500000000000002 4.922591202978146 1.6468982372214012 1.7360509461936513 0.056249963060006257 4.3782007853177562 4.5000000000000009 2.4340473624485619 6.5000000000000009 3.6482205472324218 1.1547619047619049 1.0736359471391388 5.5634920634920642 0.053729029493248502 0.15476190476190474 4.1450081842012994 5.5000000000000009 0.052782108684754254 10.500000000000002 0.69047619047619058 0.96891799618612395 0.64583333333333337 0.64583333333333337 2.111943024414368 1.1442969787034669 3.2539682539682544 1.6016276228307225 2.0183444154388619 4.5000000000000009 0.27431325357566699 4.6904761904761916 6.5000000000000009 5.5000000000000009 8.5000000000000018 95.50500000000001 5.5000000000000009 5.5000000000000009 2.183333333333334 1.5000000000000002 3.1866531684001278 0.075222850597490912 3.5000000000000004 10.500000000000002 2.4108202744091156 4.0000000000000009 0.10121573852098462 4.0812678498426296 10.500000000000002 16.983063652639554 0.78405958945136855 1.0000000180025095e-35 25.500000000000004
decision_type=2 2 2 2 2 2 2 2 2 2 2 2 2 2 2 2 2 2 2 2 2 2 2 2 2 2 2 2 2 2 2 2 2 2 2 2 2 2 2 2 2 2 2 2 2 2 2 2 2 2 2 2 2 2 2 2 2 2 2 2 2 2
left_child=1 12 5 23 6 46 15 32 13 21 25 35 -1 14 -8 16 24 18 20 -20 -14 -7 -21 -4 -3 26 -9 -18 29 -13 -10 -29 33 -6 -34 38 -37 -38 39 -11 41 42 45 -43 -45 -40 -2 -22 -25 50 52 -52 -44 -54 -26 -56 -53 58 61 -60 -61 -33
right_child=2 4 3 -5 7 9 8 10 30 11 -12 28 17 -15 -16 -17 27 -19 19 22 47 -23 -24 48 54 -27 -28 31 -30 -31 -32 57 34 -35 -36 36 37 -39 40 -41 -42 43 49 44 -46 -47 -48 -49 -50 -51 51 56 53 -55 55 -57 -58 -59 59 60 -62 -63
leaf_value=0.051824927843648366 -0.034993142586726776 0.066399621539704579 0.066201978039708023 0.01441226696272295 0.078001420959264656 0.032626623052103614 0.03722183728906335 -0.044062897952229715 0.065462994566772376 0.037027669184623115 -0.048327478320950475 0.065165511303944962 -0.026743494729995921 -0.04328345510860563 -0.025715689423092304 -0.01723802843894703 0.04527214351245492 0.011089690513801646 0.036998456693396284 -0.0016481084571746717 0.033112879282010822 0.052890998104116682 0.043581750761408196 0.079585351190137613 0.038498009861884876 0.020945391726060483 0.038901927361928122 -0.039271995159693068 -0.015811817176387001 0.017771619590542385 0.0040390479840280401 -0.014756315792843984 0.065908436064364639 0.0092107779687562261 0.02526397599150438 0.045849450337418711 -0.05387756890753647 0.018749062769837243 0.048096486947064136 0.00012844701987581046 0.050247783116505823 -0.0015999172313156083 0.039754212628434302 0.066362540267808551 0.0095930168828448088 0.032770137792623097 0.015434743048239477 -0.02175721928068566 0.044724362934515774 0.046382436978303458 0.03412737446105029 -0.0088702888471053464 -0.021690112250696648 0.033667951356019576 0.031503358608028144 -0.013483724243074325 0.035347247570794472 0.050776637967522908 -0.036940099622545457 -0.024107317835360215 0.037285582010664425 0.019446051616894722
leaf_weight=127.53287597000599 19.479415148496628 35.006116166710854 262.49470040202141 110.20399676263332 43.357612282037735 223.25242264568806 32.815774157643318 32.776410713791847 17.28286324441433 321.30056564509869 17.99639168381691 28.645024061203003 35.560580000281334 73.965452328324318 56.619215205311775 61.640062689781189 32.029545679688454 186.49073618650436 833.78002859652042 97.705972358584404 67.958448305726051 414.84244799613953 38.143686652183533 37.969395071268082 92.597508296370506 470.48278172314167 20.702593058347702 22.752488821744919 35.482768028974533 207.49911503493786 43.416780963540077 142.79283405840397 31.071673914790154 14.685208261013029 247.64786379039288 24.2893186211586 17.52706778049469 24.452100515365601 538.60827976465225 123.97496752440929 260.31109431385994 61.155537202954292 261.67739732563496 26.617490336298943 27.924197763204575 278.20045094192028 108.86544178426266 17.140348434448242 403.23774246871471 146.04259614646435 71.538226559758186 83.095158413052559 26.091422498226166 35.752119794487953 38.958415880799294 43.259302616119385 27.563303962349892 19.71589782834053 16.22998158633709 21.556120306253433 101.32242837548256 46.295092135667801
leaf_count=330 85 101 517 349 105 611 119 137 52 881 80 75 156 360 264 287 93 626 2379 341 232 1028 108 71 313 1571 62 103 133 685 173 595 78 49 785 64 71 76 1413 427 673 202 708 63 87 781 360 72 955 394 212 297 91 101 132 175 83 69 70 95 341 170
internal_value=0.0307226 0.021548 0.0376567 0.0492107 0.014955 0.0348833 0.00709515 0.0229821 -0.00943575 0.0359489 0.0153814 0.0335496 0.0298854 -0.0210348 -0.00255083 0.0125983 0.0156113 0.0276861 0.030519 0.0333679 0.00757557 0.0458151 0.0110374 0.0546504 0.0312047 0.0175879 -0.0118399 0.00746837 0.0184006 0.023567 0.0216893 0.00417689 0.035191 0.0607287 0.029835 0.0352931 0.00947531 -0.011511 0.0360376 0.0267676 0.038271 0.0362969 0.0378293 0.0167869 0.03746 0.0428872 0.00772089 0.0219899 0.0477531 0.0314774 0.0271549 0.014727 0.0341317 0.0102347 0.0240945 0.00778479 0.00212044 0.00704316 0.00438604 0.0190096 0.0264642 -0.00635014
internal_weight=7389.38 3181.29 4208.09 813.906 1776.98 3394.19 898.256 878.721 224.1 3265.84 541.958 2627.75 1404.31 163.4 89.435 674.156 612.516 1276.78 1090.29 969.63 120.659 638.095 135.85 703.702 209.821 523.962 53.479 402.694 271.627 236.144 60.6996 370.665 336.762 58.0428 278.72 2356.12 66.2685 41.9792 2289.85 445.276 1844.58 1584.27 1468.57 115.697 54.5417 816.809 128.345 85.0988 441.207 651.76 505.718 182.197 323.521 61.8435 174.815 82.2177 110.658 347.912 328.196 139.109 122.879 189.088
internal_count=22116 10623 11493 1892 6379 9601 3512 2867 968 9156 1850 7517 4244 743 383 2544 2257 3914 3288 2828 460 1639 449 1543 721 1770 199 1536 893 760 225 1443 1017 154 863 6624 211 147 6413 1308 5105 4432 4080 352 150 2194 445 304 1026 1886 1492 592 900 192 620 307 380 1340 1271 506 436 765
is_linear=0
shrinkage=0.05


Tree=11
num_leaves=63
num_cat=0
split_feature=33 44 8 44 50 33 46 44 51 10 45 39 2 37 7 13 7 62 54 58 35 2 14 28 54 13 54 54 39 7 17 17 46 2 51 7 54 53 54 17 10 26 25 14 39 7 7 31 10 5 17 49 13 37 6 51 5 37 10 25 26 41
split_gain=198.464 86.619 75.6964 50.2835 40.4256 40.3782 33.028 30.3153 28.9738 25.9618 25.945 24.2342 21.9243 21.5554 20.282 21.3449 22.977 21.5792 25.7327 22.3796 19.6096 19.4845 18.8125 18.7397 18.6628 18.5116 18.4165 26.3141 25.2221 23.1145 20.3913 17.6031 17.3133 20.3615 17.9046 17.2825 17.1474 17.1256 16.6076 16.5617 16.4089 19.821 16.3043 16.7554 20.505 17.1629 17.2371 17.155 20.9877 20.0177 23.745 16.4391 16.2922 17.087 20.6443 29.9682 24.2463 16.2598 16.0216 40.3443 15.6926 15.5116
threshold=0.044708530389604609 8.5000000000000018 79.165000000000006 5.5000000000000009 0.051638151599312752 0.06674820437565597 0.47222222222222227 6.5000000000000009 0.20505592351609261 3.387652649872841 0.30952380952380959 1.2605892787817685 4.5000000000000009 1.4029878766901216 94.695000000000007 2.1180555555555558 82.50500000000001 2.5000000000000004 14.987924310697155 2.4217004753816149 1.7986178051246748 4.5000000000000009 0.82491495713052976 3.5000000000000004 13.651909509385334 0.5634920634920636 20.976462892135444 20.393833414003527 0.95478394861253835 66.695000000000007 2.9444444444444451 0.84523809523809534 0.41428571428571431 10.500000000000002 0.31642643505031581 44.465000000000011 24.301600276425741 2.6203272334477217 11.320388671789386 4.366666666666668 5.1141725186095091 5.8211434966836979 0.69047619047619058 2.0383212153578731 1.0497363154925792 94.465000000000018 82.02500000000002 2.5000000000000004 1.5320579872670474 80.69785714285716 1.8452380952380951 1.1269841269841272 0.15476190476190474 2.2905510400971769 3.4346872041278238 0.26885397232523595 88.04928571428573 1.5682044860363509 2.6314613737674342 3.8452380952380958 5.3145128944649569 1.1338641808293708
decision_type=2 2 2 2 2 2 2 2 2 2 2 2 2 2 2 2 2 2 2 2 2 2 2 2 2 2 2 2 2 2 2 2 2 2 2 2 2 2 2 2 2 2 2 2 2 2 2 2 2 2 2 2 2 2 2 2 2 2 2 2 2 2
left_child=1 3 4 -1 61 10 8 -4 -5 32 23 -10 35 -14 15 17 -17 20 22 52 -8 -3 31 -6 37 36 27 38 40 -30 -31 -19 -9 34 -34 -7 -11 -13 -27 -35 41 -28 -36 44 45 46 -44 48 51 -50 -51 -45 -20 54 55 -54 -56 -23 -52 -60 -40 -2
right_child=2 21 7 6 5 12 14 9 11 25 -12 24 13 -15 -16 16 -18 18 19 -21 -22 57 -24 -25 -26 26 28 -29 29 30 -32 -33 33 39 42 -37 -38 -39 60 -41 -42 -43 43 47 -46 -47 -48 -49 49 50 58 -53 53 -55 56 -57 -58 -59 59 -61 -62 -63
leaf_value=-0.021279058882169716 0.020684729736860093 0.069834196117092517 -0.0076856178632220109 0.048177905960770206 0.057943302499721183 0.048930622429780128 0.063283480842901835 0.040465169642645904 0.037553423085592258 0.016431948711141519 0.026292036187440505 -0.0064779786102090869 -0.0044812603870192915 -0.044912493323327363 0.043433286618333393 -0.039333802968167131 0.018795900018261917 0.0035660081461507038 0.04025958900374163 0.03461207843410874 0.030339646278083877 0.053317749822046678 0.027369933569564381 0.0022351208028561598 0.04428902329537103 -0.032306750018825194 -0.015225306007602477 0.070624385831251704 0.035147302417683893 -0.046448396839191414 0.011728356755154394 0.045692217865152457 -0.012044552192991921 0.0022223658737198369 -0.011190767843061793 -0.0049416938775747998 0.077066563490688744 0.039206293576167249 -0.019358745131650913 0.053471581839345222 -0.028421695862062168 0.040201954030681157 0.037318664193185337 -0.025569120763115662 0.024137692877019896 -0.0021134632415858597 0.059334036735884249 0.036697334360607535 0.06197612194290826 -0.026172984904913588 0.036241706207709369 0.024762144158688534 0.0067328299104328212 -0.018608939270641903 -0.046245168630871678 0.049569771353381982 0.0206576991944874 0.019681632236627649 -0.044284106890542553 0.049053348188477383 0.023968092698186286 0.073421637928203484
leaf_weight=40.674845904111862 27.035504207015038 174.28246450424194 69.105556845664978 623.45917148888111 15.611645832657812 18.111410155892372 85.456826820969582 277.25820676982403 1017.4671752750874 24.26616245508194 201.75460416078568 81.324890717864037 62.021621659398079 71.05910550057888 251.3935064971447 22.23928327858448 70.781246021389961 27.401088953018188 41.546852305531502 142.14515206217766 98.388916179537773 267.40531431138515 693.52810055017471 395.05398719012737 41.92980195581913 16.106520146131516 21.10475979745388 24.69678059220314 16.564528718590736 52.922565087676048 20.817739799618721 292.09723567962646 25.994079604744911 124.55903604626656 23.609101310372353 80.979790315032005 22.941465094685555 27.282282784581184 22.877855956554413 17.993643388152122 15.770828127861021 66.188441157341003 307.79706346988678 46.687126025557518 267.30441327393055 21.134781926870346 127.49114875495434 140.92276252806187 28.834051072597504 26.810474559664726 98.939351156353951 24.665923908352852 130.23071420192719 53.848886981606483 28.645824089646339 59.634541675448418 25.405073791742325 42.260531008243561 23.988010391592979 22.188930407166481 220.91295574605465 29.69430311024189
leaf_count=180 86 330 255 1496 43 57 205 760 2733 80 698 277 275 365 647 87 206 93 120 409 286 564 2006 1539 114 63 80 64 53 231 71 778 93 430 85 347 59 77 88 48 65 199 896 178 854 68 318 400 83 108 294 76 434 202 117 165 78 109 102 62 702 75
internal_value=0.0295038 0.0364098 0.0198412 0.0339016 0.00762763 0.00487382 0.0344919 0.0248411 0.0394474 0.0258984 0.011609 0.0347792 -0.0128681 -0.0261248 0.0300988 0.0282012 0.00481728 0.0294939 0.0274933 0.0179464 0.0457062 0.056367 0.0320234 0.00437866 0.0159825 0.0162211 0.01325 0.0213391 0.00131407 -0.017939 -0.0299631 0.0420972 0.0290583 0.0266718 0.028819 0.00489382 0.0461048 0.00497749 0.0166112 0.00875927 0.0182331 0.0267421 0.0297397 0.0305951 0.0351955 0.0416538 0.0437904 0.0225155 0.0151419 0.0234236 0.0168965 -0.0080899 0.0109419 0.00682225 0.0124625 0.0202328 -0.014727 0.0487514 0.0249007 0.000467417 0.0198754 0.0484576
internal_weight=7440.61 4338.83 3101.78 3854.88 901.322 844.592 3814.21 2200.45 1791.46 2131.35 612.42 1168 232.172 133.081 2022.74 1771.35 93.0205 1678.33 1494.48 481.457 183.846 483.948 1013.03 410.666 150.537 525.171 477.963 284.594 193.369 90.3048 73.7403 319.498 1606.18 1328.92 1186.37 99.0912 47.2076 108.607 259.897 142.553 103.064 87.2932 1160.37 1136.76 723.727 456.423 435.288 413.037 272.114 200.761 171.927 71.353 339.312 297.765 243.916 189.865 54.0509 309.666 145.116 46.1769 243.791 56.7298
internal_count=22063 11713 10350 10710 3485 3324 10530 6865 4697 6610 2280 3201 1044 640 5833 5186 293 4893 4402 1525 491 1003 2877 1582 468 1755 1616 917 699 355 302 871 4855 4095 3617 404 139 354 853 478 344 279 3524 3439 2136 1282 1214 1303 903 649 566 254 1116 996 794 599 195 673 458 164 790 161
is_linear=0
shrinkage=0.05


Tree=12
num_leaves=63
num_cat=0
split_feature=5 33 33 4 4 14 43 4 14 50 4 41 10 28 10 25 43 32 33 10 58 18 21 6 41 35 52 14 54 33 33 43 10 39 53 41 21 18 43 5 43 33 22 35 54 33 7 50 7 54 18 22 54 7 63 18 53 35 18 43 5 43
split_gain=168.833 79.8959 35.2952 38.7024 34.1112 32.1689 34.7689 31.1014 30.2279 27.5663 25.9312 24.2849 22.3114 29.5388 22.0948 25.3508 21.9144 21.7931 21.4511 20.7758 20.3765 20.1168 28.3983 19.2197 20.1961 22.5415 18.4863 18.4353 18.3829 18.2021 19.9977 19.5586 19.5269 18.0887 17.328 17.2421 16.6748 19.8431 20.33 17.6927 17.1696 16.662 18.522 29.983 16.1123 23.3143 25.165 22.2925 16.0425 15.7935 15.6656 18.5204 20.0969 15.5342 17.2804 17.2548 15.4653 17.5709 16.3017 15.4583 22.9068 21.8479
threshold=87.720714285714294 0.050623801683352905 0.058506894273459155 7.5000000000000009 6.5000000000000009 1.98805959477601 1.5663494942364691 6.5000000000000009 1.3844306341717683 0.10224536761316041 6.5000000000000009 1.2454767126539614 4.8452234702013994 21.500000000000004 3.5338495158856742 3.8452380952380958 2.1525291514595923 7.7099999999999982 0.090088226440963801 1.0232946570191743 2.5900171341906182 2.1547219351057638 0.84523809523809534 1.9045043214136903 1.511646944929127 0.87268211513361171 6.8936362710718333 0.42460342115398075 13.279587217132658 0.056249963060006257 0.038893006143509053 1.7120334950034979 3.6703444185276264 0.56653672209215034 0.93017893565827625 1.2996783414682127 1.6904761904761907 1.6256701746404134 2.0584591099934726 96.822555555555581 1.1349801787052398 0.054097803072334409 2.2734596132924607 1.7229448380350367 16.367460521677891 0.067218125873462556 46.635000000000012 0.13895246626239929 80.365000000000023 17.435765964257921 1.2447997111193143 1.13214087477428 14.536762676283542 75.750000000000014 26.500000000000004 0.96150752350944624 2.9728903355811949 1.802775637731995 2.3634096453240887 1.1278239341322451 70.10214285714288 1.5956851707627164
decision_type=2 2 2 2 2 2 2 2 2 2 2 2 2 2 2 2 2 2 2 2 2 2 2 2 2 2 2 2 2 2 2 2 2 2 2 2 2 2 2 2 2 2 2 2 2 2 2 2 2 2 2 2 2 2 2 2 2 2 2 2 2 2
left_child=1 7 3 10 18 12 44 16 14 23 -2 -4 17 26 15 19 -1 -6 -3 -9 -5 41 -23 -10 25 -25 -14 -18 -26 30 31 -12 -33 -27 -21 -13 37 39 -39 -32 -38 -19 -43 -44 45 46 -7 -47 56 -46 51 -35 -53 55 -55 -36 58 -58 -24 -52 61 -61
right_child=2 4 11 20 5 6 -8 8 9 -11 29 35 13 -15 -16 -17 27 21 -20 34 -22 22 48 24 28 33 -28 -29 -30 -31 36 32 -34 50 53 -37 40 38 -40 -41 -42 42 43 -45 49 47 -48 -49 -50 -51 59 52 -54 54 -56 -57 57 -59 -60 60 -62 -63
leaf_value=0.016729700947212992 0.0090225928426426565 -0.027173335140496552 0.003487690370868659 0.055459051308145074 -0.032122415044315976 0.059820148149800835 -0.01113632282093634 0.045767341604040036 0.046910753212195483 -0.0078414188315999358 0.042071217861740867 0.075317569273685131 -0.042174109789789922 0.040356049509582881 0.018203187008198628 0.057366484287047562 -0.068796456851727625 0.0097344226714042859 0.038959188094633473 -0.018538666361346746 0.038818729533834646 -0.054231817606011201 -0.042599157853534367 -0.03635566057344302 0.025338939565695603 0.048950570795229943 0.02611329385933836 0.00027924567505670505 0.061118621000497156 0.064632849741888918 0.032594151334249193 0.031274003563569464 -0.016185488561041319 0.026111663970465507 0.0036644979841359187 0.023998134176774898 -0.0032814969574534989 0.030141102552945581 -0.023419827105441073 -0.016102867659364049 0.043185523009783927 0.038536071452351571 -0.047732908349978891 0.033015910092367561 0.05033417445966501 -0.030565065826616819 0.0084401043679808632 0.021586876637177982 0.063336271744481809 0.016651539668555131 0.039166082625481276 -0.0012667501979777367 -0.073394024165588476 0.027549710154788271 -0.0098255610395922999 0.047306572631720403 -0.011935712127079674 0.037200059204917715 0.0092367576816877513 -0.050912169676694187 0.021712707365876088 0.017341281192265395
leaf_weight=168.78974622488022 93.15693387389183 77.265228614211082 129.67166382074356 416.99015539884567 17.067707255482674 28.559248432517052 198.97266998887062 265.44992935657501 93.758569374680519 66.67662338912487 1081.0497654825449 22.704261228442192 40.374133512377739 24.897966906428337 174.08257807791233 140.00296722352505 14.555164158344267 80.794161587953568 14.426519542932509 18.595440655946732 337.36199210584164 14.439666062593458 17.587720543146133 16.909093007445335 86.341859176754951 57.141192004084587 12.953238174319265 27.912913605570793 62.604807049036026 54.736115157604218 28.649518594145775 276.98742789030075 23.308215245604515 38.699686393141747 26.421514749526978 60.465411096811295 21.47923356294632 417.67291897535324 18.324808850884438 52.973743841052055 235.59154291450977 371.20071995258331 16.962430983781815 35.048334464430809 47.16069869697094 64.103408604860306 144.05795918405056 29.900910094380379 17.762924030423164 136.04433619976044 114.18947678804398 38.154043063521385 12.900099232792853 298.66767656803131 34.236080080270767 170.68030320107937 22.512141168117523 90.908712401986122 106.01920327544212 21.838597282767296 638.28824707865715 24.961115211248398
leaf_count=588 313 320 436 849 70 86 835 680 226 245 2674 54 187 83 543 336 73 278 43 66 826 63 73 65 255 149 48 114 164 137 82 758 78 116 84 186 69 1189 68 185 638 1121 74 112 145 309 524 125 45 463 319 129 59 863 117 448 85 281 368 90 1950 79
internal_value=0.0282767 0.0216652 0.0368053 0.0381769 0.0128936 0.0146852 0.00624944 0.0270663 0.0286858 0.0233869 0.0349468 0.017064 0.0209795 -0.00443379 0.0346555 0.0376501 0.008635 0.0235015 -0.0166827 0.0342464 0.0480299 0.0247398 0.0136643 0.0251184 0.0232725 0.020608 -0.0254757 -0.0233837 0.0404422 0.0360364 0.0353052 0.0389245 0.0275695 0.021635 0.0286554 0.0381414 0.0288409 0.0236383 0.0278736 0.000947425 0.0392838 0.0306423 0.0346187 0.00654404 0.0139516 0.00607882 0.0169995 -0.0139181 0.0175515 0.0253721 0.0198684 5.97036e-06 -0.0196971 0.0303238 0.0236892 0.0414865 0.0140741 0.0274015 0.00179226 0.0220923 0.0192338 -0.0144425
internal_weight=7492 4220.88 3271.12 3058.28 1609.02 1517.33 648.799 2611.86 2400.6 1272.46 2303.93 212.841 868.529 78.2253 1128.14 954.054 211.258 790.304 91.6917 814.051 754.352 773.236 269.23 1205.79 1112.03 963.082 53.3274 42.4681 148.947 2210.77 2156.04 1381.35 300.296 946.172 548.601 83.1697 774.692 517.621 435.998 81.6233 257.071 504.006 423.211 52.0108 449.827 266.622 172.617 94.0043 254.791 183.205 889.031 89.7538 51.0541 530.006 332.904 197.102 237.028 113.421 123.607 799.277 685.088 46.7997
internal_count=22038 13496 8542 7866 5738 5375 2487 7758 6983 3846 6191 676 2888 318 3137 2594 775 2570 363 2258 1675 2500 915 3601 3375 2956 235 187 419 5878 5741 3510 836 2891 1578 240 2231 1524 1257 267 707 1585 1307 186 1652 1044 610 434 852 608 2742 304 188 1512 980 532 807 366 441 2438 2119 169
is_linear=0
shrinkage=0.05


Tree=13
num_leaves=63
num_cat=0
split_feature=5 52 8 49 14 46 52 52 33 33 43 14 50 54 22 18 14 37 46 58 53 50 58 50 41 8 52 6 60 18 53 58 41 50 43 14 64 17 4 14 43 9 37 38 35 6 41 60 22 35 1 5 29 52 58 63 63 12 37 5 58 7
split_gain=153.795 65.0067 37.6156 34.3369 29.2959 30.9868 28.8046 26.3068 31.1137 25.187 23.4134 21.1187 25.4678 19.0598 24.5112 26.6575 18.729 18.7134 22.7516 31.1178 19.9222 23.7178 18.4601 27.1452 26.9417 21.0449 18.4534 20.0873 17.9878 17.8754 17.8676 17.5859 17.3323 20.3806 17.6117 16.7797 18.6332 16.7591 16.6028 16.549 20.2757 26.6322 19.4138 27.0156 19.2789 16.6719 16.4042 16.2613 15.973 15.7049 15.6861 15.5992 16.9214 16.5886 15.3839 15.3504 14.9779 14.8153 23.9361 19.4184 18.4555 16.2902
threshold=88.900714285714301 3.5242045082261133 79.165000000000006 0.74603174603174616 1.3844306341717683 0.58571428571428574 4.981243117848412 27.365471844425933 0.065319113534958312 0.031329663571651255 1.2534889819539687 2.1984776576262473 0.070848253508905903 13.162529676817266 1.4980132415430958 2.4340473624485619 4.4161041199457456 0.79296036393724012 0.38750000000000007 2.2470723830637875 3.5771021362782949 0.071465411354123473 2.6936130961213824 0.086560340507145825 1.1637227459271813 107.25500000000001 1.8838558509486745 3.9727397286942856 2.7443112244897958 1.2708567691023445 1.2836227246266765 2.4773783833672094 0.9009380917257962 0.11950615265130062 1.3985973348625915 1.6256701746404134 4.5000000000000009 1.3095238095238098 8.5000000000000018 2.2642817495485605 1.5276720384992089 2.1547619047619051 2.0104248561976976 5.5000000000000009 1.9227899023974235 4.185457533110764 1.2252743764068155 1.1381481481481484 1.4384834693665736 1.4421230695476688 4.5000000000000009 81.929285714285726 1.5000000000000002 6.0194386956098596 2.3883038630899835 11.500000000000002 25.500000000000004 6.5000000000000009 1.4631010208546693 71.366904761904763 2.5197104910139765 63.755000000000003
decision_type=2 2 2 2 2 2 2 2 2 2 2 2 2 2 2 2 2 2 2 2 2 2 2 2 2 2 2 2 2 2 2 2 2 2 2 2 2 2 2 2 2 2 2 2 2 2 2 2 2 2 2 2 2 2 2 2 2 2 2 2 2 2
left_child=1 4 7 38 10 9 13 8 17 -6 -1 28 -13 -5 15 26 37 -3 19 20 21 -19 49 48 25 -25 -15 31 30 -14 -4 -28 33 -10 -35 -30 -37 56 47 -39 41 -41 43 50 -45 -43 -29 -2 -24 -8 -42 52 -32 -53 -21 -49 -11 58 -20 -59 61 -60
right_child=3 2 11 6 5 -7 22 -9 32 16 -12 12 29 14 -16 -17 -18 18 57 54 -22 -23 23 24 -26 -27 27 46 35 -31 51 -33 -34 34 -36 36 -38 39 -40 40 42 45 -44 44 -46 -47 -48 55 -50 -51 -52 53 -54 -55 -56 -57 -58 59 60 -61 -62 -63
leaf_value=0.049206190970075406 0.060271575421564597 -0.041046974133025084 -0.00011380421798598973 0.039170754933806014 0.038409654777393137 0.0026580273857373959 -0.032275916661713859 0.060854946537604052 -0.033025475486577791 -0.0094866268889849462 0.028560115899997192 -0.013548116160327301 -0.020439859114462944 -0.025902863133554544 0.037601418372384614 0.035503732608021123 -0.015293167510569264 0.027270929824306091 -0.025420534563624954 0.074907282331934485 0.050666552788003451 -0.057030826072077184 0.027627511051139461 0.024846617486823656 0.034166150037836351 -0.034179459440341918 0.019696373853769288 0.015105237827283902 0.01865061692270811 0.019150044675948264 0.025642494097911389 0.057575465208460623 -0.019578294744646306 0.074879447899356841 0.0018963203878180721 -0.025574593709255689 0.029115437899753578 0.016426780505932142 0.051676042426287289 0.050019846142709247 -0.00014678525534788105 0.0095995249187000933 0.062256496218076177 -0.0052293363545486415 0.066026846268271017 0.065620962938128663 -0.019297640277918068 0.011383409325748635 0.071580576071646376 0.011880898145637555 -0.065482633611500876 0.028502136092510233 0.055529634019860809 -0.0021818664792434294 0.024513085360533746 0.039235973843018856 0.045549506947176605 -0.019122024059871085 -0.025703724996071538 0.016226264408365113 0.066758223611898385 0.02831880561415594
leaf_weight=161.51555870473385 52.57700403034687 16.934949338436127 52.481287032365799 953.84594017267227 234.05875569581985 205.64576107263565 26.45151199400425 19.558431088924408 15.627705782651899 69.449985563755035 958.15830397605896 97.632229775190353 31.260209068655968 26.941706478595734 498.85668860375881 235.50867454707623 36.024325877428055 14.744944289326666 25.903671026229858 37.696355000138283 14.126876622438429 18.833634883165359 44.336332783102989 24.500840842723846 66.969880446791649 38.812162965536118 118.10770945250988 114.7466694265604 344.99087126553059 304.01396706700325 88.972700491547585 41.752340242266655 183.85159187018871 15.439072355628012 17.981781482696533 48.349399089813232 22.79940889775753 378.80546677112579 375.46025075018406 174.10602587461472 20.361124098300934 89.377365157008171 15.034938305616377 18.978934764862061 18.628463014960289 15.588574647903441 49.443403735756874 78.603049352765083 39.872347742319107 83.138494268059731 16.873623177409172 302.41518804430962 104.10261864960194 51.188935339450836 26.102151438593864 136.64200329780579 14.93316428363323 97.523991271853447 17.601916193962097 64.330639213323593 23.838569656014442 64.767414420843124
leaf_count=401 114 71 171 2324 591 696 97 47 72 254 2772 346 122 93 1302 616 142 46 103 103 39 85 124 75 195 150 344 341 1107 1000 270 95 866 49 78 189 73 1172 799 466 72 293 40 64 49 40 171 231 89 264 76 891 264 180 92 347 44 413 71 243 67 208
internal_value=0.0258109 0.0200097 0.0136134 0.0345887 0.0256009 0.0205046 0.0317905 0.00385378 0.00213585 0.0238292 0.031547 0.0181573 0.00888834 0.0339942 0.029437 0.022479 0.0198886 0.0102315 0.0123952 0.0316241 0.000959334 -0.0198929 0.0179025 0.0264301 0.0120627 -0.0112556 0.0137177 0.0170342 0.0221032 0.0154389 0.0276588 0.0296507 -0.0125237 0.0138037 0.0358835 0.0140876 -0.0079629 0.0214193 0.0448544 0.0238027 0.0313557 0.0380131 0.0106091 9.7812e-05 0.0300156 0.0180214 0.00470945 0.0352567 0.0485586 0.00115757 -0.029985 0.0303336 0.0418034 0.0240467 0.0544382 0.029098 0.000236242 0.00507618 0.0175025 -0.0050403 0.0280323 0.0166967
internal_weight=7557.18 4550.61 2123.07 3006.57 2427.54 1307.87 2363.28 674.864 655.305 1102.22 1119.67 1448.21 432.906 2039.2 1085.36 586.501 868.162 422.405 405.47 111.504 47.7055 33.5786 324.082 214.492 130.283 63.313 350.992 324.05 1015.3 335.274 599.161 159.86 232.9 49.0486 33.4209 416.14 71.1488 832.138 643.282 747.755 368.949 279.072 89.8771 74.8421 37.6074 104.966 164.19 267.822 84.2087 109.59 37.2347 546.679 193.075 353.604 63.7985 215.245 84.3831 293.966 132.112 161.855 106.208 82.3693
internal_count=22209 14438 7266 7771 7172 3999 6280 2653 2606 3303 3173 4613 1468 5286 2962 1660 2712 1541 1470 365 170 131 994 633 420 225 1044 951 3145 1122 1776 439 1065 199 127 1369 262 2570 1491 2272 1100 799 301 261 113 333 512 692 213 361 148 1605 534 1071 195 578 298 1105 449 656 346 279
is_linear=0
shrinkage=0.05


Tree=14
num_leaves=63
num_cat=0
split_feature=5 33 49 8 44 10 10 62 53 54 56 43 7 54 26 26 14 43 32 31 41 33 63 18 8 52 31 47 35 9 1 52 10 10 56 25 63 35 43 28 13 5 13 53 49 42 10 51 45 8 28 33 43 20 43 53 43 17 7 53 4 43
split_gain=134.529 63.537 35.3371 34.3225 31.328 30.0123 28.4229 27.6591 25.6267 25.5386 24.9399 20.9094 19.4026 18.9414 18.6598 18.4877 19.5205 19.5494 18.9877 21.5652 17.688 17.4108 17.2399 17.8374 22.6041 17.0567 16.7963 16.6221 26.4884 24.5016 17.2333 16.536 16.0868 16.0674 16.6593 18.1116 26.1831 20.3255 17.6667 15.7281 23.0129 15.4827 21.2795 15.4214 15.1921 14.9655 27.5392 22.461 14.892 14.8453 16.8651 16.1828 14.7441 25.3806 14.3195 16.6267 17.3591 14.3189 17.3891 14.113 13.9048 13.8998
threshold=88.900714285714301 0.047234742167751413 0.69047619047619058 75.295000000000016 6.5000000000000009 3.486367592464287 0.76883245299451319 10.500000000000002 3.6104049433954657 12.280330813563712 11.314273809523813 1.3236114415308136 77.015000000000015 12.499001442588861 4.5434403569721891 6.2697304730111751 4.1435058954645188 1.2050038166065982 9.3499999999999996 2.5000000000000004 0.96217091724552295 0.031329663571651255 17.500000000000004 2.791709639568337 91.50500000000001 4.331507555573217 1.0000000180025095e-35 0.47222222222222227 1.5000190517318057 2.3095238095238098 4.5000000000000009 4.72986345369186 0.49397501823713336 1.080975694183349 6.0008976190476213 2.8452380952380953 21.500000000000004 1.7548169282616299 2.3777998511649492 15.500000000000002 2.6904761904761911 70.857857142857156 1.1833333333333336 2.9878255451086466 0.18333333333333332 17.500000000000004 1.5773652075115383 0.40337739385480009 0.13392857142857142 89.295000000000016 8.5000000000000018 0.043773216955718307 1.407619789523344 5.5000000000000009 1.8123298202719507 2.4795268017655512 1.3086623245826909 3.8452380952380958 81.010000000000005 6.0013387057220031 5.5000000000000009 1.2223184572908292
decision_type=2 2 2 2 2 2 2 2 2 2 2 2 2 2 2 2 2 2 2 2 2 2 2 2 2 2 2 2 2 2 2 2 2 2 2 2 2 2 2 2 2 2 2 2 2 2 2 2 2 2 2 2 2 2 2 2 2 2 2 2 2 2
left_child=1 4 25 10 60 15 12 8 27 61 11 31 -5 -11 -13 16 17 18 -6 -20 -12 -7 23 24 54 -2 -10 29 30 41 -29 45 -22 -19 38 37 48 49 -35 -24 -41 42 -8 -16 -34 46 47 -3 -37 51 -51 -36 53 -38 55 56 -23 58 -39 -28 -1 -4
right_child=2 3 9 6 5 21 7 -9 26 13 20 14 -14 -15 43 -17 -18 33 19 -21 32 22 39 -25 -26 -27 59 28 -30 -31 -32 -33 44 34 35 36 52 57 -40 40 -42 -43 -44 -45 -46 -47 -48 -49 -50 50 -52 -53 -54 -55 -56 -57 -58 -59 -60 -61 -62 -63
