tree
version=v4
num_class=1
num_tree_per_iteration=1
label_index=0
max_feature_idx=111
objective=binary sigmoid:1
feature_names=meeting_icon race_no_int race_no_pre entry_count heikinTokuten_mean heikinTokuten_std heikinTokuten_min heikinTokuten_max nigeCnt_mean nigeCnt_std nigeCnt_max makuriCnt_mean makuriCnt_std makuriCnt_max sasiCnt_mean sasiCnt_std sasiCnt_min sasiCnt_max markCnt_mean markCnt_std markCnt_min markCnt_max backCnt_mean backCnt_std backCnt_max style_ryo style_oikomi style_nige heikinTokuten_range heikinTokuten_cv nigeCnt_range nigeCnt_cv makuriCnt_range makuriCnt_cv sasiCnt_range sasiCnt_cv markCnt_range markCnt_cv backCnt_range backCnt_cv style_total style_ryo_ratio style_oikomi_ratio style_nige_ratio race_no_norm heikinTokuten_cv_x_nigeCnt_cv entry_count_x_heikinTokuten_cv heikinTokuten_std_x_sasiCnt_cv nigeCnt_cv_x_makuriCnt_cv heikinTokuten_range_x_backCnt_cv heikinTokuten_cv_squared heikinTokuten_std_squared entry_count_log heikinTokuten_range_log nigeCnt_sum_log backCnt_cv_squared month day day_of_week is_weekend score_gap_max_min score_gap_top2 score_top3_mean score_gap_top3_bottom score_dominance score_concentration kyakusitu_nige_count kyakusitu_oi_count kyakusitu_ryo_count kyakusitu_ji_count kyakusitu_entropy kyakusitu_nige_ratio kyuhan_S1_count kyuhan_S2_count kyuhan_A1_count kyuhan_A2_count kyuhan_A3_count kyuhan_S_ratio kyuhan_entropy nigeCnt_gap_max_min makuriCnt_gap_max_min sasiCnt_gap_max_min markCnt_gap_max_min backCnt_gap_max_min syaban_mean syaban_std inner_avg_score outer_avg_score inner_outer_gap top3_inner_ratio upgraded_count downgraded_count kyuhan_change_ratio upgrade_ratio score_skewness_proxy score_kurtosis_proxy score_q25 score_q75 score_iqr nigeCnt_skew_proxy makuriCnt_skew_proxy sasiCnt_skew_proxy backCnt_skew_proxy track_x_category track_x_grade category_x_month track_x_month track_target_enc category_target_enc grade_target_enc track_x_category_target_enc track_x_month_target_enc
feature_infos=[1:8] [1:12] [1:12] [5:9] [0:115.62888888888889] [0:37.804673306477923] [0:113.37] [0:121.11] [0:9.4285714285714288] [0:9] [0:24] [0:5.8571428571428568] [0:6.729466121893644] [0:18] [0:7.5714285714285712] [0:6.4770657671804557] [0:4] [0:18] [0:4.4285714285714288] [0:4.9261208538429777] [0:2] [0:12] [0:14.571428571428571] [0:13.439458605875744] [0:36] [0:7] [0:7] [0:7] [0:106.45] [0:0.50044344913631578] [0:24] [0:3.0000000000000004] [0:18] [0:3.0000000000000004] [0:18] [0:2.6457513110645907] [0:12] [0:3] [0:36] [0:2.6457513110645907] [0:9] [0:1] [0:1] [0:1] [0.1111111111111111:1.7142857142857142] [0:1.2246185860106755] [0:3.2122069892982879] [0:53.908649124979085] [0:7.0030685238686647] [0:261.8500072560625] [0:0.2504436457834523] [0:1429.1933238095244] [1.791759469228055:2.3025850929940459] [0:4.6770256230885199] [0:4.2046926193909657] [0:7.0000000000000009] [1:3] [1:31] [0:6] [0:1] [0:106.45] [0:16.359999999999999] [0:118.61] [0:35.999999999999993] [0:1.3573920587180637] [0:0.45684026943187128] [0:7] [0:7] [0:7] none [0:1.0986122886681096] [0:1] [0:9] [0:9] [0:7] [0:7] [0:7] [0:1] [0:0.69314718055994529] [0:24] [0:18] [0:18] [0:12] [0:36] [0:5] [0:2.7386127875258306] [0:118.05666666666669] [0:114.55200000000001] [-16.25:48.38666666666667] [0:1] [0:7] [0:7] [0:1] [0:0.875] [0:0.35739206854729522] [0:14.238400562682765] [0:114.23264113590552] [0:117.02513664187228] [0:50.960699617132242] [0:2.6666661666667602] [0:2.6666586666906662] [0:2.4970370806555704] [0:2.6525109043218964] [0:1287] [0:125] [0:476] [0:406] none none none none none
tree_sizes=6635 6686 6702 6723 6714 6727 6713 6712 6723 6713 6730 6734 6747 6744 6706 6722 6734 6738 6734 6695 6722 6741 6720 6725 6750

Tree=0
num_leaves=63
num_cat=0
split_feature=3 47 53 97 7 5 1 23 37 64 44 9 64 48 88 12 75 100 11 64 12 15 33 33 8 87 103 63 61 95 19 43 49 87 103 102 23 64 37 39 35 55 86 95 27 100 64 35 49 33 105 39 9 64 88 101 86 47 7 49 76 33
split_gain=134.594 87.5131 65.5092 56.2952 44.8764 40.4678 28.7965 28.5563 29.167 29.5024 28.0494 30.7113 23.1836 20.9583 21.5464 21.0374 19.7296 22.4498 27.9368 21.9878 19.3794 18.5282 26.2447 18.1261 33.7123 17.7038 17.5546 16.6219 16.4672 25.7854 16.9174 20.3741 16.774 15.8941 16.401 15.3865 15.2652 15.2016 15.1029 23.8285 17.9071 23.307 16.5755 14.8501 14.5949 14.4671 14.3889 14.1404 22.132 21.3437 22.5375 13.9765 13.949 12.9627 12.9571 18.1279 12.1925 12.128 11.7111 11.697 11.4561 20.5969
threshold=8.5000000000000018 4.7367649357121682 3.0612858768833138 76.485111673883566 83.65000000000002 2.3430639760822012 5.5000000000000009 3.1888296343133793 0.99459177878034555 1.1182505049707012 0.30952380952380959 3.7320987732847888 1.03985159944049 3.7362264477970872 6.3066666666666729 1.4335899384433268 6.5000000000000009 1.5927785343863599 3.3809523809523809 1.0362126509015697 3.7827918136462277 0.9635449020799377 1.1236508628980364 0.96432650273843656 3.1269841269841274 82.26166666666667 1194.5000000000002 5.2995833333333389 0.63000000000000622 8.7011815543450446 1.2447997111193143 0.15476190476190474 24.154614351739383 81.321666666666687 220.50000000000003 1.7320502575690535 7.3468488381431998 1.0299925292163927 1.4507532147233626 1.6826653404393874 1.5066145841623808 1.5052312500889971 99.615000000000023 8.0345075832033732 2.5000000000000004 1.8233681324458415 1.0619127836239499 1.2255803486824624 27.818257637792044 1.889179697633967 103.00000000000001 1.5745186427178879 3.5489754638613862 1.0985004925400921 8.8416666666666561 1.6805855195324342 93.63000000000001 2.3160479365320321 79.165000000000006 22.416026876615479 5.5000000000000009 1.266198198405774
decision_type=2 2 2 2 2 2 2 2 2 2 2 2 2 2 2 2 2 2 2 2 2 2 2 2 2 2 2 2 2 2 2 2 2 2 2 2 2 2 2 2 2 2 2 2 2 2 2 2 2 2 2 2 2 2 2 2 2 2 2 2 2 2
left_child=1 4 6 27 7 37 46 12 21 13 25 38 -1 14 23 58 17 28 19 -19 26 -9 -23 -10 -25 33 -21 -3 -7 30 43 -32 57 34 -5 -36 56 45 40 42 41 54 -40 -30 -38 -6 -2 49 -49 50 -29 -48 -43 -8 55 -12 -13 -31 -15 60 61 -14
right_child=2 3 -4 10 5 16 53 8 9 -11 11 36 59 15 -16 -17 -18 18 -20 20 -22 22 -24 24 -26 -27 -28 47 29 32 31 -33 -34 -35 35 -37 44 -39 39 -41 -42 52 -44 -45 -46 -47 51 48 -50 -51 -52 -53 -54 -55 -56 -57 -58 -59 -60 -61 -62 -63
leaf_value=-0.9729472934464628 -0.84146885051678177 -0.93731881839961906 -1.0057971134397012 -0.86618638584642182 -0.89829310811639418 -0.89119510386330825 -0.89915467768075108 -0.93397033457411538 -0.88945327848784883 -1.0302591864757451 -0.8989482294798784 -1.0203053347924276 -0.89190715861037961 -0.98158910362851926 -0.89450866528263218 -1.0305519112858881 -0.87686401066839481 -0.98484916191603833 -0.86902219840355599 -0.9309330306788991 -0.97926525823510091 -0.93731881839961906 -1.0138976246928357 -0.937682674392875 -1.0201032673070065 -0.9887999298840997 -0.97044436539201961 -0.88986972257825447 -0.90456159449481632 -0.93893419387917609 -0.90917504343929423 -0.97133412377787076 -0.95034829183115888 -0.84707414605385667 -0.98094783561337051 -0.9140267878190691 -0.99560806295299065 -0.87555611605116412 -1.013717094932485 -0.92734490497944588 -0.89842471458405471 -0.95499785642435131 -0.93088977021582975 -0.97676642227323218 -0.92667799235940818 -0.96541815364775252 -0.86802706175639632 -1.0180426290467635 -0.92668459916976509 -1.030308968787998 -0.98552095500089232 -0.93224325052149792 -0.89031780679418648 -0.9552006594314979 -0.87106939537688699 -0.99204689621385989 -0.95760603441372305 -0.88096021270146885 -0.90109331424046235 -0.96769021908915276 -0.89295848360697105 -0.96989686742338543
leaf_weight=13.512490272521971 23.547500967979431 9.4388718307018262 7.9485237300395957 7.1536712050437954 17.884178102016453 31.197955101728439 60.210066288709641 10.134367644786833 9.0414455831050855 5.9613928198814383 8.9420890510082263 18.082891523838047 10.63115030527115 6.0607493221759814 19.573239356279373 7.3523844778537741 11.525359183549879 15.002838492393492 9.7369413673877698 289.32626050710678 15.300908118486403 9.4388718307018262 28.31661581993103 51.963473349809647 9.2401588559150678 4.7691142261028281 19.473883032798767 6.9549581408500698 26.627554088830948 7.4517409205436698 11.326646149158476 32.98637330532074 9.7369414865970594 5.8620361089706412 7.9485237002372768 16.890612691640854 8.4453064501285571 33.18508592247963 16.989969491958622 13.313777089118956 14.903481751680372 114.45874083042145 4.8684707283973685 5.4646100401878348 11.326646178960798 7.4517409503459922 20.666161268949512 36.861278861761093 4.6697576344013205 6.1601059138774863 8.7433760762214643 7.9485236406326285 5.5639665126800528 7.7498105764389029 9.2401586472988111 5.166540414094924 6.6568885743618003 34.377364486455917 5.2658968865871429 6.1601058542728415 31.595381289720535 11.22728970646858
leaf_count=56 51 34 37 18 54 91 183 36 26 30 27 88 31 26 58 37 31 65 25 1018 65 34 135 188 45 21 80 20 83 27 36 136 37 13 34 55 38 89 81 46 45 444 17 23 39 30 53 178 16 31 38 28 16 30 24 23 26 95 16 25 93 46
internal_value=-0.934229 -0.938513 -0.895279 -0.955164 -0.931289 -0.925279 -0.887915 -0.946073 -0.955486 -0.944523 -0.947029 -0.952429 -0.925288 -0.93973 -0.93172 -0.97807 -0.928868 -0.930075 -0.935818 -0.937779 -0.935586 -0.981619 -0.994594 -0.942248 -0.950242 -0.917102 -0.933409 -0.986447 -0.917546 -0.924063 -0.939004 -0.955239 -0.902119 -0.907956 -0.919606 -0.935533 -0.9823 -0.893626 -0.945536 -0.969413 -0.940263 -0.944692 -0.994962 -0.916846 -0.956268 -0.917756 -0.86533 -0.993876 -1.00758 -0.968002 -0.943115 -0.885508 -0.951897 -0.905446 -0.908089 -0.93319 -1.00326 -0.891078 -0.944181 -0.914577 -0.908559 -0.93157
internal_weight=1295.01 1166.94 128.071 353.411 813.531 578.056 120.122 235.475 162.349 114.459 280.583 237.959 73.1264 108.497 89.8183 18.679 519.535 508.01 348.841 339.104 324.101 47.8899 37.7555 70.2451 61.2036 42.624 308.8 72.8283 159.169 127.971 76.4052 44.313 51.566 37.8548 31.9928 24.8391 44.5117 58.521 193.447 35.1722 158.275 143.371 21.8584 32.0922 19.772 25.3359 52.1622 63.3895 41.531 21.8584 15.6983 28.6147 120.023 67.9599 23.3488 14.1086 24.7398 41.8291 11.3266 59.6139 53.4538 21.8584
internal_count=4621 4239 382 1372 2867 1985 345 882 631 426 1055 914 251 396 317 79 1812 1781 1253 1228 1163 205 169 259 233 141 1098 317 528 437 278 172 159 120 107 89 191 173 723 144 579 534 98 106 77 84 132 283 194 89 58 81 460 213 74 50 114 122 42 195 170 77
is_linear=0
shrinkage=1


Tree=1
num_leaves=63
num_cat=0
split_feature=3 47 53 97 7 5 23 37 64 44 9 1 64 48 48 62 19 95 15 33 41 37 15 9 87 10 15 12 48 87 23 61 64 46 63 11 102 64 88 37 35 35 97 86 12 35 99 23 61 100 14 87 103 100 100 27 64 100 86 64 48 61
split_gain=115.367 76.8944 56.8016 50.9563 39.0457 34.3817 25.1469 26.2808 27.0485 24.5735 27.6954 23.5466 20.2664 18.6883 24.4338 18.4229 19.343 22.1794 16.9365 24.3869 16.6103 16.6626 17.9325 16.577 15.6155 15.5766 15.5673 21.8077 27.6183 15.5318 14.7266 14.6726 17.1938 19.4079 16.9578 15.3497 19.8872 14.2378 24.3679 19.3441 22.6982 32.8489 18.0345 20.8927 16.3546 16.1534 16.3751 14.1446 14.091 13.7415 14.4662 13.4809 15.484 18.7523 16.8536 13.1568 12.5199 12.4573 11.5199 11.3545 12.2913 11.2323
threshold=8.5000000000000018 4.7367649357121682 3.0612858768833138 76.485111673883566 83.65000000000002 2.3430639760822012 3.1888296343133793 0.99459177878034555 1.1182505049707012 0.30952380952380959 3.7320987732847888 5.5000000000000009 1.03985159944049 3.6436302166720229 3.3663186293980285 83.471666666666692 2.7817135724978903 9.1116957266724103 0.9635449020799377 1.1236508628980364 0.13392857142857142 0.86497589912033479 1.3434131023844864 1.2963513640267907 72.756666666666675 12.500000000000002 1.7170938713998083 1.8676415824292902 3.4350621262144281 82.26166666666667 5.4445249895493637 2.9600000000000013 1.0520179438390802 0.24988697042549482 5.2395833333333295 0.58571428571428574 2.0043443611382687 1.0837692801603911 -0.50166666666667215 1.5545631755148028 1.4888882064657449 1.073004246493644 100.59826938224386 91.375000000000014 1.9465047502884467 1.4035245254031992 2.2220201886035507 7.3468488381431998 4.5850000000000088 1.997248953962911 2.9444444444444451 80.798333333333346 220.50000000000003 2.0640979278154643 1.6156258871381055 2.5000000000000004 1.0299925292163927 1.8233681324458415 93.63000000000001 1.0619127836239499 2.276811089178318 5.1049999999999978
decision_type=2 2 2 2 2 2 2 2 2 2 2 2 2 2 2 2 2 2 2 2 2 2 2 2 2 2 2 2 2 2 2 2 2 2 2 2 2 2 2 2 2 2 2 2 2 2 2 2 2 2 2 2 2 2 2 2 2 2 2 2 2 2
left_child=1 4 11 26 6 56 12 18 13 29 37 59 -1 14 25 23 20 -18 -8 -20 21 49 -23 -7 -15 30 27 28 -3 51 -9 32 34 -34 -22 -33 -37 38 -11 40 41 -40 43 45 -45 46 -39 58 -24 50 -17 52 -5 54 -54 -49 57 -6 -12 -2 -61 -13
right_child=2 3 -4 9 5 15 7 8 -10 10 47 61 -14 24 -16 16 17 -19 19 -21 31 22 48 -25 -26 -27 -28 -29 -30 -31 -32 35 33 -35 -36 36 -38 42 39 -41 -42 -43 -44 44 -46 -47 -48 55 -50 -51 -52 -53 53 -55 -56 -57 -58 -59 -60 60 -62 -63
leaf_value=0.0036610777868778229 0.12251734751112604 0.064798398636661703 -0.028260627806504273 0.10124124826452709 0.07277140010592717 0.11600848777853533 0.040318129027360372 0.029409162447118904 -0.052682834944498762 -0.028193089529635961 -0.042668277160129213 0.072802150745485669 0.058085554355544258 -0.02078903785562038 0.11464057034597483 0.05550740005266748 -0.043081840145736565 0.05545178000436294 0.037220077245684408 -0.036276230441126149 0.039943938766887059 -0.018027034130004064 0.050630044383643769 0.047307505033714191 0.059664079616861161 -0.0027590738128146948 -0.026484000759184997 -0.035652125952534627 -0.027916583484879642 -0.01162555675984908 0.067563933573469306 0.08859166864405095 -0.037644724616272614 0.035432406342913676 0.069148356168138234 0.063330228911951655 0.027013435831889414 0.0075626527091200392 0.073812023330060234 -0.0058644258860477052 0.10350015612006652 0.019097566987837728 -0.033642093218464952 0.020157535137350243 0.09392244760863433 -0.041299625925051056 0.055993954650213638 -0.01825454568395329 -0.01684791435481035 -0.054061751661562546 -0.033455037211606857 0.10962892167021349 0.055962558052224581 0.080650905658437647 -0.030631931187966734 0.047034212960715679 0.092936791277250935 0.010844332558548817 0.018246689354516982 0.10668136125601285 0.053119999535634198 0.025517449493072934
leaf_weight=13.535845279693602 24.942911088466644 14.875627592206003 7.8433853238821021 7.5025359392166164 18.508340746164325 10.947746530175211 10.328941524028776 43.336359068751335 5.8154113590717307 7.6128811836242667 17.723152786493305 60.36223940551281 61.250701054930687 14.876009032130243 6.9408799409866324 7.1017419695854205 8.5959704071283323 6.2017217874526969 9.6060440838336927 27.836785614490509 75.156904309988022 8.0560975223779661 57.252606436610222 12.511155202984808 5.1003813296556464 13.35680069029331 39.091032579541206 10.835381314158438 7.685799926519393 4.7430553436279288 26.664595171809196 23.433192804455757 5.9694545716047278 123.80660551786423 57.510297104716301 82.982687845826149 34.957498922944069 42.740936487913132 31.590664923191071 10.243408381938933 11.805089250206946 40.170261785387993 9.4690533578395826 9.1671186089515704 10.58635739982128 7.5615230500698081 15.16916188597679 8.3729520440101641 5.2779540419578543 6.056813731789588 4.7821852713823318 8.3226602673530561 6.1800090223550823 8.7097305655479413 8.280370891094206 11.580728575587271 34.670032069087029 7.4899495393037787 6.7144197076559058 17.045654818415645 12.719279766082762 9.751710116863249
leaf_count=56 51 47 37 18 54 25 36 158 30 35 88 177 195 68 16 23 41 20 34 135 263 35 191 42 16 56 182 52 36 21 82 64 28 441 175 260 129 172 95 44 29 155 44 35 28 36 50 38 23 30 22 19 20 25 38 39 89 30 26 40 41 36
internal_value=0.0400622 0.036095 0.0754638 0.020534 0.0427757 0.0483009 0.0290552 0.0202204 0.0304938 0.0281699 0.0231081 0.0820309 0.0483066 0.0349602 0.0426974 0.0450043 0.043367 -0.00142282 -0.00467303 -0.0172651 0.0447213 0.028859 0.0376044 0.0798948 0 0.0365289 -0.00935089 0.0106032 0.0330537 0.055796 0.0440757 0.0481809 0.0424903 0.0320138 0.0526765 0.058679 0.0526318 0.0295664 0.0400137 0.0456156 0.0519732 0.0433089 0.0183041 0.0241552 0.0601653 0.0131544 0.0203925 -0.0053363 0.0448528 -0.00534523 0.019394 0.0641077 0.0513099 0.0346045 0.00623187 0.0194839 0.076946 0.0551938 -0.0257622 0.101925 0.0841817 0.0663283
internal_weight=1319.32 1186.65 132.665 356.734 829.918 591.269 238.649 163.862 116.09 284.246 240.508 124.822 74.7865 110.275 90.2986 530.601 507.142 14.7977 47.7718 37.4428 492.344 88.5274 70.5867 23.4589 19.9764 83.3578 72.4878 33.3968 22.5614 43.7384 70.001 403.817 262.443 129.776 132.667 141.373 117.94 196.116 101.422 93.8094 83.566 71.7609 94.6942 85.2251 19.7535 65.4716 57.9101 44.3913 62.5306 17.9407 11.8839 38.9953 30.6726 23.1701 14.4604 19.9537 60.6683 25.9983 24.4376 54.7078 29.7649 70.1139
internal_count=4621 4239 382 1372 2867 1985 882 631 426 1055 914 345 251 396 312 1812 1745 61 205 169 1684 324 249 67 84 296 317 135 83 141 240 1360 907 469 438 453 389 723 358 323 279 250 365 321 63 258 222 191 214 75 45 120 101 83 58 77 173 84 114 132 81 213
is_linear=0
shrinkage=0.04


Tree=2
num_leaves=63
num_cat=0
split_feature=3 47 28 86 7 5 48 15 23 37 64 62 105 1 70 37 87 44 9 64 28 75 86 7 91 102 22 100 62 19 95 101 15 33 3 100 106 103 15 19 33 33 95 6 47 33 8 23 8 9 10 37 103 61 87 87 49 49 45 63 101 47
split_gain=100.144 67.9023 50.3295 46.2487 34.1437 29.6501 23.9536 25.8309 22.2167 23.7424 24.8606 18.3243 21.4449 17.7582 17.2894 21.0237 20.0512 17.1676 18.0523 16.1433 22.289 19.4816 19.5805 19.4068 18.0759 16.267 16.2152 17.4911 15.8529 17.1796 20.3856 15.83 15.5033 22.6812 15.3592 16.9002 29.8484 23.7017 21.5862 21.7973 19.4542 15.5097 14.8262 15.2156 14.601 17.0782 14.5356 15.4327 14.534 13.8065 13.7772 20.918 15.2105 13.6133 12.2529 13.7528 12.1965 11.5187 11.4097 11.3455 10.898 12.7378
threshold=8.5000000000000018 4.7367649357121682 20.734999999999996 75.081666666666678 83.65000000000002 2.3430639760822012 2.1271050338973496 2.3391082778124521 3.1888296343133793 0.99459177878034555 1.1182505049707012 77.033333333333346 215.00000000000003 5.5000000000000009 0.9529852151728847 1.2914425551586521 69.396666666666675 0.30952380952380959 3.7320987732847888 1.0837692801603911 11.399999999999997 1.0000000180025095e-35 91.375000000000014 87.715000000000018 2.5000000000000004 1.7504114335591157 1.5634920634920637 1.4638495594230083 83.471666666666692 2.7817135724978903 9.1116957266724103 1.1175176732266359 0.9635449020799377 1.1236508628980364 6.5000000000000009 1.9517991458976358 369.50000000000006 233.50000000000003 1.9810547940437695 1.2724180205607041 0.93645717334674283 1.2454767126539614 7.0537307661055104 66.340000000000018 4.5104368959227186 1.3217303077850791 0.30952380952380959 2.3859207640650628 0.84523809523809534 1.2963513640267907 11.500000000000002 1.5356454514183571 750.50000000000011 4.0849999999999946 82.26166666666667 80.798333333333346 27.430955903281021 23.986869679063581 0.073771869075280508 6.5799999999999992 1.9086262808413499 6.3095129308950586
decision_type=2 2 2 2 2 2 2 2 2 2 2 2 2 2 2 2 2 2 2 2 2 2 2 2 2 2 2 2 2 2 2 2 2 2 2 2 2 2 2 2 2 2 2 2 2 2 2 2 2 2 2 2 2 2 2 2 2 2 2 2 2 2
left_child=1 4 13 6 8 -6 7 48 11 32 14 12 31 57 15 -11 42 54 19 20 25 -21 23 -23 26 -19 -22 -28 49 34 -31 -1 -10 -34 41 38 37 -37 40 -40 -36 -30 -16 -44 45 -18 -33 -48 -3 -7 -20 52 -52 -25 55 -5 -24 -2 -43 -50 61 -8
right_child=2 3 -4 17 5 28 60 -9 9 10 -12 -13 -14 -15 16 -17 44 18 50 21 24 22 56 53 -26 -27 27 -29 29 30 -32 46 33 -35 35 36 -38 -39 39 -41 -42 58 43 -45 -46 -47 47 -49 59 -51 51 -53 -54 -55 -56 -57 -58 -59 -60 -61 -62 -63
leaf_value=-0.01035601308998025 0.10131324317496113 0.095406415113738374 -0.037598433728287327 0.043594244703070224 0.071617622453289856 0.10627717769428603 -0.029433922609155765 -0.039844436923525892 0.038051652329038246 -0.010879140899562805 -0.051922420171429985 -0.021334633742304369 0.088217804716011108 0.062238758631205156 0.10350815562270281 0.040717863912956197 0.055451230745769395 -0.053892154560828319 -0.027022537862147044 -0.017848662722122374 -0.022072219406580676 0.063734227599512527 0.088005615539825041 -0.019765038868336172 0.098299846685812778 0.028141075324722646 -0.00095522305529152445 0.053513427107477238 0.05780932239890639 -0.042187198705988291 0.052035348658093804 0.071675517890525495 0.035173673315084572 -0.035445570641107448 -0.016621235787948906 0.0070479922551046053 -0.034093617390476755 0.044627618226160362 0.077301648782528126 0.047732405532258833 0.041123323193664324 0.0161885603534596 -0.0049270444792223105 0.07522182125479987 0.084037589458678563 -0.010176095032540544 -0.025648955381110432 0.04663440177572073 0.0528320502827197 0.044521628545988505 -0.031192537554426455 0.068398284519601338 0.040800962229574717 0.024175048500945425 -0.011230007359024916 0.10089408672640343 0.018214266412506949 0.053600118292865401 -0.054583407788838051 -0.030265516732227105 -0.049117461468298276 0.032060768475646109
leaf_weight=8.9146647006273252 46.720251694321632 6.5162701308727327 6.4821780174970618 32.818556487560272 62.547000914812088 11.469791829586031 16.202693283557895 7.4662676602601996 10.508534699678419 24.514795586466789 5.6689842045307151 5.9272451251745215 18.504721567034721 72.716275289654732 13.008613273501398 25.70367306470871 9.757335379719736 6.4043288677930823 18.315490484237671 21.453570708632469 6.0976764410734168 9.9493663609027845 10.925992444157602 22.437573298811913 9.5992450863122922 9.4066505432128888 10.983707636594771 60.914724469184875 6.8878217190504101 8.4325773268938047 6.3479781448841086 20.924842819571495 9.7608583271503431 27.361620366573334 10.145559713244436 32.965815827250481 9.5431400537490827 152.28161028027534 64.057580396533012 112.08138184249401 99.218490764498711 8.2063640654087049 5.9816408008337012 9.7853630632162076 5.5967838317155829 17.541453510522842 6.6473474502563503 15.387291088700293 6.361653193831442 12.763140708208082 12.930199295282369 8.7779844850301725 7.222332537174224 22.45282270014286 4.7177585214376441 8.6822028756141645 6.6485231369733802 10.73088265955448 6.3341939300298682 4.2842195928096771 20.190908789634705 7.9128550589084616
leaf_count=38 102 17 32 109 173 25 77 37 36 104 30 26 48 215 31 88 31 32 86 95 27 31 28 99 24 34 45 196 21 41 20 60 34 135 43 128 44 507 179 366 334 31 25 28 15 74 29 50 21 42 61 27 26 84 21 19 25 33 31 20 102 29
internal_value=0.0378155 0.0341219 0.0702932 0.0195367 0.040324 0.0454249 -0.0098666 0.0216129 0.0275511 0.0192436 0.0288941 0.0454344 0.0511367 0.0757215 0.0330672 0.0154791 0.0472761 0.026523 0.0222504 0.0275668 0.0384919 0.0154608 0.0253952 0.0134738 0.0463783 -0.00496543 0.0398192 0.0451471 0.0423751 0.0408586 -0.00137379 0.0376878 -0.00450185 -0.0167251 0.0421108 0.0435911 0.0344024 0.0379691 0.0498321 0.0585465 0.0357196 0.00869685 0.0717034 0.0447237 0.0256345 0.0132517 0.0477513 0.0246301 0.0486571 0.0742324 0 0.0172078 -0.00511969 0.00212844 0.0489443 0.0558916 0.062082 0.0925794 -0.0145303 0.0190484 -0.0274643 -0.00904187
internal_weight=1341.1 1204.45 136.65 359.674 844.778 603.282 68.9349 24.6284 241.496 165.19 117.559 76.3061 70.3789 130.167 111.89 50.2185 61.6712 290.739 244.52 197.274 103.406 93.8678 72.4143 54.8398 87.5954 15.811 77.9961 71.8984 540.735 516.503 14.7806 51.8741 47.631 37.1225 501.722 480.294 194.791 185.247 285.503 176.139 109.364 21.4284 28.7756 15.767 32.8956 27.2988 42.9595 22.0346 17.1621 24.2329 47.246 28.9305 20.1525 44.8904 46.2185 41.5008 17.5745 57.4511 14.5406 10.6459 44.3065 24.1155
internal_count=4621 4239 382 1372 2867 1985 303 95 882 631 426 251 225 350 396 192 204 1069 920 720 358 362 267 214 292 66 268 241 1812 1745 61 177 205 169 1684 1601 679 635 922 545 377 83 84 53 120 105 139 79 58 67 200 114 87 183 149 128 53 135 62 41 208 106
is_linear=0
shrinkage=0.04


Tree=3
num_leaves=63
num_cat=0
split_feature=6 3 53 105 44 29 63 35 12 48 103 48 61 88 5 12 48 48 35 99 3 35 1 99 14 95 11 61 31 31 6 29 61 14 64 29 88 39 18 12 31 35 100 88 106 102 1 18 88 14 31 102 5 62 100 101 37 19 102 48 106 19
split_gain=88.8795 51.0367 44.1535 43.3323 40.248 33.5027 31.8063 25.1137 22.9769 20.985 19.8229 21.3493 19.6656 18.9874 26.0111 21.8795 18.1343 19.9075 17.9294 17.5583 18.1226 17.3016 17.1027 16.2423 20.7342 15.6376 15.9878 17.6252 21.1425 16.5552 15.1361 14.9626 14.8658 23.2104 24.1854 15.5738 14.5561 25.8036 14.5423 18.6633 14.3664 14.337 16.0547 14.0926 21.9149 15.1622 14.7391 20.2282 19.9889 14.2619 17.6436 13.9328 13.8572 13.5005 13.2171 13.1392 14.3965 13.0877 13.0125 18.098 12.9607 12.6717
threshold=74.89500000000001 8.5000000000000018 3.0612858768833138 230.00000000000003 0.15476190476190474 0.041606929406991712 6.2083333333333366 1.2215680875218382 1.9790547290244689 1.5189587224233791 220.50000000000003 5.0913328204119175 3.7950000000000021 9.4999999999999947 6.3337387797073843 1.2817062346482548 2.6567920399360259 3.6616202676385687 1.1388868346436458 2.2677859094843176 6.5000000000000009 0.84323754208202673 5.5000000000000009 1.6985918728554223 3.1180555555555558 6.3856631261269099 0.63333333333333341 2.0500000000000012 1.7187075228092277 2.0941324055980206 95.940000000000012 0.069601973391204913 1.9249999999999974 1.2111111111111115 1.0516535563004601 0.050120043439868554 1.087500000000013 1.5647333048403607 0.94444444444444453 3.5556779850107678 1.635072450771125 1.9372857990056771 2.0889309623778769 4.0366666666666697 66.500000000000014 1.9641997109827631 4.5000000000000009 1.6904761904761907 -0.36500000000000188 1.9444444444444446 1.7067284418921662 1.9226135339606887 2.3430639760822012 84.000000000000014 2.1652502330364007 1.6279459454235048 1.3923889457206358 1.5959903238939825 2.1624630116701411 2.4998964386065783 293.00000000000006 1.13214087477428
decision_type=2 2 2 2 2 2 2 2 2 2 2 2 2 2 2 2 2 2 2 2 2 2 2 2 2 2 2 2 2 2 2 2 2 2 2 2 2 2 2 2 2 2 2 2 2 2 2 2 2 2 2 2 2 2 2 2 2 2 2 2 2 2
left_child=3 6 22 4 8 -5 19 9 12 18 -7 25 -1 14 15 23 30 61 -6 20 -2 -16 -3 24 -8 -12 -27 28 57 -29 36 41 33 -22 38 52 37 -17 -35 -40 -38 42 55 46 45 -45 47 48 -11 51 -51 -46 -34 -13 -53 -9 -57 -28 59 -36 -30 -18
right_child=1 2 -4 5 7 10 13 31 -10 43 11 53 -14 -15 21 16 17 -19 -20 -21 32 -23 -24 -25 -26 26 27 29 60 -31 -32 -33 35 34 58 -37 40 -39 39 -41 -42 -43 -44 44 49 -47 -48 -49 -50 50 -52 54 -54 -55 -56 56 -58 -59 -60 -61 -62 -63
leaf_value=0.074975468324057631 0.011294703893356134 0.087503498186610851 -0.026938919259750355 0.10268596888129175 0.031389946625790234 0.076222869322303807 -0.03122575114106315 0.052071776628113242 -0.01390666851473531 0.067320495331606958 -0.030701468618284777 0.026359815967420892 -0.0041238112344352202 0.064515651465126209 -0.055007954996782862 -0.021886949552788217 0.024251843901644459 0.031033035587827277 0.10536295863792614 -0.0092903931771508037 -0.027711834302965588 0.014668350199232766 0.058030698278826474 0.057630709115716501 0.063450892413052962 0.048751225047355316 0.093880521731043012 -0.036476435390181035 -0.040438771739679726 0.03111500117402859 -0.01464848788685172 -0.027306037279868762 0.091514793060326588 0.073617817790223125 -0.016658551912388204 0.11394171037225775 0.055594835237813167 0.076592084730420465 0.04876599161543551 -0.01114555875099706 0.021965162931984507 0.05974158530026235 -0.044713111261861657 0.013171677953375177 0.068226676530151076 -0.05476681524806104 -0.019072000494171643 -0.053485561757289107 0.0066735077533779733 -0.024396790186723988 0.032309559373286695 0.04285954841629315 0.052170597960813386 0.10659687566108718 -0.033611783072349043 0.014356520658992714 -0.054039469545132397 0.015354541722615783 -0.054532269192187635 0.056299112702811425 0.038717621656081558 -0.02364722407100759
leaf_weight=32.470817655324936 20.424071699380875 58.696168094873428 7.6578054130077353 13.009581387042997 39.519739806652069 16.381470769643784 8.2264699935913068 9.1042662411928159 7.3116869926452628 11.983117923140524 8.1380907446145994 5.9186263978481284 5.823175072669982 23.697697952389717 9.3629473745822924 14.56741537153721 12.25475838780403 34.144987419247627 6.0644688904285422 8.5231703519821149 7.0764511227607718 14.133882671594618 73.777974009513855 62.621083736419678 6.5357081145048133 32.894785404205322 9.8179417252540606 15.608956798911096 6.8493809103965742 9.0462724864482862 9.591174900531767 36.766903072595596 16.45285552740097 36.421943500638008 10.148066252470022 8.0632000714540464 60.192685693502426 5.8880533874034873 117.36084988713264 8.802500441670416 31.672693207859993 6.7913523465394965 10.713682651519774 12.827802568674089 23.057111367583275 8.6991169601678831 38.313164204359055 6.1190665066242209 31.768930152058601 12.823316141963003 26.998436838388443 11.972779065370561 141.37235277891159 8.4467234313487989 5.0209187865257254 18.377651169896129 6.6014168709516516 5.4351386725902548 4.1618774384260169 11.387554004788397 6.2071028351783752 30.566806837916374
leaf_count=91 77 132 37 30 137 45 37 29 32 35 37 21 24 69 46 63 44 120 14 35 31 55 213 191 19 104 24 72 32 32 40 173 37 99 43 17 185 16 366 36 115 21 53 49 67 43 169 31 126 57 96 40 438 19 24 71 33 20 20 35 21 133
internal_value=0.0357634 0.0436461 0.0657701 0.022472 0.0153031 0.041628 0.0392876 0.0103201 0.0504645 0.0171546 0.0351511 0.0288408 0.0628636 0.0299606 0.0271949 0.0306351 0.0235537 0.00826775 0.0415279 0.0469994 0.048269 -0.013042 0.0711757 0.0487293 0.0105665 0.0217907 0.0268426 0.0130942 0.0346103 -0.0114893 0.0331566 -0.00782413 0.0503447 0.0427418 0.0454243 0.059243 0.0372837 0.0065001 0.0511265 0.0445487 0.0440802 0.00600915 -0.00216266 0.0112543 0.0214176 -0.0142239 -0.000397886 0.0138778 0.0234908 0.0310793 0.0139335 0.0479503 0.0563528 0.0742259 0.019967 0.0111872 -0.00370294 0.0664421 0.00913311 0.0218169 -0.00249523 -0.00982162
internal_weight=1360.67 853.783 140.132 506.883 369.129 137.754 713.651 323.523 45.6057 235.168 124.744 108.363 38.294 323.456 299.759 276.262 198.879 76.9666 45.5842 390.195 381.672 23.4968 132.474 77.3833 14.7622 93.9977 85.8596 52.9648 28.3096 24.6552 121.912 88.3553 361.248 195.359 188.283 165.888 112.321 20.4555 162.585 126.163 91.8654 51.5884 44.797 189.584 101.399 21.5269 88.1843 49.8711 43.752 79.8726 39.8218 40.0508 157.825 14.3653 16.9937 34.0833 24.9791 15.2531 25.6975 21.5356 13.0565 42.8216
internal_count=4621 2749 382 1872 1415 457 2367 1268 147 888 427 382 115 1133 1064 963 716 297 151 1234 1199 101 345 247 56 342 305 201 97 104 419 380 1122 630 599 492 379 79 501 402 300 207 186 737 376 92 361 192 161 284 153 131 475 40 64 133 104 44 98 78 53 177
is_linear=0
shrinkage=0.04


Tree=4
num_leaves=63
num_cat=0
split_feature=45 3 35 23 3 88 6 5 61 48 95 24 63 28 105 44 62 101 101 9 96 1 45 45 100 35 102 22 100 11 49 88 17 101 47 8 63 15 29 46 64 27 61 57 22 19 87 87 22 33 56 23 35 1 33 58 5 33 24 70 23 101
split_gain=80.1124 69.8813 47.1561 44.6872 34.9629 34.3566 28.8106 31.4056 24.1806 23.7656 20.1258 25.9718 19.2039 30.1973 19.0596 18.0547 25.7903 16.9817 16.9208 27.8201 19.6104 16.5964 16.5513 21.5499 19.4181 16.2469 23.7003 15.7003 17.3126 16.4894 15.6005 15.509 15.0482 14.7667 23.4158 18.6067 18.0916 17.9924 22.6063 18.6187 15.1724 14.5491 14.4577 14.3633 14.2842 14.232 14.0976 13.9135 13.4869 16.4413 15.2363 23.4086 19.3354 13.2544 13.2069 12.7807 11.9211 11.4291 13.8479 11.3845 13.4475 11.7206
threshold=0.10022506713840292 8.5000000000000018 1.0186682894717416 3.2256223142575338 6.5000000000000009 3.1841666666666701 65.475000000000009 2.3430639760822012 1.8000000000000045 1.2316439472386465 8.9156581796953365 10.500000000000002 4.6162499999999946 9.7550000000000043 441.50000000000006 0.41428571428571431 53.350000000000001 1.1175176732266359 1.380559964663431 1.4980132415430958 68.267678955100379 9.5000000000000018 0.11876779503876901 0.1033055487815641 1.5927785343863599 0.97499604304356924 1.9226135339606887 3.2539682539682544 1.997248953962911 1.1269841269841272 29.037179923093188 3.9583333333333361 2.5000000000000004 1.8156808672390101 7.6007521110654439 0.84523809523809534 7.1516666666666717 2.0719204066799173 0.07785914612474297 0.46876120672811306 1.1054751851278037 2.5000000000000004 1.2950000000000019 10.500000000000002 6.3809523809523823 1.1474379817391951 72.756666666666675 74.668333333333351 2.6904761904761911 1.5045984654583078 1.5000000000000002 8.3944166330031571 0.72040421740079175 5.5000000000000009 1.8018506628153375 1.5000000000000002 5.7570794276344044 1.2510223775166633 9.5000000000000018 0.99963473161679894 5.1653222308049456 1.5929440478223498
decision_type=2 2 2 2 2 2 2 2 2 2 2 2 2 2 2 2 2 2 2 2 2 2 2 2 2 2 2 2 2 2 2 2 2 2 2 2 2 2 2 2 2 2 2 2 2 2 2 2 2 2 2 2 2 2 2 2 2 2 2 2 2 2
left_child=1 4 3 21 -1 15 9 42 22 -6 11 17 13 -12 33 46 -17 31 30 -20 -21 -2 23 -5 -24 45 -27 -22 29 -29 -10 -9 -11 35 55 36 -7 38 39 -37 54 -30 -8 -42 57 -19 -4 -26 49 -13 52 -52 -50 -3 -36 -35 -55 58 -14 60 61 -25
right_child=2 53 5 8 6 14 7 10 18 32 12 48 44 -15 -16 16 -18 25 19 20 27 -23 24 59 47 26 -28 28 41 -31 -32 -33 -34 34 40 37 -38 -39 -40 -41 43 -43 -44 -45 -46 -47 -48 -49 50 -51 51 -53 -54 56 -56 -57 -58 -59 -60 -61 -62 -63
leaf_value=0.0062346515348283863 0.061749191577961673 0.086704773442139518 -0.027362009945903685 -0.012289787569981853 0.040460116636631557 0.014423630539960406 0.047704484039458039 -0.031372620541009907 0.0070728331280583969 0.033807376154304264 0.047488868075558237 0.028504831480216826 0.030923793541918296 -0.029501172458709368 0.085621158509152431 0.032694361447913864 -0.04653715714571055 0.082510769051163085 -0.044502440810213803 -0.029927992763419814 0.052580338337410028 0.0019813354117441963 0.063173834517475089 -0.023060871529810543 -0.034806958367859506 0.0025776998626604098 0.065905672540745863 0.027792632470518927 0.012092611325048113 -0.045475786751688292 -0.042552841772118925 0.056945472207486518 -0.031359461238783227 0.0073798330705839603 0.014477801357635198 0.016190464157849669 0.087014383959287706 -0.022915911749457889 -0.035705990975860108 0.10497739360063374 0.031777874021716328 0.085855195732763345 0.082572579832638826 -0.05352115919829372 0.006723099554920663 0.049439964115877588 0.043991513163207208 0.020559067251328781 0.0030349517476154948 -0.044904491085052796 0.014472587092712864 0.077268597896262267 0.046509197500421103 0.065547862134096982 0.08645667843706456 -0.04442796326439586 0.012884087179780597 0.052488965898292717 0.091796797388201401 0.094210959141674475 0.070506153402126182 0.058331100813024409
leaf_weight=55.197486385703087 74.945889368653297 50.775647461414337 7.3542502671480205 6.7961580455303183 23.353801444172859 9.7796781212091464 39.24276040494442 7.9941975772380811 31.226357862353325 7.6196494698524502 32.034213483333588 10.33406186103821 7.7122322916984549 10.777426257729529 6.1532451063394538 7.8610128313302985 36.812974259257317 30.437121838331223 9.2755078971385938 8.2541023492813093 38.074803799390793 8.4125028997659665 12.273489952087401 6.0657117068767565 10.000044628977774 23.188996091485023 16.039033055305481 9.3408135473728198 10.053148314356806 10.093649610877035 14.827163293957708 5.1328489482402802 20.946797281503677 12.397908359766008 8.3868657648563438 8.1071477085351962 13.032239913940428 15.181413576006888 5.3505277633666983 7.2653175592422476 6.73402291536331 7.6003606170415869 39.791205421090126 5.7473182529211044 7.7022077888250342 73.402793928980827 10.706707596778868 25.595700636506081 19.871364876627922 9.0453719794750196 122.21190983057022 10.255143404006956 98.801580592989922 47.074939101934433 8.2364481687545759 19.090512126684189 8.3457188308238965 60.443352788686752 33.185217633843422 13.671606108546255 17.803285419940948 5.0861643105745316
leaf_count=212 215 106 34 28 76 37 117 35 121 26 98 35 25 46 15 29 183 77 44 39 118 33 35 26 47 89 45 33 38 48 69 15 97 48 32 30 33 67 25 16 24 20 93 29 29 225 34 92 77 42 448 27 313 125 21 93 30 182 79 32 49 15
internal_value=0.0338731 0.0412402 0.0212193 0.0305784 0.0369979 0.00530666 0.0393843 0.0416512 0.0216432 0.010571 0.0383904 0.0338949 0.0509658 0.0279906 0.0174043 -0.0188129 -0.032464 0.04692 0.0108687 0.0207205 0.0280654 0.055775 0.0369405 0.0532138 0.0199797 0.0509143 0.0286738 0.0345185 0.015777 -0.0100939 -0.00887532 0.00302795 -0.0137804 0.0137839 -8.80903e-06 0.0280613 0.0562674 0.00992282 0.0341667 0.0588186 0.0257434 0.0443796 0.0653922 -0.00729529 0.0599156 0.0592421 0.0147261 0.00483889 0.0263451 -0.00560833 0.028828 0.0194188 0.039272 0.0716882 0.0506845 -0.0239443 0.0577268 0.0639084 0.0805187 0.0637553 0.0489627 0.0138935
internal_weight=1378.51 870.917 507.594 319.396 764.721 188.198 709.523 657.603 236.038 51.9202 578.569 426.714 151.855 42.8116 125.463 62.7349 44.674 156.195 138.746 92.6924 83.4169 83.3584 97.2922 49.4229 47.8692 143.068 39.228 75.1628 37.088 19.4345 46.0535 13.127 28.5664 119.309 60.5931 58.7163 22.8119 35.9044 20.723 15.3725 29.1047 17.6535 79.034 12.4813 109.043 103.84 18.061 35.5957 270.519 19.3794 251.14 132.467 118.673 106.196 16.6233 31.4884 55.4207 101.341 40.8974 42.6268 28.9552 11.1519
internal_count=4621 2769 1852 1102 2508 750 2296 2097 854 199 1887 1428 459 144 470 280 212 486 530 340 296 248 324 150 174 436 134 257 139 81 190 50 123 455 247 208 70 138 71 46 106 58 210 53 315 302 68 139 942 77 865 475 390 261 53 141 155 286 104 122 90 41
is_linear=0
shrinkage=0.04


Tree=5
num_leaves=63
num_cat=0
split_feature=45 3 35 23 88 3 6 5 61 48 95 12 9 95 15 39 64 19 44 62 105 88 101 9 86 104 103 4 13 47 47 91 49 1 61 87 45 17 103 65 87 105 61 45 1 96 100 37 104 18 102 61 48 102 39 46 46 102 45 88 19 58
split_gain=71.3973 61.9903 42.5049 39.5523 31.678 31.2681 25.6605 27.7268 21.7371 21.5982 17.7479 24.6505 21.6583 27.1737 21.3127 20.8228 17.5247 17.7287 16.9282 24.3177 16.8712 15.488 15.4572 25.6467 16.2704 14.8925 18.7599 14.7903 22.3876 15.3326 16.1191 14.7447 14.6665 14.6193 14.3932 14.2097 13.8166 13.8116 13.7616 13.3308 12.8597 12.8069 12.5724 12.5702 11.7502 11.379 11.3433 15.6182 13.0877 11.3119 11.6764 15.0273 17.2354 11.2481 11.8854 11.7839 17.298 16.4905 11.1784 10.9845 10.9516 10.8632
threshold=0.10022506713840292 8.5000000000000018 1.0186682894717416 3.2256223142575338 3.1841666666666701 6.5000000000000009 65.475000000000009 2.3430639760822012 1.8000000000000045 1.2316439472386465 8.9156581796953365 3.5388930837751418 2.6007463849944346 8.7641728024728796 3.848314411469496 1.1621096794750001 1.0532715431396891 0.80164618669858478 0.41428571428571431 53.350000000000001 441.50000000000006 1.0033333333333305 1.380559964663431 1.4980132415430958 76.211666666666687 82.500000000000014 439.50000000000006 104.28571428571431 8.5000000000000018 4.5729326092988085 2.7187406886244005 1.5000000000000002 29.037179923093188 9.5000000000000018 2.6449999999999965 50.898333333333341 0.11876779503876901 2.5000000000000004 193.50000000000003 0.059991085475083201 72.756666666666675 84.000000000000014 1.2950000000000019 0.10699780508462171 5.5000000000000009 48.74831264493384 1.9517991458976358 1.0930696321315405 99.500000000000014 1.788888888888889 2.0279017307716485 0.69499999999999329 1.9354863070713588 2.1492424247105304 1.8630389495187221 0.58046174312627707 0.4957773297904568 1.9883826025554268 0.12300682812070686 5.4016666666666646 1.6256701746404134 1.0000000180025095e-35
decision_type=2 2 2 2 2 2 2 2 2 2 2 2 2 2 2 2 2 2 2 2 2 2 2 2 2 2 2 2 2 2 2 2 2 2 2 2 2 2 2 2 2 2 2 2 2 2 2 2 2 2 2 2 2 2 2 2 2 2 2 2 2 2
left_child=1 5 3 33 18 49 9 42 27 -7 11 12 13 14 -9 -13 25 -18 40 -20 38 31 32 -24 39 26 -12 28 29 30 -5 -14 58 61 -23 37 43 -11 41 -25 -4 -6 -8 -32 -3 -39 48 -48 -19 50 51 -1 -53 55 -55 56 -40 -58 -10 -38 -60 -2
right_child=2 44 4 8 20 6 7 10 22 35 16 15 21 -15 -16 -17 17 46 19 -21 -22 34 23 24 -26 -27 -28 -29 -30 -31 36 -33 -34 -35 -36 -37 59 45 53 -41 -42 -43 -44 -45 -46 -47 47 -49 -50 -51 -52 52 -54 54 -56 -57 57 -59 60 -61 -62 -63
leaf_value=0.039961503335879507 0.091486393519968401 0.08138298745623003 -0.026610267329821448 0.068294519596431083 0.0096085120711809652 0.038246265787456275 0.045041522464896448 0.046832381548554659 -0.017400240123011671 0.059481083789852465 0.027742320328198275 0.035848565295780802 0.016027614102864372 -0.030928433930657466 -0.035938197178833967 -0.022358328972631018 0.011936090681634306 0.07635984299943159 0.03095200838583816 -0.045680706996996591 0.079827183984174988 0.037655059755009455 -0.043583001410384341 0.019581920338074352 0.035474900487237303 0.054217847286494959 -0.056876383264903858 0.09360013438137689 -0.039665622638209483 0.058468101537291636 -0.0089114064260453277 -0.045025018198905524 -0.041615654525340433 0.0019014710547745892 0.0059414419619799961 -0.046225472811814924 -0.044750041376418262 -0.053204883976658561 -0.010607026072339891 -0.052744776530558583 0.041552222069694694 0.067965493917048911 0.077252733012004582 0.050844307215705646 0.054358764983635982 0.029680823892336252 0.067101967618578742 0.016818399804791336 0.022496187039531008 -0.041241833990681744 0.062045669416543769 0.019856517203638211 -0.042052358950160837 0.069966948243646479 0.010460487326528026 -0.034116792385118527 0.054730839180147248 -0.031361524046439299 0.0035796956822261874 0.016491824979055901 0.071913015790449841 0.050791101396228167
leaf_weight=13.294878542423247 13.168027088046072 51.913859844207764 7.2642017006874111 10.183503195643423 11.885395571589472 23.715488985180855 39.892418161034584 229.21357467770576 15.338558658957483 5.8708514869213166 11.486888870596891 16.91711488366127 20.324848324060444 7.6531352847814551 4.9638649076223365 23.166505888104439 14.066545099020002 61.662510216236115 7.9746078550815573 36.021005898714066 6.3390821218490592 89.559519127011299 9.0980594307184202 10.440876528620722 67.325465425848961 12.248681619763373 6.4609781801700583 6.4263001978397361 6.5696654915809622 31.557862818241119 8.1492715775966662 9.0588617622852308 14.562277361750601 8.4192686229944211 31.231680706143379 12.016203448176382 9.1501437127590197 5.8803561478853208 35.079026088118553 6.5195143669843665 10.883923932909964 12.560031354427336 40.814745515584946 17.238025903701782 56.485810965299606 4.6098635047674179 20.496288523077965 19.678715839982033 8.5380930006504041 6.9528729468584052 6.5858469307422629 14.094039440155031 14.408110722899435 7.7613374888896969 17.761647254228592 14.44260813295841 15.87319052219391 4.4453799128532401 9.8813906013965589 9.2975305765867216 6.0966981202363959 63.473212912678719
leaf_count=44 30 106 34 28 45 76 117 697 65 17 38 55 74 33 22 99 50 154 29 183 15 289 44 39 223 35 30 14 31 92 32 42 69 33 117 59 43 30 148 34 34 35 93 51 155 17 55 68 29 32 19 50 67 22 68 68 48 21 39 33 17 185
internal_value=0.0321351 0.0390262 0.0202151 0.0290236 0.00508099 0.0350434 0.0372725 0.0393849 0.0206085 0.0101075 0.0363322 0.0321263 0.0351813 0.0426136 0.0450462 0.00213617 0.04803 0.0546826 -0.0182454 -0.0316609 0.0166093 0.023166 0.0103818 0.0197285 0.0266535 0.0203918 -0.00264394 0.0349911 0.0307633 0.0362568 0.0231228 -0.00274783 -0.00855743 0.0524539 0.0295 -0.01332 0.0124062 0.0107381 0.0131672 -0.00813195 0.0140531 0.03991 0.0614561 0.0315462 0.0674009 -0.0164672 0.0600784 0.0426741 0.0699069 0.00597048 0.0129087 0.00494124 -0.0113368 0.00623549 0.0289145 -0.00202481 0.00631615 0.035638 0.0067709 -0.0137463 0.0301873 0.0579453
internal_weight=1394.45 883.263 511.187 322.896 188.291 774.863 719.528 667.435 237.835 52.0928 586.728 432.089 392.005 241.831 234.177 40.0836 154.639 124.442 62.1437 43.9956 126.148 150.175 139.263 93.3839 84.2859 30.1965 17.9479 98.5723 92.146 85.5763 54.0185 29.3837 45.8789 85.0605 120.791 28.3773 43.835 16.3611 119.809 16.9604 18.1481 24.4454 80.7072 25.3873 108.4 10.4902 110.376 40.175 70.2006 55.3357 48.3829 41.797 28.5022 95.3632 25.523 69.8402 55.3976 20.3186 31.3166 18.4477 15.9781 76.6412
internal_count=4621 2769 1852 1102 750 2508 2296 2097 854 199 1887 1428 1274 752 719 154 459 356 280 212 470 522 530 340 296 103 68 324 310 279 187 116 190 248 406 123 159 64 455 73 68 80 210 83 261 47 306 123 183 212 180 161 117 375 90 285 217 69 121 76 56 215
is_linear=0
shrinkage=0.04


Tree=6
num_leaves=63
num_cat=0
split_feature=45 3 35 23 88 3 6 5 48 61 44 62 95 12 9 95 15 39 63 28 105 101 9 102 106 102 49 106 88 49 49 45 45 47 12 75 87 49 101 46 46 47 64 57 48 33 61 37 17 12 11 22 48 15 15 105 11 19 9 103 15 8
split_gain=63.8633 55.4162 38.4008 35.21 29.2244 28.052 22.9245 24.6893 19.6695 19.5826 15.8792 22.9489 15.7829 22.1411 19.2406 24.5624 19.281 19.0928 15.61 26.8462 15.0377 14.1319 23.6668 14.8195 26.3361 21.5813 14.1133 18.6985 14.0174 14.0528 13.7917 13.4742 18.3127 16.7822 13.4302 13.7124 13.4014 13.2557 13.0652 17.4165 21.2613 16.243 16.385 13.856 16.243 13.0648 12.9001 12.6958 12.4981 12.2274 12.1067 11.9724 11.83 14.0042 11.7078 16.7941 11.5159 11.1204 11.2343 10.8801 11.8143 11.956
threshold=0.10022506713840292 8.5000000000000018 1.0186682894717416 3.2256223142575338 3.1841666666666701 6.5000000000000009 65.475000000000009 2.3430639760822012 1.2316439472386465 1.8000000000000045 0.41428571428571431 53.350000000000001 8.9156581796953365 3.5388930837751418 2.6007463849944346 8.7641728024728796 3.848314411469496 1.1621096794750001 4.6162499999999946 9.7550000000000043 441.50000000000006 1.380559964663431 1.4980132415430958 2.1651565649041506 104.00000000000001 2.2529803913646407 22.416026876615479 94.000000000000014 1.0033333333333305 15.11893729865532 29.037179923093188 0.11876779503876901 0.1033055487815641 4.3966574226514306 3.3685631910734037 2.5000000000000004 50.898333333333341 32.187824049707181 1.874273436419071 0.45366523096720951 0.5749698713348147 7.6007521110654439 1.1054751851278037 7.5000000000000009 3.0589022452119234 1.8018506628153375 2.6449999999999965 1.1731958653665626 2.5000000000000004 1.2708567691023445 0.5634920634920636 6.3809523809523823 4.8290918863418062 2.111943024414368 2.284519695641797 251.00000000000003 1.4365079365079367 1.0615687605195789 3.9490795139662986 813.00000000000011 1.5142164904236097 0.61250000000000016
decision_type=2 2 2 2 2 2 2 2 2 2 2 2 2 2 2 2 2 2 2 2 2 2 2 2 2 2 2 2 2 2 2 2 2 2 2 2 2 2 2 2 2 2 2 2 2 2 2 2 2 2 2 2 2 2 2 2 2 2 2 2 2 2
left_child=1 5 3 26 10 59 8 57 -7 31 47 -12 13 14 15 16 -9 -15 19 -14 38 30 -23 24 54 -25 -2 37 29 -16 -11 32 -5 49 35 -26 48 -28 39 -6 43 50 45 -41 -45 -43 -30 -4 -10 -33 -40 -20 53 -29 55 -24 -35 -8 -59 60 -1 -62
right_child=2 -3 4 9 20 6 7 12 36 21 11 -13 18 17 28 -17 -18 -19 51 -21 -22 22 23 25 34 -27 27 52 46 -31 -32 33 -34 56 -36 -37 -38 -39 41 40 -42 42 -44 44 -46 -47 -48 -49 -50 -51 -52 -53 -54 -55 -56 -57 -58 58 -60 -61 61 -63
leaf_value=0.037368023440868661 0.06668344702439595 0.063585744175709058 -0.028074684318203855 -0.012775789938558067 -0.0012488367821324954 0.036208045065068244 0.083914086273970165 0.044206177043979798 0.055905314736404171 0.0064832975705807769 0.029336539385094968 -0.044858648442144801 0.042752657880450323 0.033967088830347512 0.018832254198764366 -0.030068477202905727 -0.035025757501010904 -0.021666740370573919 0.056787104695868063 -0.029568424097672658 0.074793727744968314 -0.042698558209194819 -0.022149126549059088 0.069950413328591379 -0.039472895019967008 -0.0071195884158098775 -0.043867566714153788 -0.0021440388903679495 0.035646194820173588 -0.037965810661552996 -0.040712007482859393 0.021511910520986333 0.05695176924645301 0.055762825748582011 0.050111096594184536 0.014842310718460197 -0.045353190639040072 0.040918810445271535 0.027555154853989853 0.093267481432888211 -0.0043710791590085988 0.0070857390845941327 -0.017716281530664093 0.067343770143460754 -0.011895528008626531 0.079333367623039538 0.0056914207998956089 0.039930536628470667 -0.015949485056329517 -0.037528179379327585 -0.036706589768987628 0.0048998111636332168 0.078045625901798379 0.064002761942761208 0.083482371810651199 0.074652428728652978 -0.0026035393224009859 0.054433112061029208 -0.0053763574193609262 -0.023152299500653832 0.026420637550769715 -0.03592002217770509
leaf_weight=20.94556725025177 40.817560032010078 110.2796041816473 7.0416259765625027 6.8300918042659751 25.222941175103188 24.047047913074493 20.409907117486 233.04175977408886 6.0001267641782823 31.39005520939827 8.0804610252380353 35.231736406683922 32.992871582508087 17.140801206231117 18.205649137496952 7.561864659190177 4.8934927433729163 22.957229375839233 105.50210912525654 10.776910230517386 6.4983401149511328 8.9207333177328092 6.1821375191211718 20.863249465823177 18.33729608356953 7.895020753145217 7.0561962574720365 10.637896016240122 90.801695644855499 11.137983381748198 14.297694027423857 11.207091912627222 44.314533218741417 19.061212465167049 5.4151443541049948 12.260287642478941 11.764458924531935 4.894527792930603 5.7955329865217236 11.606804877519609 11.590613663196562 7.7424302101135316 10.754293635487555 10.214243635535242 6.7434676438570014 8.5503090023994428 31.30244305729866 11.179634094238279 10.404422804713247 10.981970891356466 22.109061762690544 7.8325321674346915 13.593066856265066 9.5669774413108808 9.0222934037446958 5.1301697343587875 7.3449792116880408 56.382506117224693 5.3645417243242255 15.015605568885801 9.3841942697763461 10.085676431655882
leaf_count=69 105 261 31 28 101 76 44 697 17 121 29 183 98 55 65 33 22 99 286 46 15 44 28 56 86 31 31 40 289 51 69 39 122 55 16 44 59 15 20 25 48 30 48 28 28 21 117 37 47 51 106 29 32 25 22 13 29 147 19 65 32 46
internal_value=0.0305288 0.0369938 0.0192767 0.0275847 0.00486872 0.0332404 0.0353284 0.0373021 0.00966655 0.019639 -0.0177021 -0.0308887 0.0344319 0.0304801 0.0333416 0.0402815 0.0425458 0.00204102 0.0453734 0.0248279 0.0158563 0.00992173 0.018796 0.0253313 0.0132673 0.0487024 0.0494696 0.033912 0.0220465 -0.0026465 -0.00825548 0.0331871 0.0475552 0.0179166 -0.00719825 -0.0176013 -0.0128976 -0.00875921 0.0125808 0.0246546 0.0409875 -0.00172995 0.0202427 0.0594832 0.0357137 0.0454974 0.0280107 0.0134217 0.0102693 -0.00756645 -0.0231664 0.0532439 0.0490996 0.0291403 0.0495655 0.0216697 0.0394285 0.0579429 0.0491719 0.00571174 0.016565 -0.00568687
internal_weight=1408.61 894.231 514.382 326.02 188.361 783.951 728.52 676.304 52.2161 239.454 61.5335 43.3122 594.147 437.043 396.945 245.497 237.935 40.098 157.104 43.7698 126.828 139.714 94.0263 85.1056 56.3473 28.7583 86.5662 45.7487 151.448 29.3436 45.6877 99.7399 51.1446 48.5953 36.0127 30.5976 28.169 11.9507 120.33 65.3781 40.1551 54.9516 27.047 28.5645 16.9577 16.2927 122.104 18.2213 16.4045 22.1891 27.9046 113.335 33.7979 20.2049 20.3346 11.3123 26.4062 82.157 61.747 55.431 40.4154 19.4699
internal_count=4621 2769 1852 1102 750 2508 2296 2097 199 854 280 212 1887 1428 1274 752 719 154 459 144 470 530 340 296 209 87 248 143 522 116 190 324 150 174 146 130 123 46 455 230 129 225 99 81 56 51 406 68 64 90 126 315 97 65 63 41 84 210 166 212 147 78
is_linear=0
shrinkage=0.04


Tree=7
num_leaves=63
num_cat=0
split_feature=6 3 105 44 28 47 3 64 29 61 63 88 101 12 6 6 100 13 91 99 9 29 101 29 26 99 57 99 95 101 5 22 23 23 35 92 12 45 15 100 103 11 95 61 18 35 11 35 103 40 45 9 1 23 56 88 70 37 64 63 95 56
split_gain=57.9439 32.3401 31.4909 32.7468 31.295 22.8412 24.0804 20.2237 17.5235 17.4713 16.8943 26.577 16.2819 16.1355 15.9682 15.7002 15.2008 14.804 14.1954 16.8105 14.2242 16.7178 14.0058 14.4217 13.9522 13.823 16.6454 13.3195 12.717 14.1578 12.6582 12.4891 21.1991 26.7019 12.4057 13.4764 12.2353 16.8115 19.1393 11.7962 11.5489 12.9292 16.9911 20.7492 15.6777 14.8192 12.1297 11.4356 10.6824 10.0729 14.594 13.6056 10.0641 11.4774 10.7999 12.3564 10.9043 10.6521 9.91816 9.80118 9.66479 9.63302
threshold=74.89500000000001 8.5000000000000018 215.00000000000003 0.15476190476190474 20.275000000000009 2.4527766401329556 6.5000000000000009 1.0349609350116686 0.041606929406991712 4.0049999999999963 7.990000000000002 9.4999999999999947 1.7344253267938463 4.3424777252813724 105.60000000000001 74.15000000000002 1.5901077874119347 4.5000000000000009 3.5000000000000004 1.997248953962911 4.4427503436650939 0.046762845544448005 1.9256892171102595 0.069601973391204913 2.5000000000000004 1.700838441043383 15.500000000000002 1.9671788879347343 8.9156581796953365 1.0690434676520362 6.3337387797073843 3.4142857142857146 4.3013922324330673 5.1892741463170085 0.7935475443323009 0.2678571428571429 1.6838226736052111 0.10215355601289745 2.516611478423584 2.2677843380582301 193.50000000000003 0.63333333333333341 6.7899077017711091 2.0500000000000012 1.6904761904761907 1.073004246493644 1.8452380952380951 1.3750528807363582 1050.5000000000002 5.5000000000000009 0.069490831766383709 1.2130229671134545 10.500000000000002 2.706171499271965 1.5000000000000002 3.4843333333333324 0.99963473161679894 0.93460446353461168 1.1091550129222745 5.5795833333333471 7.2679604740942363 1.5000000000000002
decision_type=2 2 2 2 2 2 2 2 2 2 2 2 2 2 2 2 2 2 2 2 2 2 2 2 2 2 2 2 2 2 2 2 2 2 2 2 2 2 2 2 2 2 2 2 2 2 2 2 2 2 2 2 2 2 2 2 2 2 2 2 2 2
left_child=2 5 3 9 36 14 -7 -8 -4 17 18 12 16 22 31 40 27 -1 20 -20 28 59 39 25 -14 26 -24 -12 29 -9 -18 32 52 -34 35 -33 -3 -38 -39 47 -10 45 -43 46 -45 -42 -44 49 -30 -5 -51 -52 54 -54 55 -2 57 -56 -26 -22 -27 -49
right_child=1 4 8 13 -6 6 7 10 15 -11 11 -13 24 -15 -16 -17 30 -19 19 -21 21 -23 23 -25 58 60 -28 -29 48 -31 -32 34 33 -35 -36 -37 37 38 -40 -41 41 42 43 44 -46 -47 -48 61 -50 50 51 -53 53 -55 56 -57 -58 -59 -60 -61 -62 -63
leaf_value=0.063507914807022864 0.046812203719732076 0.07928440982477282 0.07276097594283458 -0.019141768607664582 -0.020581043869090321 -0.011210610720842062 -0.02744471796913877 -0.014733241703065393 0.060972427632643225 -0.021259498660295594 -0.056658772768797307 0.055277266506972782 0.033724761484516932 -0.033578439729950942 -0.010954793708855022 -0.028928819576815319 0.03999305331679244 0.0031858691994943707 -0.045370792821597332 0.033934840583270093 -0.00063776821532872396 -0.025458412410736861 -0.0014923944818143672 -0.029084527879098668 -0.049362920415122656 0.018391913506650152 0.084955225395807493 0.013935982187055853 0.054861402095467422 0.035234093785361104 -0.011884663454517545 0.0025053406655658021 -0.035909693926964865 0.045203729208379444 0.078642096436347647 0.057641185873881673 0.057981912951977022 -0.026460722143775883 0.050051277931383309 -0.032132746228210336 0.057224430874117084 -0.029239461679751905 0.059576192934502628 -0.026205158429091706 0.036028526004995891 0.005646221509852725 0.0027570622122499561 -0.053093019741715035 0.014185272280963751 0.043367606631733939 0.040951193732872551 0.0097192286225181862 0.047888285756125991 -0.026178821110409662 0.072848638440539473 -0.014769409088582753 0.090694426999173169 0.027915712403964746 0.01062333446476219 0.053984164587197452 -0.026840332615729878 0.012635604397121887
leaf_weight=33.675615847110748 21.10894945263863 31.025207534432411 16.209309682250023 10.756990760564802 8.7679238766431791 24.250035524368286 9.685194253921507 9.2639275789260846 18.806745022535324 5.8499872982501975 6.8033350706100491 23.231817409396172 6.3461590558290508 14.680075287818907 8.0782384574413282 7.0412028878927222 39.06468877196312 8.2523518204689008 7.5875588655471828 9.5308557003736478 8.4940046668052691 12.489909768104551 7.1739301234483701 27.236324623227119 15.974758476018907 13.148204714059831 6.8050877451896667 11.016800016164778 91.766762554645538 238.6426172554493 9.1300113499164564 9.6277473270893079 12.531265571713449 13.236037477850912 30.937609285116196 28.697178423404694 88.870389148592949 8.8569780588150042 12.365496799349783 8.3794215917587263 33.685490503907204 10.997605785727499 24.860694780945778 16.252330452203754 10.615932449698446 12.380971312522886 8.1294731348752958 6.7440143376588804 12.042337492108343 35.921867847442627 26.954338759183884 132.28576603531837 7.2262283563613874 6.0064799040555954 17.047812655568123 6.741507574915885 16.288768395781517 17.824118494987488 5.8958369195461264 13.095273301005362 17.358261153101921 7.2359956949949265
leaf_count=88 59 64 38 46 40 101 40 37 50 26 32 64 20 72 30 30 120 33 33 30 31 53 28 129 77 49 16 40 245 743 39 35 52 39 68 78 210 35 33 38 90 49 67 71 36 46 31 35 41 109 85 502 20 24 41 26 34 55 23 37 79 29
internal_value=0.0290418 0.035197 0.0184109 0.0118779 0.0522103 0.0317836 0.0276088 0.0293941 0.0332634 0.0427156 0.0304647 0.0170267 0.00750547 0.00717103 0.0435887 0.0287033 0.0183984 0.0517662 0.0343673 -0.0010436 0.0359487 0.0110692 0.0091889 -0.00618506 -0.017813 0.00777926 0.0406113 -0.0129581 0.0383442 0.0333456 0.0300782 0.0459675 0.0378961 0.00561534 0.0595875 0.043937 0.0567726 0.0503261 0.0179579 0.0140373 0.0317416 0.0269577 0.0161061 0.0245389 -0.00142524 0.043491 0.0457463 0.0158286 0.0501995 0.0182166 0.0203049 0.0150533 0.0468542 0.0140242 0.0522774 0.0317631 0.063283 0.0501419 -0.0330351 0.0324056 -0.00721827 -0.0189399
internal_weight=1420.99 899.55 521.438 362.458 149.886 749.664 554.312 530.062 158.98 47.778 520.377 117.463 94.2316 314.68 195.352 142.77 66.0148 41.928 402.913 17.1184 385.795 34.0792 300 71.7218 28.2168 44.4855 13.979 17.8201 351.716 247.907 48.1947 187.274 118.011 25.7673 69.2625 38.3249 141.118 110.093 21.2225 228.278 135.729 116.922 70.856 59.8584 26.8683 46.0665 32.9902 219.899 103.809 205.919 195.162 159.24 92.2439 13.2327 79.0112 27.8505 51.1607 34.8719 21.8706 21.5893 30.5065 13.98
internal_count=4621 2749 1872 1364 382 2367 1806 1705 508 147 1665 415 351 1217 561 470 231 121 1250 63 1187 121 1145 301 120 172 44 72 1066 780 159 531 350 91 181 113 342 278 68 844 440 390 254 205 107 136 98 806 286 742 696 587 259 44 215 85 130 96 100 68 128 64
is_linear=0
shrinkage=0.04


Tree=8
num_leaves=63
num_cat=0
split_feature=6 3 1 28 100 75 35 63 37 9 25 9 18 12 88 12 23 14 45 100 46 46 29 64 100 99 102 14 61 48 12 61 14 22 19 36 35 88 10 46 61 25 44 12 45 15 101 6 9 22 24 23 63 33 24 44 35 33 105 97 64 18
split_gain=52.2097 29.3567 28.918 28.2745 28.2396 23.8151 21.9553 20.8077 18.358 22.0823 15.7747 18.4527 20.3098 15.5859 14.8881 18.4883 15.7844 16.3926 14.9042 25.5021 19.7473 16.4163 14.8376 13.7393 18.1699 13.6484 13.5276 13.3525 17.216 12.9349 12.2585 14.9199 12.4486 11.6242 11.6004 15.3456 25.9618 15.8486 12.3577 11.5981 11.2695 11.2465 10.946 10.8248 15.1016 17.4577 10.7603 10.6657 11.6268 12.781 13.7285 32.329 13.7236 13.1109 12.7247 12.3762 10.6017 10.5642 10.2819 10.0458 9.92685 9.81766
threshold=74.89500000000001 8.5000000000000018 3.5000000000000004 20.275000000000009 1.6991862566169025 6.5000000000000009 1.2486095644623239 6.2083333333333366 0.97499604304356924 0.77136236924394896 1.5000000000000002 2.7559425675602962 0.81666666666666676 4.3424777252813724 9.4999999999999947 1.2198653319897506 3.1888296343133793 2.5634920634920646 0.11104811657918891 2.1660030551555343 0.31812457664501576 0.44457408757057382 0.077080195223563477 1.0994634583417844 1.8838469713404595 2.2677859094843176 2.1395777533992457 1.2111111111111115 2.3649999999999989 2.5544413083804436 3.3130314765009437 1.819999999999997 2.9444444444444451 4.8452380952380958 2.3042346054814717 2.5000000000000004 0.99874921777190917 3.5966666666666716 10.500000000000002 0.39733369545237657 2.0949999999999993 2.5000000000000004 0.30952380952380959 1.6838226736052111 0.10215355601289745 2.516611478423584 1.9581480500889328 75.855000000000004 5.3474510880465234 3.4142857142857146 11.500000000000002 5.1653222308049456 3.8004166666666568 1.414655366090793 15.500000000000002 1.3095238095238098 1.0186682894717416 1.6717692453835669 251.00000000000003 76.679419138497792 1.0850349146926901 1.8452380952380951
decision_type=2 2 2 2 2 2 2 2 2 2 2 2 2 2 2 2 2 2 2 2 2 2 2 2 2 2 2 2 2 2 2 2 2 2 2 2 2 2 2 2 2 2 2 2 2 2 2 2 2 2 2 2 2 2 2 2 2 2 2 2 2 2
left_child=2 7 6 43 34 13 8 25 9 -1 11 12 -10 30 15 33 17 29 20 -20 -18 26 -12 24 39 27 -22 28 -2 -17 32 -32 60 46 35 36 37 -4 61 -8 -14 -11 59 -3 -45 -46 -9 -29 49 50 55 -52 54 -54 -51 -49 -36 -42 -43 -13 -6 -37
right_child=1 3 4 -5 5 -7 23 14 10 41 22 42 40 -15 -16 16 18 -19 19 -21 21 -23 -24 -25 -26 -27 -28 47 -30 -31 31 -33 -34 -35 56 38 -38 -39 -40 -41 57 58 -44 44 45 -47 -48 48 -50 52 51 -53 53 -55 -56 -57 -58 -59 -60 -61 -62 -63
leaf_value=0.053971383975394027 -0.029888662375870761 0.074854657933339536 -0.0032153971400891734 -0.019953010901404319 -0.026668374733436639 0.057833618489638403 -0.055067712583378225 0.04633691107181296 -0.0097829986352207954 -0.0098095171027601843 0.059712077443860409 -0.0093668559323622901 0.071291409197551961 -0.046220088830811468 0.052364277831956692 0.036237879185264346 -0.017103516841834237 0.052787749707809591 -0.029171301477753656 0.038021984869633048 0.022108798945301808 -0.022702537740822006 0.0050325809635872526 -0.028829493336372369 0.044573876588887069 -0.012574993517140811 0.066424612460578056 0.072728836838369629 0.042361812878346311 -0.041611444401761982 -0.012178509190654789 0.054291953103830858 0.027228442577723562 -0.013308311972189376 -0.055369054075472754 0.038539169069225727 -0.054180716072438184 0.082634177611829326 -0.0011459752115775899 0.016477004064343926 0.065561065175415476 -0.0014442779963383051 -0.035023229116726021 0.054988968705940632 -0.02563109308106705 0.047407328647383187 -0.00058581183842320163 0.043020241886378124 -0.0034588575837821477 0.08759104228423685 -0.022791722032601505 0.042681524600701237 0.050536638577938213 0.022297012973969049 0.037767712219422697 0.012959752788303754 0.027759943453208785 0.0058880407051244924 0.066353029021932269 0.055105171319718711 -0.0015514095706149617 0.079943020150030353
leaf_weight=17.086476936936378 10.49560856819153 31.541453927755356 7.4016022384166735 8.6869587004184705 42.070847779512405 9.9417984336614591 6.5342665165662783 68.084217205643654 10.323560386896132 37.539001852273941 65.21349410712719 8.4658066630363447 23.267142072319984 13.751772150397299 25.378296256065369 7.1804174333810789 24.034337282180786 29.880830317735672 32.54913404583931 12.365448534488676 94.815152809023857 11.435426622629164 9.2453687489032728 15.474782451987265 17.297638326883316 8.8074585348367673 12.560622617602347 14.680915817618368 10.3784853965044 6.3310083150863647 9.2837772369384783 12.4611978828907 14.938303261995314 6.7040852904319754 4.9827730357646924 36.667585715651512 8.0780676156282407 6.1826754808425903 8.9596003741025907 7.7964235842227936 7.8752947151660946 7.0588875561952573 9.4851948171854019 89.941534444689751 8.7826784849166888 12.534884735941885 8.6398062855005247 131.19807112216949 10.52011765539646 22.869279935956001 21.631897166371346 26.925657019019127 77.578610867261887 41.102736085653305 13.688638210296629 26.919931724667549 4.5938828438520432 12.196496814489363 6.9247749745845795 6.8554235249757776 63.422487825155258 12.774848476052282
leaf_count=45 44 64 29 40 182 26 32 197 41 153 173 35 57 71 69 22 96 83 144 40 313 48 34 74 54 35 33 34 29 28 41 39 50 27 24 116 41 14 36 27 21 27 43 210 35 33 33 370 38 45 86 78 213 134 38 90 16 45 17 19 259 31
internal_value=0.0276498 0.0334567 0.0175758 0.0495805 0.00791512 -0.00184065 0.026743 0.0302176 0.0320149 0.0147016 0.0397415 0.0270656 0.0402357 -0.00570567 0.0228287 0.0204173 0.0145519 0.0363017 0.00948746 -0.0105401 0.0158156 0.0225173 0.0529922 0.00184824 0.0170276 0.0362278 0.027387 0.0372939 0.00587387 0 -0.00172914 0.0258042 -0.00675099 0.0365838 0.0259935 0.030984 0.00201952 0.0358837 0.0416373 -0.0160231 0.0522376 0.00152172 -0.00131128 0.0538494 0.0477968 0.0171501 0.041007 0.0389759 0.0376155 0.0388211 0.0322129 0.0134448 0.0475667 0.0408171 0.0691984 0.0379391 -0.0152043 0.0297084 0.032078 0.0193918 -0.0116217 0.0494575
internal_weight=1432.39 908.244 524.151 151.488 255.511 165.87 268.64 756.756 221.537 68.6091 152.928 78.4689 53.6625 155.928 339.959 314.58 231.152 43.3923 187.76 44.9146 142.846 118.811 74.4589 47.1031 31.6283 416.797 107.376 407.99 20.8741 13.5114 142.177 21.745 120.432 83.4281 89.641 80.0644 21.6623 13.5843 58.402 14.3307 43.3389 51.5227 24.8064 142.801 111.259 21.3176 76.724 387.116 372.435 361.915 206.676 48.5576 155.239 118.681 36.5579 158.118 9.57666 20.0718 13.9837 15.3212 105.493 49.4424
internal_count=4621 2749 1872 382 975 668 897 2367 710 242 468 261 164 642 1133 1064 807 133 674 184 490 394 207 187 113 1234 346 1199 73 50 571 80 491 257 307 267 84 43 183 59 123 197 97 342 278 68 230 1126 1092 1054 624 164 430 347 83 460 40 66 44 54 441 147
is_linear=0
shrinkage=0.04


Tree=9
num_leaves=63
num_cat=0
split_feature=45 3 35 23 88 3 6 5 61 48 44 96 49 101 9 49 102 5 47 102 106 8 87 55 9 7 8 100 99 99 102 97 102 37 49 106 49 4 13 41 31 23 95 47 11 23 92 12 102 12 47 70 37 1 102 61 61 103 14 18 37 48
split_gain=47.8898 40.2525 31.0202 27.9872 25.6773 23.254 18.0387 19.4433 16.978 16.848 14.0459 21.6584 16.3588 13.3281 16.3719 13.2782 12.6079 12.5912 14.0381 13.6352 13.6634 12.9169 12.4457 12.3255 13.435 12.234 15.0483 18.254 15.4413 19.1929 13.7673 17.9757 11.9301 14.8639 11.8968 16.245 11.6583 11.5743 17.458 11.4324 11.2221 11.1972 11.5913 21.6503 11.3234 11.1588 14.4734 13.3344 13.2706 14.4795 12.9289 12.6294 11.1425 10.878 10.722 10.4207 10.4805 10.861 10.2656 10.1124 10.0493 9.81335
threshold=0.10022506713840292 8.5000000000000018 1.0186682894717416 3.2256223142575338 3.1841666666666701 6.5000000000000009 65.475000000000009 2.294606762815635 1.7450000000000048 1.2316439472386465 0.41428571428571431 48.09767942472444 15.476750022260919 1.380559964663431 1.4980132415430958 29.037179923093188 2.1655523541538071 4.8710546428193018 4.3316774838547003 2.0315862570416172 94.000000000000014 0.84523809523809534 50.898333333333341 3.1341222879684425 2.2484223192707735 110.25500000000001 2.6904761904761911 1.6991862566169025 1.7714685405761332 1.465842720285347 1.8495339886078213 109.77344631678967 1.9414502829422415 1.3242352414021952 22.416026876615479 94.000000000000014 32.187824049707181 104.28571428571431 8.5000000000000018 0.2678571428571429 1.3245405439006894 8.0990885866660456 6.7076366591600189 4.8598566800255165 3.3809523809523809 5.8238016468645926 0.41428571428571431 2.1984776576262473 1.949613646567905 2.3426670233182976 4.7154340482396533 0.99963473161679894 1.1731958653665626 5.5000000000000009 2.2564708194262635 1.2950000000000019 0.86000000000000665 750.50000000000011 1.7460317460317463 1.788888888888889 1.2800365719393063 4.8290918863418062
decision_type=2 2 2 2 2 2 2 2 2 2 2 2 2 2 2 2 2 2 2 2 2 2 2 2 2 2 2 2 2 2 2 2 2 2 2 2 2 2 2 2 2 2 2 2 2 2 2 2 2 2 2 2 2 2 2 2 2 2 2 2 2 2
left_child=1 5 3 34 10 59 9 55 37 -7 52 12 -12 15 -15 -10 17 18 -6 20 -19 -22 40 -18 -25 26 41 -28 29 -29 31 -27 33 39 -2 36 -36 38 45 -16 -11 42 43 -9 -44 46 51 50 -47 -50 -48 60 -4 -3 -34 56 57 -8 -23 -1 -5 -37
right_child=2 53 4 8 16 6 7 25 13 22 11 -13 -14 14 32 -17 23 19 -20 -21 21 58 -24 24 -26 30 27 28 -30 -31 -32 -33 54 -35 35 61 -38 -39 -40 -41 -42 -43 44 -45 -46 48 47 -49 49 -51 -52 -53 -54 -55 -56 -57 -58 -59 -60 -61 -62 -63
leaf_value=0.010224889093071872 0.058598117532563956 0.067228519323791952 -0.027890675883706969 -0.056786609017305006 0.032658272798237666 0.031986066676075418 0.025039771497235162 0.026981892932781144 0.0048756720633243347 -0.035858048786077908 0.041859498680609446 -0.04970405051513864 -0.050974057737884999 -0.033094093558452421 0.034080268609415702 -0.040742851640825528 0.082977961976267028 0.058099608190944965 -0.029636856109452048 -0.018891722081033683 0.054101952288537571 0.017619065749099404 -0.04484128499947361 0.048867646381246133 -0.006205684557575487 -0.021085823637182529 0.034892701475314321 -0.040877265340426509 -0.030495767218494913 0.039068597484325736 -0.036742578951377766 0.059429266274740322 0.039978996325118352 -0.042908883564980002 -0.043932010654599785 0.024825453200550046 0.034805300331233954 0.080142456362014322 -0.038004501351867857 -0.026605939291444898 0.032865981831359754 0.070908161725779031 0.034476882919938882 -0.031503255066056078 0.078364402581973233 0.078580111717032303 0.023484363539395012 -0.008331571600198583 -0.0067069653182401483 0.066209970307671104 0.08324114061354411 0.04426215650962767 0.035579587997522262 0.04204581413982407 -0.013304610505820307 0.065284277672192775 0.0014645189538917325 0.074579588829563045 -0.034595174598636848 -0.041047013122894549 0.0076676828476362922 0.06856548954017401
leaf_weight=49.382582068443298 42.478972107172012 54.349929362535477 7.0074155032634762 7.8389771878719348 7.5048081725835827 24.675804704427719 15.75015811622143 82.546711832284927 33.304430723190308 5.6920521259307924 9.1407828330993635 29.034134238958359 4.4039964079856864 9.4014758914709073 19.06427459418774 14.53847862780094 6.7142610847949973 15.019051790237425 23.702410638332367 13.400907427072523 8.6182041019201261 15.618952199816706 11.58099679648876 14.606448799371721 13.421659097075461 7.8187918066978517 38.505739167332649 6.4098250865936306 18.493137136101723 17.992935165762901 8.991695284843443 9.8832298219203931 48.745031416416168 8.2929256707429868 7.0287695974111539 20.75653176009655 5.0703833997249603 6.8230048269033423 6.207391917705535 6.5484217256307593 10.849218681454657 12.688456013798712 391.66694134473801 11.39628906548023 9.7617174535989744 14.102881550788881 12.999205678701406 7.8765232414007178 9.6174357086420077 7.7134195268154135 10.902844756841658 5.5753261744976035 11.492969021201132 60.087346866726875 6.7240641415119162 40.489677205681801 10.608787029981611 13.542492792010306 9.6512741446495038 6.9146519005298606 7.3255412578582764 14.193076446652411
leaf_count=180 105 106 31 37 24 76 47 257 126 28 33 155 24 45 61 71 14 41 112 58 24 56 59 43 53 31 117 29 80 54 38 26 149 40 31 65 15 14 30 28 36 30 1167 49 21 32 42 30 37 19 24 16 37 155 27 87 35 29 45 32 26 32
internal_value=0.0263501 0.0318475 0.0166573 0.0240057 0.00370118 0.0286769 0.0305401 0.0322506 0.0169379 0.00788034 -0.0175977 -0.0302458 0.0112298 0.00830227 0.0167042 -0.0089595 0.0138812 0.00616954 -0.0144717 0.0165784 0.0263978 0.0121005 -0.0131678 0.0344463 0.0224245 0.0298113 0.0310114 0.0149299 -0.00293633 0.017825 0.00314512 0.0237232 0.0220184 0.00317903 0.0431519 0.0290264 -0.0105929 0.0299302 0.0260014 0.0183659 0.00890347 0.0335766 0.0325982 0.0198185 0.0355733 0.0308212 0.0193539 0.0362958 0.0497314 0.0257103 0.0511421 -0.00646304 0.0113031 0.0540891 0.0334356 0.0508365 0.0359492 0.0482548 -0.00222283 0.00379493 -0.0255423 0.0428474
internal_weight=1442.55 920.079 522.467 333.129 189.337 805.642 749.345 696.547 243.602 52.7981 61.0793 42.5789 13.5448 146.619 98.7762 47.8429 128.258 93.5156 31.2072 62.3084 48.9075 33.8884 28.1223 34.7424 28.0281 616.155 589.462 81.4016 42.8959 24.4028 26.6937 17.702 89.3747 33.9056 89.5277 47.0488 12.0992 96.9826 90.1595 25.6127 16.5413 508.06 495.372 93.943 401.429 83.9522 52.5184 31.7786 31.4337 17.3309 23.9021 20.7398 18.5004 114.437 55.4691 80.3911 39.9014 29.2927 25.2702 56.2972 15.1645 34.9496
internal_count=4621 2769 1852 1102 750 2508 2296 2097 854 199 280 212 57 547 350 197 470 360 136 224 166 125 123 110 96 1899 1804 280 163 83 95 57 305 129 248 143 46 307 293 89 64 1524 1494 306 1188 263 175 96 88 56 66 79 68 261 176 198 111 76 101 212 63 97
is_linear=0
shrinkage=0.04


Tree=10
num_leaves=63
num_cat=0
split_feature=45 3 35 23 88 3 6 5 61 48 44 62 101 9 49 105 87 22 23 101 49 101 23 9 1 23 92 58 103 24 16 9 63 9 64 14 23 64 103 33 91 102 106 102 47 87 5 4 13 17 96 92 1 23 102 25 92 12 37 15 105 103
split_gain=43.262 36.8492 28.2412 25.2675 23.762 21.0805 16.2801 17.7044 15.4555 15.4219 13.2027 20.873 12.2202 15.0961 12.5084 12.0845 11.7519 11.7048 15.1802 13.8336 14.1853 13.8797 13.7902 13.4387 11.4973 11.4882 13.9202 11.5101 11.4615 15.1846 20.1351 12.3913 14.6591 16.415 14.9678 15.4358 13.9809 13.754 12.351 12.7509 11.3613 11.3568 18.3791 16.1096 12.0106 10.8995 10.4095 10.3618 16.0575 10.2705 10.4577 10.1486 10.0603 10.0323 14.7363 15.3087 12.3618 9.86183 10.6072 9.76605 13.0628 9.61129
threshold=0.10022506713840292 8.5000000000000018 1.0186682894717416 3.2256223142575338 3.1841666666666701 6.5000000000000009 65.475000000000009 2.294606762815635 1.7450000000000048 1.2316439472386465 0.41428571428571431 53.350000000000001 1.380559964663431 1.4980132415430958 29.037179923093188 441.50000000000006 50.898333333333341 5.4365079365079376 5.9213572893322342 1.7008391910420604 21.879014677741406 1.5885272469602583 2.5085563808571312 1.8676415824292902 9.5000000000000018 4.9304683326810306 0.30952380952380959 2.5000000000000004 646.50000000000011 8.5000000000000018 1.0000000180025095e-35 5.1823857198584138 6.3591666666666677 3.7458822467439545 1.0362126509015697 2.6904761904761911 6.0839039757372246 1.0990909436823453 682.50000000000011 1.4631010208546691 1.0000000180025095e-35 2.1651565649041506 104.00000000000001 2.2529803913646407 5.7147919994369829 72.756666666666675 4.410761655580707 104.28571428571431 8.5000000000000018 2.5000000000000004 48.74831264493384 0.41428571428571431 5.5000000000000009 5.8756951166173073 1.949613646567905 1.5000000000000002 0.41428571428571431 2.1984776576262473 1.2289260170206637 2.284519695641797 251.00000000000003 813.00000000000011
decision_type=2 2 2 2 2 2 2 2 2 2 2 2 2 2 2 2 2 2 2 2 2 2 2 2 2 2 2 2 2 2 2 2 2 2 2 2 2 2 2 2 2 2 2 2 2 2 2 2 2 2 2 2 2 2 2 2 2 2 2 2 2 2
left_child=1 5 3 24 10 61 9 -8 47 -7 45 -12 14 -14 -10 17 49 18 19 21 22 23 -21 -6 -2 26 -22 -27 31 -30 38 32 34 37 35 -9 -36 -34 39 -31 -40 42 59 -43 51 -4 -33 48 53 -11 -51 -44 -3 56 -55 -56 -5 58 -58 60 -15 -1
right_child=2 52 4 8 15 6 7 28 12 16 11 -13 13 41 -16 -17 -18 -19 -20 20 25 -23 -24 -25 -26 27 -28 -29 29 30 -32 46 33 -35 36 -37 -38 -39 40 -41 -42 43 44 -45 -46 -47 -48 -49 -50 50 -52 -53 -54 54 55 -57 57 -59 -60 -61 -62 -63
leaf_value=0.013665772181439896 0.045666937012763469 0.064152364619232211 -0.026895479469418126 -0.0042815118452681966 0.037061770378383783 0.030404545002231519 0.048343884623342791 -0.045843135843189102 0.00467239047696184 0.048733254315021964 0.027163049507407701 -0.043475738028948399 -0.032277778471568166 -0.023260286391242179 -0.039879870382829356 0.065020479384432131 -0.044023396522014868 0.06278978010879685 -0.020254475462582199 0.025317727839612246 0.024963936341703314 0.06167180631386078 -0.046729447657520504 -0.030744434692021923 -0.0020530199003741091 0.077285903784625548 -0.042927896445444765 0.0073819089981008923 0.052481686882971175 0.082237277208225809 -0.0016435363193338301 -0.03173582790588686 0.013168150958440339 -0.027951331522614888 0.027850723546794371 0.031671820975610207 0.052020767622835626 0.058387173574046047 0.044296062902937181 0.017733406230801118 0.022353904196380444 0.058412015996552658 -0.016308282258753672 -0.0075211214787572001 -0.054452318686006244 0.035404271930897104 0.030999257248686751 0.075630606914089016 -0.037149307359100589 -0.052178505253324133 0.027647966956038196 0.02906108301968573 0.040016223760880834 0.078039084970657147 -0.019625912053232733 0.058489000963848639 0.064381516652279647 -0.0018565371707360376 0.0061046030140302224 0.069854043367926943 0.059508219636541682 -0.023522780261841476
leaf_weight=41.300070971250534 81.682699829339981 54.675362154841423 7.2635863870382336 21.689184561371803 12.244303762912752 24.920978412032127 81.158976897597313 7.8043629825115231 33.366325080394745 6.2486287504434648 8.1986250579357129 33.708527445793152 9.2591147124767286 6.3805735260248202 14.266664505004881 6.7714193612337104 11.331242725253103 6.3655699938535681 24.808225512504578 5.9734181463718441 11.800238177180292 16.16047465801239 13.77498024702072 7.3851594477891913 8.7772356867790204 7.7879730314016324 8.0235598981380445 7.5268201977014542 59.427461504936218 15.677092939615251 28.596664026379585 11.452641725540163 84.274780675768852 13.405106753110884 146.69747588038445 8.4338331520557386 52.939209282398224 12.356901481747625 60.148634105920792 7.4638604968786231 106.17800341546535 22.232468754053119 17.088862597942356 7.9043941497802725 6.6222705692052832 11.299903526902197 6.5387419611215583 6.9441704601049414 6.1007557213306418 5.6441385298967344 4.6831191778182983 14.424563139677046 60.603588983416557 13.963556379079821 7.5361118316650382 8.2726664394140226 17.20254181325436 8.6673442721366865 7.2804768681526175 9.7038104236125928 5.6131515204906464 15.064867347478865
leaf_count=147 215 106 34 82 38 76 198 34 126 17 29 183 45 29 71 15 59 17 109 22 40 43 70 32 33 18 38 28 153 33 102 49 280 57 441 25 139 32 169 24 340 57 72 31 33 34 21 14 30 30 17 46 155 30 30 22 42 32 25 23 14 65
internal_value=0.0251413 0.0303395 0.0159345 0.0229115 0.0035479 0.0273172 0.0290786 0.0306907 0.016191 0.00754649 -0.0170854 -0.0295291 0.00794374 0.015947 -0.00864335 0.0132853 -0.0127585 0.0103266 0.00734834 0.0149582 0.00224915 0.0342767 -0.0247176 0.0113219 0.0409954 0.0175455 -0.00239164 0.0434602 0.0283712 0.0344572 0.029505 0.0234403 0.0252272 0.0132644 0.0312975 -0.00539097 0.0343029 0.0190463 0.0342258 0.0617702 0.0303347 0.0209847 0.0107755 0.0410189 -0.00586532 0.0107996 -0.00866913 0.0285321 0.0248032 0.00851003 -0.0156779 0.00435823 0.051544 0.029356 0.0481164 0.0211106 0.0190291 0.0343678 0.0473098 0.0400997 0.015317 0.00363135
internal_weight=1451.1 927.026 524.072 334.979 189.093 811.747 755.382 702.554 244.519 52.8281 60.4706 41.9072 146.862 99.2292 47.633 128.622 27.9071 121.851 115.485 90.6769 54.887 35.7899 19.7484 19.6295 90.4599 35.1386 19.8238 15.3148 621.395 277.492 218.064 343.903 325.912 110.037 215.875 16.2382 199.637 96.6317 189.468 23.141 166.327 89.9701 59.8332 30.1369 38.1357 18.5635 17.9914 97.6568 90.7126 16.5759 10.3273 31.5134 115.279 84.6119 29.7723 15.8088 54.8395 33.1504 24.483 21.6975 11.9937 56.3649
internal_count=4621 2769 1852 1102 750 2508 2296 2097 854 199 280 212 547 350 197 470 123 455 438 329 216 113 92 70 248 124 78 46 1899 821 668 1078 1008 369 639 59 580 312 566 57 509 305 217 88 151 68 70 307 293 64 47 118 261 263 82 52 181 99 67 66 43 212
is_linear=0
shrinkage=0.04


Tree=11
num_leaves=63
num_cat=0
split_feature=6 29 12 44 21 9 33 6 96 3 97 86 37 88 49 5 42 95 37 64 97 105 3 49 100 0 61 102 95 96 7 45 35 33 25 88 100 18 35 19 101 93 103 47 19 102 88 100 37 19 102 37 44 48 10 23 31 39 100 102 88 9
split_gain=39.5677 26.8595 22.048 21.4066 19.9267 19.2763 19.709 22.2395 17.1234 16.893 23.7778 16.5743 17.4517 21.7739 16.3593 15.828 15.7236 15.6972 15.5542 14.7978 17.5926 15.3277 14.4743 24.9553 13.5133 13.3104 13.2992 12.9655 12.5486 12.5177 11.9949 21.0097 11.6912 16.6766 15.6552 13.9579 15.6806 11.6119 14.7503 14.1711 12.4387 11.4356 11.2269 11.0046 10.9509 12.1401 18.2504 14.6386 11.8509 10.5875 11.9067 11.1202 10.7111 13.0527 10.4401 10.3161 10.2602 10.1878 14.8664 10.552 10.1348 10.0875
threshold=79.455000000000013 0.062295239572943702 4.3424777252813724 0.58571428571428574 4.5000000000000009 1.2198653319897506 0.97040403576156331 65.475000000000009 90.878692094713287 6.5000000000000009 72.821848059830288 75.081666666666678 1.0721423815862454 -0.55000000000000415 17.964758727705483 2.8898397549775878 0.58571428571428574 7.0537307661055104 1.7617333979305823 1.08332657890794 52.400192112602319 205.00000000000003 6.5000000000000009 11.951895307664349 1.5927785343863599 4.0000000000000009 0.56499999999999784 2.1492424247105304 7.0088927423888983 85.670996329817427 89.115000000000023 0.049592597579021409 1.0016699874124186 1.1523566968419181 1.5000000000000002 2.517999999999994 1.8129925498414343 2.2539682539682544 0.92262644626973034 0.80164618669858478 1.4142127290402728 0.2678571428571429 479.00000000000006 5.2341515060163903 2.516611478423584 1.9972502866533672 4.6474999999999946 1.8129925498414343 1.0546349168775133 1.2708567691023445 1.8461573031154741 1.1903380830261805 0.80555555555555569 2.393039583468318 9.5000000000000018 6.0839039757372246 1.5444969710335885 1.4860423018364732 2.1908893300210757 1.8495339886078213 4.2249999999999952 1.6699933598674093
decision_type=2 2 2 2 2 2 2 2 2 2 2 2 2 2 2 2 2 2 2 2 2 2 2 2 2 2 2 2 2 2 2 2 2 2 2 2 2 2 2 2 2 2 2 2 2 2 2 2 2 2 2 2 2 2 2 2 2 2 2 2 2 2
left_child=2 3 5 17 8 18 14 19 27 16 -11 12 60 -14 54 -13 28 26 37 -8 -21 42 23 -5 -17 -4 -2 41 -9 -28 31 -24 44 34 -34 36 -35 39 -39 40 -1 -3 -22 -16 45 57 47 -47 -48 -41 52 -52 53 -51 -7 61 -44 58 -32 -59 -12 -37
right_child=1 4 25 22 -6 6 7 9 -10 10 11 15 13 -15 43 24 -18 -19 -20 20 21 -23 30 -25 -26 -27 29 -29 -30 -31 32 -33 33 35 -36 55 -38 38 -40 49 -42 -43 56 -45 -46 46 48 -49 -50 50 51 -53 -54 -55 -56 -57 -58 59 -60 -61 -62 -63
leaf_value=0.029911436716484635 0.051050086352116761 -0.0075689795751734045 -0.052372269070980332 0.05384375077271919 -0.04633459697568007 0.069468338562246212 -0.042621475708582345 -0.026535126836371218 -0.010530744670911514 0.056278240651923647 -0.049015613942290585 -0.035908697968888008 0.064131922329515034 -0.0065572389631974714 -0.03111952080726519 0.035773019061766859 -0.054890645526241733 0.052858568883523124 -0.028533390652257157 0.052504420288801409 -0.052669357820106739 0.042703102150478102 0.038201626677778357 -0.034774257720155126 0.015462214580901985 0.0098145149613296373 0.017631754783716098 0.086988270003026252 0.052841660876078111 -0.059022590891441629 0.03816714189296682 -0.059813730405211478 -0.043280053045257658 0.045226355143260046 0.018145184278330281 0.055315847830105035 -0.013617945083469108 0.02476125637521439 -0.055439331462477821 0.055557056803759317 -0.028275324756227516 0.064597465873057008 -0.041572561484222635 0.039170279895493154 0.001202870656953826 0.050327314298331802 0.019263481493601773 0.018899427660474366 -0.025850617790614799 0.091987657501278797 -0.0016696766423491486 0.038524256467039567 0.017150143311976725 0.035000776192356677 0.017249673039174313 0.059925568017714433 0.010995092664275747 0.064742529595300025 -0.020609762781466624 0.033305397933931412 0.012709545833922569 0.0092920923375685409
leaf_weight=15.128285497426988 12.49212682247162 9.3467719107866305 11.234857678413393 7.8268320709466961 10.430769562721251 23.106518566608433 15.740442350506781 6.4149039238691348 20.763079464435577 24.010259762406349 16.031047984957699 8.0394302606582624 9.492875397205351 25.187640830874443 7.129256457090376 70.342082917690277 10.019935190677641 116.38382877409458 6.9025472551584235 8.8735301196575147 11.145467624068258 7.6170269548892966 7.5774330198764783 14.057123586535452 212.51821161806583 10.485717311501501 12.447077050805094 6.5294607430696479 6.0880153924226761 4.5723840147256842 155.66952699422836 6.3129691034555435 11.277012348175051 10.985825330018999 15.757659509778021 11.730173155665396 20.697125494480133 12.32745845615864 5.1038490980863562 49.146052792668343 9.431548133492468 5.4371719360351554 8.4582965821027774 6.9084016382694244 15.399779647588728 51.996190279722214 27.587715849280357 44.860440775752068 13.906339749693869 12.577703773975374 23.102698087692261 20.621996164321899 12.844818174839018 14.119883134961126 8.736702159047125 24.27844725549221 19.176150947809219 49.185708045959473 7.0534674525260916 27.775021359324455 5.6067420393228522 22.331489533185959
leaf_count=46 30 35 62 22 50 53 76 27 85 60 80 33 25 102 30 210 50 272 30 27 60 23 20 64 728 42 40 13 17 21 427 28 47 31 49 30 77 37 25 125 39 14 43 21 52 132 85 140 54 23 82 60 45 41 28 61 77 113 26 80 21 75
internal_value=0.0240115 0.0304695 0.017264 0.0325621 0.00279861 0.0185135 0.0145151 0.012028 0.0151546 0.0157469 0.0177938 0.0151056 -0.00469264 0.0128058 0.0395403 0.0189526 -0.0177422 0.0462306 0.0297389 -0.00853021 0.00116582 -0.00865859 0.0288965 -0.00279718 0.0205381 -0.0222606 0.0198665 0.0402958 0.0119108 -0.00295273 0.0302271 -0.00616803 0.0312262 0.0200177 -0.00739488 0.0282933 0.00673812 0.0320831 0.000868251 0.0355212 0.00738011 0.018959 -0.0189337 0.0032219 0.034545 0.035892 0.0263406 0.0358468 0.00402195 0.0407011 0.0318287 0.0172405 0.0477747 0.0622406 0.0553654 0.0398994 -0.00504237 0.0413753 0.0355837 0.0535068 -0.0328526 0.0253744
internal_weight=1458.34 744.669 713.67 692.162 52.5073 691.95 510.643 464.762 42.0765 393.751 371.228 347.218 56.3183 34.6805 45.8809 290.9 22.5229 145.895 181.307 71.0109 55.2705 46.3969 546.266 21.884 282.86 21.7206 29.5116 21.3134 12.5029 17.0195 524.382 13.8904 510.492 117.058 27.0347 90.0231 31.683 174.404 17.4313 156.973 24.5598 14.7839 38.7799 14.0377 393.434 378.034 138.351 96.8566 41.4941 132.413 83.2671 43.7247 39.5424 26.6976 31.8432 58.3401 27.6344 239.684 162.723 76.9607 21.6378 34.0617
internal_count=4621 2173 2448 1976 197 2344 1791 1659 147 1353 1259 1199 228 127 132 971 94 363 553 306 230 203 1613 86 938 104 91 62 44 61 1527 48 1479 370 96 274 108 523 62 461 85 49 180 51 1109 1057 411 272 139 376 251 142 109 64 81 166 120 646 453 193 101 105
is_linear=0
shrinkage=0.04


Tree=12
num_leaves=63
num_cat=0
split_feature=3 47 97 64 3 100 12 15 12 103 103 61 88 31 24 37 63 45 45 39 88 101 44 9 37 100 101 105 37 23 9 103 44 49 13 101 99 19 56 100 19 6 86 6 87 45 23 19 103 95 101 100 28 35 61 100 39 21 7 28 33 78
split_gain=37.3757 27.8406 22.2751 22.0869 19.3158 17.5344 18.6568 17.9199 15.745 15.4878 16.4085 28.099 17.8072 15.0126 12.9099 12.8267 12.4337 12.3895 14.9208 16.4067 17.0896 13.198 12.3884 12.3069 14.9643 12.0944 13.7387 12.065 19.8286 14.2239 12.7275 14.1579 11.9989 28.4144 14.4449 13.6462 12.7277 11.5713 14.9016 11.5163 18.3719 11.0225 10.7546 12.8495 14.4568 10.7096 10.1551 9.4498 9.22927 9.96555 27.5404 13.4836 13.6765 11.6672 11.044 9.17286 9.166 9.08446 9.01092 8.31142 8.0405 7.86277
threshold=8.5000000000000018 4.7367649357121682 76.077538652553145 1.1022578637493976 5.5000000000000009 1.8129925498414343 4.3625294601272193 1.9810547940437695 1.0615687605195789 1194.5000000000002 274.50000000000006 0.58499999999999386 5.4949999999999983 1.7640616277274817 9.5000000000000018 1.9890655441451306 5.2995833333333389 0.080204274456081123 0.086654064690752972 2.138694012965249 6.5916666666666623 1.2686694448334634 0.30952380952380959 3.7320987732847888 1.6072305254823136 1.9972501174227129 1.9646779727354025 86.500000000000014 1.2859316472403781 5.3242107885569618 2.8768364111143714 891.50000000000011 1.1269841269841272 15.997025057386688 3.5000000000000004 1.7449523318959443 1.4638494344231152 1.337487059916604 1.5000000000000002 2.0495945595919705 1.5105443741965729 66.75500000000001 100.34166666666668 93.720000000000013 95.04500000000003 0.088566613350042608 3.1888296343133793 2.084996673578206 1237.5000000000002 6.7076366591600189 1.671844810496548 1.5070997573349378 16.265000000000004 0.97499604304356924 1.069999999999997 1.6771277576151582 1.3877970723605848 6.5000000000000009 100.27500000000002 15.045000000000003 1.3217303077850791 0.36280112854973434
decision_type=2 2 2 2 2 2 2 2 2 2 2 2 2 2 2 2 2 2 2 2 2 2 2 2 2 2 2 2 2 2 2 2 2 2 2 2 2 2 2 2 2 2 2 2 2 2 2 2 2 2 2 2 2 2 2 2 2 2 2 2 2 2
left_child=1 4 16 47 -1 7 9 17 37 10 11 -7 13 -13 -11 22 -3 42 -19 20 21 -20 -4 48 39 26 46 28 -12 -30 41 -32 33 35 -35 60 58 -9 -39 45 -41 -29 43 44 57 -25 -18 61 49 50 54 53 -53 -51 -24 -48 -8 -6 -34 -38 -10 -2
right_child=3 2 15 -5 5 6 56 8 32 14 27 12 -14 -15 -16 -17 25 18 19 -21 -22 -23 23 24 -26 -27 -28 30 29 -31 31 -33 36 34 -36 -37 59 38 -40 40 -42 -43 -44 -45 -46 -47 55 -49 -50 51 -52 52 -54 -55 -56 -57 -58 -59 -60 -61 -62 -63
leaf_value=-0.028635431445550731 0.061181016046166818 0.031267964890299253 0.035831504245488283 -0.003687927627921373 0.030470882884995904 -0.044221826559672252 0.0037883635495021225 0.080109962684983174 0.030374267883705747 0.025648098408664839 0.044339285543073211 0.043616685049464511 -0.021128901779990519 0.0059854908316255718 -0.032743683399355315 -0.032642890402483464 -0.025344053107261465 -0.036869755146592825 -0.017980560975151064 -0.034737859421185374 0.055184252987458313 0.024420200096601445 0.05805861323220423 0.0085663436672331773 0.042710550925694306 -0.039433743224966976 -0.041456086505174926 -0.00020990404426721773 0.019790581915299883 -0.058179833505140145 -0.0072607741961517895 0.033883417793937165 0.039322597198221745 0.0014484113522272638 0.065397893332502607 -0.032789618851257155 0.051190393049712561 0.064822561767531192 -0.0034489867133863945 0.062279763662494436 -0.028591228288210226 0.031194478859112924 -0.017332542112745694 0.083382074106712042 -0.029236980777751342 -0.048636911320889591 -0.0014346156404830162 0.0086328151903281962 -0.027951378554753017 0.037387831020475625 -0.032000407064950456 0.041471528948199186 0.015901624297314294 -0.020337368672046004 -0.00070803236644692113 0.058283067285899048 -0.055588506914513877 0.078647904344731526 -0.018281508484970135 0.0024811360686049595 -0.015907309846985362 0.040746224293488037
leaf_weight=10.691694930195807 54.745919704437256 9.9211690276861173 48.886901095509529 15.385191813111303 88.418008029460907 13.754538312554358 9.5170249938964862 23.069589659571648 18.598493516445163 9.981411889195444 102.97085171937943 36.327918291091919 15.604414433240889 32.328897222876549 14.960170328617094 8.2982446700334531 6.7929840236902264 9.089484751224516 16.784223765134811 8.7035731226205808 19.337982073426247 38.029328688979149 12.220665082335474 7.2707174569368389 8.619308337569235 22.70071043074131 9.6010867059230787 20.113841727375984 15.514469504356386 4.8217622339725486 41.583944782614708 19.5522281229496 8.4255994856357592 7.6415257304906872 23.163012847304344 14.099607720971106 84.767245516180992 13.005969882011414 8.1981936544179916 6.5231305211782438 7.5458121746778488 144.59317725896835 6.727316439151763 7.9004984945058814 6.0053821206092826 17.440332427620888 7.0983679890632656 10.065625712275503 6.6245179921388617 8.0090893507003802 19.732850730419159 69.229139164090157 66.434691399335861 17.963333874940872 8.5192109495401365 9.2769728749990445 7.1199630796909323 6.8329991549253455 8.6730985790491086 6.1980756223201743 8.6467138826847059 74.783519148826599
leaf_count=47 109 34 140 58 256 61 37 46 52 30 275 101 63 112 63 37 32 39 67 38 50 121 31 26 26 122 52 76 48 22 158 58 22 26 56 58 212 30 28 19 35 418 25 15 23 89 29 30 28 24 88 199 228 73 32 28 35 14 31 22 32 185
internal_value=0.0229345 0.0207285 0.0115589 0.0415359 0.0244496 0.0250732 0.0198517 0.030961 0.0388255 0.0213239 0.0230374 0.00850503 0.0172016 0.0259897 -0.00920694 0.0159948 -0.00962646 0.0224323 0.0113812 0.0167608 0.022898 0.0113549 0.0173414 0.0137841 -0.00454064 -0.0170558 -0.00135912 0.027102 0.0372163 0.000913678 0.0215479 0.00586625 0.0334898 0.020703 0.0497197 -0.000887526 0.0419629 0.0603297 0.0383466 -0.0152285 0.0134014 0.0273373 0.0311486 0.0341862 0.0302298 -0.0316781 0.0151921 0.0465479 0.0179646 0.0195025 0.00164048 0.0239465 0.0290003 -0.00230816 0.0338398 0.0323023 -0.0215639 0.0340478 0.00993466 0.0479218 0.0155353 0.0494544
internal_weight=1465.44 1310.46 378.709 154.98 931.752 921.061 488.745 432.316 224.487 472.108 447.166 98.0158 84.2612 68.6568 24.9416 313.318 65.3913 207.829 91.9446 82.8551 74.1515 54.8136 305.02 256.133 47.3993 55.4701 32.7694 349.15 123.307 20.3362 225.843 61.1362 180.213 72.1494 30.8045 41.3448 108.064 44.2738 21.2042 38.78 14.0689 164.707 115.884 109.157 101.256 24.711 23.1683 139.595 208.733 202.109 40.4727 161.636 135.664 25.9724 20.7399 16.3753 16.637 95.251 17.0987 90.9653 27.2452 129.529
internal_count=4621 4239 1372 382 2867 2820 1557 1263 615 1485 1392 337 276 213 93 1075 297 648 315 276 238 188 1038 898 195 263 141 1055 345 70 710 216 511 224 82 142 287 104 58 169 54 494 333 308 293 115 89 324 703 675 151 524 427 97 63 57 72 270 53 234 84 294
is_linear=0
shrinkage=0.04


Tree=13
num_leaves=63
num_cat=0
split_feature=3 35 45 28 100 88 95 9 12 22 11 103 95 35 56 18 62 87 40 33 19 48 44 49 61 44 46 75 19 99 31 31 37 37 102 35 102 104 35 87 19 100 57 57 62 100 9 3 100 100 47 101 70 54 35 74 102 1 23 11 7 23
split_gain=34.3649 25.6581 22.4214 20.9865 19.325 18.9658 17.5199 18.2566 20.4737 19.4362 15.5131 20.9172 15.3542 14.4884 14.3625 13.998 15.3648 21.5161 14.3714 13.8913 13.4693 23.6432 13.8077 13.2846 16.4024 15.1294 13.1893 12.5899 12.3007 13.1509 14.103 15.4569 11.7929 18.8348 14.8153 12.7518 11.8421 11.5399 11.4902 17.8314 11.3126 14.9639 14.6383 11.2469 12.2332 17.5254 12.3815 11.2151 17.798 12.0442 11.1498 29.014 15.76 17.8967 13.8278 13.2783 15.1879 10.9994 12.4272 10.8828 10.7382 10.7078
threshold=8.5000000000000018 1.0186682894717416 0.093547843443102116 20.275000000000009 1.5927785343863599 3.1841666666666701 10.193361884442938 2.3654202091473695 3.8172540616821111 3.9444444444444451 2.1547619047619051 469.00000000000006 6.6579749791734448 1.201026723172534 1.5000000000000002 2.5277777777777781 107.79833333333335 105.78333333333335 6.5000000000000009 1.0002571355274112 0.80164618669858478 2.6201876507777313 1.3095238095238098 15.476750022260919 2.4149999999999925 0.30952380952380959 0.22291851552398012 5.5000000000000009 2.6591818650944181 1.9955075884637896 1.7067284418921662 1.5936083187759302 0.86497589912033479 0.93460446353461168 2.1624630116701411 1.2486095644623239 1.9972495885770856 84.500000000000014 1.4415341950974534 77.476666666666674 1.1474379817391951 1.9943808346745138 10.500000000000002 2.5000000000000004 92.765000000000015 1.2768124777839935 4.7883781437443753 6.5000000000000009 1.936013625967135 2.2677850880567423 2.4527766401329556 1.4854916242053973 0.99963473161679894 2.6735537653587347 0.84323754208202673 4.5000000000000009 2.1395777533992457 10.500000000000002 5.5355986593910353 1.6904761904761907 55.345000000000006 3.6726138663452921
decision_type=2 2 2 2 2 2 2 2 2 2 2 2 2 2 2 2 2 2 2 2 2 2 2 2 2 2 2 2 2 2 2 2 2 2 2 2 2 2 2 2 2 2 2 2 2 2 2 2 2 2 2 2 2 2 2 2 2 2 2 2 2 2
left_child=1 4 10 -2 15 23 7 8 47 50 12 -12 13 14 -3 16 18 -18 19 -1 21 -14 40 24 60 27 -20 -25 29 30 31 -11 -7 -34 35 36 -35 -10 -37 -40 -22 -42 -43 61 46 -46 -45 48 -6 -49 51 -9 55 54 -54 56 -52 58 -13 -24 -4 -28
right_child=3 2 5 -5 6 32 -8 9 37 28 11 57 20 -15 -16 -17 17 -19 26 -21 22 -23 59 25 -26 -27 43 -29 -30 -31 -32 -33 33 34 -36 38 -38 -39 39 -41 41 42 -44 44 45 -47 -48 49 -50 -51 52 -53 53 -55 -56 -57 -58 -59 -60 -61 -62 -63
leaf_value=0.036089088469622069 0.043297595011266114 0.052989244511334958 0.026174246627933547 -0.020333545627413931 -0.044628117069432406 -0.016470367653985633 0.045217982386895728 -0.031155896142727815 -0.046834138405443898 0.0081642124377166881 -0.039393792743620051 0.021712948714097284 -0.040999450950945662 -0.024198713236638057 -0.0068881788236474567 -0.012831680780769019 -0.058621835221258703 0.034156604568888797 0.060952671530026946 -0.023526898388999306 0.058839989257882863 0.044746008690061151 -0.033569620644902994 -0.021541969000156348 0.052294716798539947 -0.043105088467540666 0.038301684867007732 0.049481759138832723 -0.038126388534439774 0.038400018866437818 -0.044044417917915323 0.070797412746787525 0.065750627075017026 0.027061063014188008 0.036174145239001823 -0.038499004306033473 -0.020412066899875826 0.023330359378144414 -0.018156684396444873 0.067942748744669212 0.045284932657316014 0.040241703290467293 -0.013343159778719417 0.050804980940196628 0.053004209684039599 0.0069696609881236774 -0.0036128435300849002 0.029287455610436025 0.031809351773353131 -0.022068357574934638 -0.047403126866715523 0.053814849637360426 0.00072017791588961633 -0.040848993052684683 0.068142752982223276 0.033378754953807557 -0.0038254146193184243 0.055597517209253454 -0.056912806181330995 0.035156764883740692 -0.051678661885513247 -0.025779038165761166
leaf_weight=13.208141654729845 146.91882342100143 12.682259052991867 4.6850773394107836 8.6445652693510038 8.9220578521490115 21.317432031035423 40.575503826141357 10.589524775743486 9.8572628349065763 42.462054863572121 15.032424241304396 11.713049188256269 10.502203270792963 17.407075583934784 12.609216704964638 10.199733421206473 6.5449868291616466 9.9297136515378934 41.094973295927048 11.639552071690558 36.093552052974701 9.8943761587142927 7.7307406812906247 11.116057157516481 8.9927023500204069 30.699718445539474 7.6926230788230923 6.0880426913499823 5.2712604999542227 51.167019113898277 6.6102485060691825 7.3606695085763922 10.860969036817549 36.01894123852253 27.277401179075241 17.724862962961197 10.780596673488615 5.8531987965106955 13.361668989062311 5.2770808190107337 50.975022152066231 14.553059160709379 18.170880854129791 96.156366497278214 20.852285847067833 36.678158387541771 7.0290164351463309 290.74896870553493 10.480302467942236 7.3368516266345969 28.937929376959801 15.93089500069618 9.7710640877485329 6.540070876479148 9.8482058048248273 6.1579442322254172 23.293052703142166 8.8853102922439557 4.3192623257637015 6.8591953366994858 6.7382597327232361 8.8464925736188871
leaf_count=39 342 32 17 40 42 88 107 44 46 144 65 38 45 73 45 38 30 27 88 49 87 26 32 48 29 166 21 16 24 148 29 17 28 116 82 85 46 19 61 13 137 42 67 243 51 120 26 838 32 28 134 40 36 30 24 18 89 21 20 19 38 36
internal_value=0.0219208 0.0198102 0.0120185 0.0397252 0.0238304 0.00250474 0.0197957 0.0179293 0.0238722 0.00906236 0.0204494 -0.00218674 0.0250477 0.00369476 0.0230699 0.0327411 0.0345508 -0.00259192 0.0370834 0.00802012 0.0309063 0.000415871 0.0355007 -0.0147865 0.0120566 -0.0263114 0.0403672 0.00350086 0.0207486 0.0237028 0.0102618 0.0176209 0.0108205 0.0156591 0.0106418 0.0021858 0.0160198 -0.0204579 -0.0155038 0.00623918 0.0399727 0.0317283 0.0104153 0.0355405 0.0387738 0.0237876 0.0470594 0.0260842 -0.00318346 0.028003 -0.00278558 0.0197464 -0.00991547 0.0157569 0.0349408 -0.0214929 -0.02809 0.0201676 6.09653e-05 -0.000967479 -0.0194515 0.00383666
internal_weight=1471.52 1315.95 448.366 155.563 867.586 210.939 597.714 557.139 333.199 223.94 237.428 39.95 197.478 42.6986 25.2915 269.872 259.672 16.4747 243.198 24.8477 154.779 20.3966 134.382 68.3199 20.416 47.9038 218.35 17.2041 112.871 107.6 56.433 49.8227 142.619 121.302 110.441 83.1632 46.7995 15.7105 36.3636 18.6387 119.793 83.699 32.7239 177.255 160.716 57.5304 103.185 317.488 19.4024 298.086 111.069 26.5204 84.5483 26.1593 19.6193 58.3889 52.231 24.9176 16.0323 14.5899 11.4233 16.5391
internal_count=4621 4239 1582 382 2657 833 1889 1782 1005 777 749 144 605 150 77 768 730 57 673 88 455 71 384 314 84 230 585 64 362 338 190 161 519 431 403 321 162 65 159 74 333 246 109 497 440 171 269 940 74 866 415 84 331 90 60 241 223 79 58 51 55 57
is_linear=0
shrinkage=0.04


Tree=14
num_leaves=63
num_cat=0
split_feature=3 35 45 64 100 88 87 8 75 37 35 7 39 61 61 61 92 57 96 97 63 100 100 18 62 87 40 33 11 103 49 61 44 95 35 56 46 19 48 44 75 11 0 12 93 8 37 37 105 101 27 106 103 46 103 19 57 62 100 9 7 35
split_gain=31.6111 23.3244 20.4981 19.2723 17.5863 17.5532 16.2388 23.5228 27.4806 14.7409 14.3751 16.9999 14.8798 17.197 15.4351 14.5751 14.6367 14.3337 14.278 15.5769 13.8534 13.8201 13.0498 12.7744 13.9546 20.08 13.0308 12.7417 12.5025 18.6927 12.443 14.8787 14.4191 12.2699 13.0942 12.6853 12.0378 11.9156 19.7679 12.2996 11.5351 11.4973 13.0864 11.4045 11.3095 13.3402 10.8536 16.9001 14.1779 13.521 18.168 11.9586 15.071 10.6313 10.5146 10.3751 10.1752 10.9834 15.883 11.187 10.1578 10.0686
threshold=8.5000000000000018 1.0186682894717416 0.093547843443102116 1.1022578637493976 1.5927785343863599 3.1841666666666701 83.038333333333355 0.47222222222222227 6.5000000000000009 2.0694708086619595 0.82683524017251531 91.735000000000014 1.8167199858061556 2.8150000000000053 2.1299999999999994 3.9050000000000016 0.41428571428571431 4.5000000000000009 83.1999578899336 92.118100842168175 3.5058333333333427 2.2677843380582301 2.2243036645684429 2.5277777777777781 107.79833333333335 105.78333333333335 6.5000000000000009 1.0002571355274112 2.2539682539682544 469.00000000000006 15.476750022260919 2.4149999999999925 0.30952380952380959 6.6579749791734448 1.201026723172534 1.5000000000000002 0.22291851552398012 0.80164618669858478 2.6834451539886413 1.3095238095238098 5.5000000000000009 3.1269841269841274 2.0000000000000004 0.80164618669858478 0.38750000000000007 1.5634920634920637 0.86497589912033479 0.93460446353461168 328.50000000000006 1.7320501325691438 2.5000000000000004 94.000000000000014 788.50000000000011 0.4957773297904568 920.50000000000011 1.6838226736052111 2.5000000000000004 92.765000000000015 1.2768124777839935 4.7883781437443753 55.345000000000006 1.4148599123994414
decision_type=2 2 2 2 2 2 2 2 2 2 2 2 2 2 2 2 2 2 2 2 2 2 2 2 2 2 2 2 2 2 2 2 2 2 2 2 2 2 2 2 2 2 2 2 2 2 2 2 2 2 2 2 2 2 2 2 2 2 2 2 2 2
left_child=1 4 9 -2 23 30 7 -6 17 28 18 -12 14 -14 -13 55 -17 22 -8 -20 -19 43 -9 24 26 -26 27 -1 33 -30 31 60 40 34 35 -3 -28 38 -35 44 54 42 -31 -22 -39 -46 53 -48 49 51 61 -49 -53 -7 -32 -16 -38 59 -59 -58 -4 -51
