tree
version=v4
num_class=1
num_tree_per_iteration=1
label_index=0
max_feature_idx=49
objective=binary sigmoid:1
feature_names=pos1_win_rate pos1_top3_rate pos1_avg_payout pos1_high_payout_rate pos1_recent_win_rate pos1_track_win_rate pos1_grade_win_rate pos1_consistency pos2_win_rate pos2_top3_rate pos2_avg_payout pos2_high_payout_rate pos2_recent_win_rate pos2_track_win_rate pos2_grade_win_rate pos2_consistency pos3_win_rate pos3_top3_rate pos3_avg_payout pos3_high_payout_rate pos3_recent_win_rate pos3_track_win_rate pos3_grade_win_rate pos3_consistency avg_win_rate std_win_rate min_win_rate max_win_rate avg_recent_win_rate std_recent_win_rate avg_track_win_rate std_track_win_rate avg_high_payout_rate std_high_payout_rate avg_consistency win_rate_gap pos1_car_no pos2_car_no pos3_car_no car_sum car_std car_range outer_count inner_count has_1_car is_F1 is_F2 is_G1 is_G2 is_G3
feature_infos=[0.018518518518518517:0.9642857142857143] none [2292.5:117490.52631578948] [0:1] [0:1] [0.022727272727272728:1] [0.018518518518518517:1] [0.64166666666666661:1] [0:0.93333333333333335] none [2292.5:169970] [0:1] [0:1] [0:0.9285714285714286] [0:0.97499999999999998] [0.64166666666666661:1] [0:0.9642857142857143] none [240:185525] [0:1] [0:1] [0:0.93333333333333335] [0:0.96153846153846156] [0.64166666666666661:1] [0.035444947209653098:0.91760461760461765] [0.00058240569040136068:0.39440121675769813] [0:0.89090909090909087] [0.050847457627118647:0.9642857142857143] [0.016666666666666666:0.95000000000000007] [0:0.43204937989385733] [0.012820512820512822:0.84126984126984128] [0:0.47140452079103168] [0.041197691197691198:0.65942028985507239] [0:0.41224766376085775] [0.72038768691683985:1] [-0.67194847679411163:0.93333333333333335] [1:9] [1:9] [1:9] [6:24] [0.81649658092772603:3.5590260840104371] [2:8] [0:3] [0:3] [0:1] [0:1] [0:1] [0:1] [0:1] [0:1]
tree_sizes=6757 6861 6857 6849 6861 6875 6872 6877 6859 6862 6857 6843 6840 6848 6866 6889 6865 6870 6875 6878 6862 6860 6863 6896 6855 6872 6880 6893 6872 6837 6862 6886 6910 6839 6863 6901 6869 6900 6888 6891 6885 6902 6899 6907 6865 6869 6841 6894 6901 6885 6888 6884 6897 6881 6892 6896 6868 6892 6852 6880 6895 6866 6854 6908 6912 6866 6901 6885 6923 6887 6889 6892 6879 6836 6884 6920 6900 6862 6918 6900 6859 6889 6886 6906 6892 6917 6900 6881 6858 6863 6894 6899 6894 6883 6895 6906 6878 6822 6913 6855 6861 6859 5975 6906 6835 6849 6903 6890 6868 6853 6894 6876 6880 6900 6920 6892 6903 6899 6885 6884 6884 6801 6881 6854 6891 6902 6891 6873 6833 6865 6869 6911 6894 6837 6882 6931 6878 6897 6905 6883 6893 6835 6706 6847 4287 6812 6892 6875 6887 6855 6907 6923 6938 6918 6875 6896 6888

Tree=0
num_leaves=63
num_cat=0
split_feature=35 39 43 11 2 43 11 35 19 0 11 19 19 39 6 46 35 11 2 8 11 45 6 6 39 45 39 16 35 6 26 2 39 6 37 0 11 2 19 19 14 6 8 11 13 45 30 40 2 19 18 11 7 36 15 33 35 0 18 35 6 5
split_gain=1562.7 670.308 453.251 353.459 347.241 243.772 178.673 157.961 147.315 138.319 94.0875 92.6798 82.5971 82.139 78.6439 76.1984 67.9776 59.7641 58.7613 73.8179 57.9077 57.7412 57.4309 55.6312 52.5094 50.6571 50.2582 47.7452 44.875 44.6512 43.7357 41.3871 39.9735 39.6596 41.0839 38.8639 38.3418 36.1695 35.8642 34.2611 32.8481 34.9487 31.6727 31.352 37.5416 31.3171 31.1928 30.6273 30.5607 30.2156 29.8519 29.5637 27.3403 26.7044 26.4506 26.2914 25.8768 25.7439 23.0273 22.6243 22.4207 22.078
threshold=0.22973815111330689 8.5000000000000018 1.0000000180025095e-35 0.27223320158102771 8602.8720735785973 1.0000000180025095e-35 0.26488306165839837 0.094519779153015404 0.31010199125789223 0.28413217138707342 0.29745817245817252 0.32373653686826848 0.29140295358649798 8.5000000000000018 0.26726190476190481 1.0000000180025095e-35 -0.06452347599502363 0.23950997652582162 10603.429528061226 0.30600240096038422 0.37573529411764711 1.0000000180025095e-35 0.58863819500402914 0.63818181818181829 15.500000000000002 1.0000000180025095e-35 8.5000000000000018 0.26453684922244763 -0.16077338736913202 0.34641025641025647 0.10084745762711866 7192.0993788819887 9.5000000000000018 0.30368444846292952 5.5000000000000009 0.24859550561797755 0.42330316742081453 6291.5812020460371 0.31411960132890371 0.32620137299771174 0.15235814296241715 0.37858312858312865 0.41619850187265922 0.17295821462488131 0.33161512027491413 1.0000000180025095e-35 0.41271777003484328 3.17859624443807 5239.6659996188309 0.32087118565105993 11852.482692766773 0.23493100944081338 0.96901748040988556 1.5000000000000002 0.98834841628959291 0.010530250176479327 -0.012300332484436875 0.40121951219512203 6450.5480519480525 -0.31406835052912041 0.53158244680851074 0.24106002554278419
decision_type=2 2 2 2 2 2 2 2 2 2 2 2 2 2 2 2 2 2 2 2 2 2 2 2 2 2 2 2 2 2 2 2 2 2 2 2 2 2 2 2 2 2 2 2 2 2 2 2 2 2 2 2 2 2 2 2 2 2 2 2 2 2
left_child=1 6 31 9 13 -6 14 12 10 18 33 16 28 -2 43 40 59 49 38 -20 23 47 25 32 48 36 -12 -21 -5 53 -30 -3 51 -7 55 -23 -9 -18 -4 -27 -8 -42 -31 -1 -45 -13 -34 -14 -19 57 -16 -10 -47 -17 60 -35 -43 -15 -33 -11 -28 -55
right_child=4 2 3 7 5 8 15 22 20 11 26 45 21 17 50 29 37 24 19 27 -22 35 -24 -25 -26 39 54 -29 30 42 -32 58 46 34 -36 -37 -38 -39 -40 -41 41 56 -44 44 -46 52 -48 -49 -50 -51 -52 -53 -54 61 -56 -57 -58 -59 -60 -61 -62 -63
leaf_value=-1.0237691695496371 -1.047717563437474 -0.9915275925036684 -0.99778214386910713 -0.95447002042600804 -0.94100866018392459 -0.97630261658783746 -0.95003085962464429 -0.97311414845529243 -1.0357941296089754 -0.93563393729261979 -1.0305889558034131 -0.96987937979572325 -0.94129891285237388 -0.98077491021245655 -1.0356885939396019 -1.0080350925272827 -1.0327607687468507 -1.0362420892143871 -0.95544231398648949 -0.9961546025269572 -0.96076575713185153 -0.94535211135346142 -1.0109562296645975 -1.0268342561288701 -0.95819949185447206 -0.99739995404225523 -0.98618890276315263 -0.96675992342084749 -0.94643867727036546 -1.0243882939110622 -0.97832944841588032 -0.99647765804867372 -0.99021016193320377 -0.99742494137357207 -1.0042182896944882 -0.96915807063487025 -0.93172396138047275 -1.0036804131181687 -0.96622847004478207 -0.97502955691775473 -0.96975897064143457 -0.96762014878981162 -0.97824784325518022 -0.97284456917202833 -1.0127395721265762 -0.98507480577190265 -0.9610852913314496 -0.9725613939452783 -1.0100358244412164 -1.0098677500172488 -1.016626916984154 -0.99653388697740219 -1.0264408320088478 -0.95581406136796221 -0.96007002603510794 -1.0320688233534419 -1.0055257953803003 -1.0376496233602508 -0.93073363599617465 -0.98511237095325621 -1.0111146740391728 -0.991623940377654
leaf_weight=31.257882118225098 175.04413986206055 11.330982267856596 144.56770479679108 120.34284615516663 54.310570180416107 15.238217532634733 32.039329171180725 284.8374508023262 25.787752747535706 8.9866411089897138 35.165117383003235 133.04136076569557 251.43058928847313 7.2283852398395529 158.82911351323128 46.300737887620926 41.416693806648254 52.552314311265945 171.13690459728241 106.66752272844315 47.863631993532181 82.833387613296509 53.52912312746048 45.519290834665298 14.84749400615692 151.99145179986954 83.224111139774323 94.164369881153107 43.174949675798416 89.475687563419342 402.64059403538704 5.0794058442115775 167.62039285898209 20.903708666563034 67.790531843900681 256.90071865916252 21.880517482757568 519.46692845225334 42.002779096364975 104.71390509605408 88.303516983985901 21.294432193040848 15.628941059112547 52.747676074504852 35.751202672719955 83.614834666252136 41.612055569887161 32.820776224136353 166.83894580602646 45.519290834665298 139.09757542610168 51.575505495071411 17.191835165023804 24.810943931341171 21.489793956279755 306.32724475860596 68.376617133617401 272.72502148151398 222.71241009235382 118.19386675953865 53.724484890699387 42.784226149320602
leaf_count=144 876 46 603 415 175 58 108 1071 124 28 166 493 812 28 763 201 197 253 593 442 170 273 235 212 52 633 331 344 143 413 1549 21 678 87 290 949 67 2218 153 397 327 78 60 198 158 331 148 123 730 199 624 214 80 86 76 1453 294 1319 680 468 236 174
internal_value=-0.99024 -0.980609 -0.974854 -0.977758 -1.014 -1.00283 -1.00458 -0.968852 -1.00625 -0.988633 -1.01546 -0.99578 -0.962459 -1.02978 -1.01855 -0.990988 -1.00134 -1.02416 -0.976847 -0.969945 -0.99162 -0.95491 -0.981194 -0.99609 -1.01261 -0.978373 -0.998229 -0.982341 -0.970794 -1.0034 -0.97522 -0.934968 -0.991194 -1.0236 -1.02544 -0.963327 -0.970126 -1.00584 -0.990641 -0.988252 -0.978074 -0.983173 -1.01747 -0.998033 -0.988908 -0.97946 -0.984381 -0.944882 -1.01631 -1.03247 -1.0268 -1.00967 -0.992165 -0.990387 -0.991022 -1.02984 -0.996449 -1.03616 -0.932178 -0.981534 -0.995936 -0.978369
internal_weight=6146.28 4373.37 3526.67 3287.55 1772.91 1038.15 846.698 1807.1 983.842 1480.45 603.863 921.912 1190.14 734.756 417.683 429.014 688.064 559.711 558.539 371.969 379.979 623.985 616.952 332.115 234.239 563.423 193.604 200.832 566.158 219.001 445.816 239.123 286.596 410.26 395.021 339.734 306.718 560.884 186.57 256.705 210.014 177.975 105.105 119.757 88.4989 233.848 209.232 284.251 219.391 325.473 297.927 77.3633 100.807 113.896 158.438 327.231 89.671 279.953 227.792 127.181 136.949 67.5952
internal_count=24867 16992 13364 12617 7875 4418 3628 6667 4243 5950 2697 3815 4264 3457 1887 1741 2911 2581 2135 1379 1546 2157 2403 1376 1035 2168 809 786 2107 934 1692 747 1164 1888 1830 1222 1138 2415 756 1030 807 699 473 500 356 904 826 935 983 1546 1387 338 411 461 643 1540 372 1347 701 496 567 260
is_linear=0
shrinkage=1


Tree=1
num_leaves=63
num_cat=0
split_feature=32 44 35 43 35 39 32 35 39 35 32 32 39 32 6 6 39 35 45 39 46 43 6 32 14 24 40 6 32 39 32 27 35 7 35 18 27 35 8 32 39 37 32 0 34 11 24 14 47 35 11 32 45 13 38 38 6 14 32 27 45 20
split_gain=2475.1 579.506 551.036 245.154 234.526 212.016 177.801 136.193 129.144 123.899 123.898 91.2652 89.3865 84.6543 67.3445 66.9361 56.1061 53.6616 51.7871 48.1407 56.6635 48.6349 45.5942 44.0816 37.3228 36.8865 33.4848 33.3484 32.0696 30.6761 30.293 29.8864 29.2011 28.2486 27.8101 26.9398 26.8738 25.7631 24.9191 24.8053 24.4365 26.4675 24.4181 24.3437 27.8266 23.4637 23.1806 22.6676 22.5794 22.2752 21.7773 21.6099 21.2202 21.0017 20.9931 23.445 20.5269 21.1726 20.3642 21.6678 20.2941 30.0492
threshold=0.26094675170576831 1.0000000180025095e-35 0.20740564959834065 1.0000000180025095e-35 0.057450739441727898 8.5000000000000018 0.33579373283870995 -0.13917537952625667 10.500000000000002 0.098337409541677842 0.34775630613475383 0.34251316411155458 15.500000000000002 0.22132551349632715 0.25949975949975951 0.36788399570354463 15.500000000000002 -0.13917537952625667 1.0000000180025095e-35 7.5000000000000009 1.0000000180025095e-35 1.5000000000000002 0.3603278688524591 0.22378715844899422 0.059411764705882358 0.21999715753272295 1.6663331665265237 0.55662393162393176 0.22935902389363166 8.5000000000000018 0.39433763165576735 0.30816714150047492 0.090403571308025024 0.88426212590299291 -0.12002580243915288 15756.849575651158 0.30173704702006593 -0.16077338736913202 0.15674462556106783 0.23313855266081132 15.500000000000002 2.5000000000000004 0.38374537351028187 0.4238209285187915 0.8433120924392421 0.19367341835458868 0.14791885263583379 0.33981132075471704 1.0000000180025095e-35 -0.39406901238296582 0.44676113360323894 0.32354100077789477 1.0000000180025095e-35 0.091608391608391626 1.5000000000000002 5.5000000000000009 0.72863636363636375 0.68496240601503777 0.2773795904576809 0.59641075164976665 1.0000000180025095e-35 0.14642857142857144
decision_type=2 2 2 2 2 2 2 2 2 2 2 2 2 2 2 2 2 2 2 2 2 2 2 2 2 2 2 2 2 2 2 2 2 2 2 2 2 2 2 2 2 2 2 2 2 2 2 2 2 2 2 2 2 2 2 2 2 2 2 2 2 2
left_child=2 3 5 -2 11 17 9 49 29 18 15 14 23 48 26 31 -15 47 35 -17 27 -22 46 43 -16 53 -3 -21 -19 -4 32 45 -8 -30 -13 -5 -20 -38 -28 -31 -24 -42 -12 -9 -45 -6 -11 -1 56 -7 -36 -48 -27 -25 -33 -56 57 -10 -26 -60 61 -35
right_child=1 4 8 6 10 7 30 12 13 22 42 34 -14 16 24 19 -18 28 36 20 21 -23 40 25 58 52 38 -29 33 39 -32 54 -34 60 50 -37 37 -39 -40 -41 41 -43 -44 44 -46 -47 51 -49 -50 -51 -52 -53 -54 -55 55 -57 -58 -59 59 -61 -62 -63
leaf_value=0.03656800783838865 0.079249143625554283 0.030383092093313826 -0.033514950102199251 0.051576538934115207 -0.025323128599082267 0.074784260961002533 0.067900907030469096 0.0090496295454298697 -0.014286017636791 0.093317536584353142 0.035240731166293129 0.079411070066239098 0.051156924407586263 0.0032612241454688853 0.071086141822606724 -0.010726380149581634 0.058191528242415046 -0.023395888224117839 0.066678851660785105 0.0095702797248991209 0.03887518837006565 0.011916035565049806 0.021735252285799797 0.056056122883744626 0.012986368719827416 0.018549449240140663 0.078920321208987815 -0.012121052818254759 -0.026830241388311655 -0.025316572956563001 0.085665197895135145 0.036968597843897041 0.050256370255874774 0.035019793057719122 0.047303903817072175 0.070760346479238873 0.060218667385724553 0.032727320191543702 0.049069871952334622 -0.0060707620641720162 -0.0092422681213340623 0.06092887170360585 0.062124122508546403 0.033916133375669101 -0.012797436875695657 0.047284958891214396 0.035488312264664874 -0.0045316775401430974 0.042846486459264962 0.038861219899447345 0.09162405524996145 0.070096150859201858 0.0040411430391893337 0.023945160362784688 0.0074669771157433121 0.032756864531514593 -0.029838477485276009 0.032478715685020504 0.027314946281261323 0.062492308030087373 0.029994808777011363 -0.0107730733158997
leaf_weight=30.067512929439545 236.8738257586956 69.376949995756149 271.38243839144707 193.51076401770115 4.1443537324666968 17.447967946529388 199.53367310762405 219.96768851578236 228.86750604212284 8.3720435947179777 125.39793466031551 44.072381541132927 54.296143189072609 228.14331080019474 16.974591761827469 97.806246697902679 17.978196367621422 145.14041873812675 30.984821289777756 234.23995074629784 100.36876806616783 151.86961860954762 351.28750620782375 29.475921899080276 90.813575938344002 263.19253520667553 33.285128235816956 87.464036628603935 34.687323451042175 194.75551500916481 49.454219445586205 52.141083091497421 153.29233385622501 15.700145319104193 114.20101861655712 104.13473644852638 36.477296531200409 209.89208470284939 115.31010435521603 88.034788906574249 5.7485310137271872 27.520177558064461 41.067341849207878 12.735970661044119 106.63871596753597 66.965820252895355 98.463251754641533 19.908461362123489 5.6493346095085135 165.9466750472784 11.18246006965637 19.845124438405037 139.44118946790695 50.488817632198334 112.27713122963905 46.953464508056641 83.611510023474693 8.9285985529422742 330.55406506359577 16.678099945187569 21.861617147922516 69.894621878862381
leaf_count=114 692 266 1374 670 20 53 632 931 1076 23 472 131 187 999 53 453 60 704 99 989 374 640 1414 100 378 1070 99 404 170 953 142 196 538 60 403 325 120 798 404 400 26 92 135 49 494 238 371 90 21 611 31 63 602 199 478 179 417 35 1287 55 85 323
internal_value=0.0225264 0.0381905 -0.000362008 0.0508768 0.027037 0.0122284 0.0463547 0.0188225 -0.015965 0.04003 0.0180393 0.0389995 0.0138939 -0.00597254 0.0340244 0.0138654 0.00730785 -0.00848023 0.0495936 0.008704 0.0120217 0.0226665 0.0292602 0.0114228 0.0274295 0.0172491 0.0477587 0.00366164 -0.0134781 -0.0262918 0.063411 0.0261214 0.0602598 -0.00332076 0.0587087 0.0583198 0.0402006 0.0368326 0.0558251 -0.0193401 0.0240898 0.0487227 0.0419242 0.00312541 -0.00776428 0.0429816 0.0449005 0.0201592 -0.0159748 0.0423341 0.0513504 0.0413731 0.0135346 0.0358743 0.0204175 0.0149591 -0.0170311 -0.0125046 0.025715 0.0290307 0.00425819 -0.00230748
internal_weight=6212.78 3688.53 2524.24 1725.39 1963.14 1396.89 1488.52 1059.63 1127.35 1086.24 1120.7 842.448 876.237 573.178 672.993 954.23 246.122 337.26 575 671.749 573.942 252.238 511.237 821.941 455.02 482.598 217.972 321.704 287.284 554.173 402.28 282.482 352.826 142.144 169.456 297.646 277.354 246.369 148.595 282.79 384.556 33.2687 166.465 339.342 119.375 71.1102 126.68 49.976 327.057 183.395 125.383 118.308 402.634 79.9647 211.372 159.231 321.408 237.796 438.046 347.232 107.456 85.5948
internal_count=24867 13690 11177 6005 7685 5842 5313 4296 5335 4001 4578 3107 3632 2608 2542 3971 1059 1546 2012 2860 2407 1014 1989 3445 1773 1971 769 1393 1342 2727 1312 1111 1170 638 565 995 1017 918 503 1353 1532 118 607 1474 543 258 457 204 1549 664 434 434 1672 299 853 657 1528 1111 1720 1342 468 383
is_linear=0
shrinkage=0.03


Tree=2
num_leaves=63
num_cat=0
split_feature=32 35 44 43 35 35 32 44 32 35 32 32 40 43 40 40 6 27 38 45 32 43 6 44 3 44 40 38 8 6 27 36 40 36 40 6 45 5 40 32 12 25 45 36 32 32 27 25 6 18 18 32 3 35 32 10 7 2 6 3 26 27
split_gain=2266.54 519.636 518.005 214.289 212.551 183.937 156.616 144.844 112.754 110.625 104.838 81.0363 72.8815 63.6201 63.5271 71.9818 60.3625 60.0763 58.2483 45.6244 43.718 43.5852 41.0699 39.5292 39.2065 37.4457 37.0066 36.1166 35.0981 33.5769 32.5801 30.3883 29.683 28.5408 28.2968 28.1976 27.1431 26.9487 26.7393 25.7048 25.6975 25.3615 24.2704 32.6065 24.2382 24.0732 23.7271 28.058 23.4172 23.4121 23.407 23.149 25.8899 22.6188 22.479 22.2687 22.4313 22.0775 21.7083 21.6429 21.4256 21.072
threshold=0.26094675170576831 0.20740564959834065 1.0000000180025095e-35 1.0000000180025095e-35 0.057450739441727898 -0.13917537952625667 0.33579373283870995 1.0000000180025095e-35 0.34775630613475383 0.098337409541677842 0.2222362517157119 0.34251316411155458 1.8772389194269605 1.0000000180025095e-35 1.8772389194269605 2.3048683211262326 0.25949975949975951 0.32094158835452374 5.5000000000000009 1.0000000180025095e-35 0.22846941649549343 1.0000000180025095e-35 0.35781671159029654 1.0000000180025095e-35 0.13383084577114432 1.0000000180025095e-35 1.8772389194269605 1.5000000000000002 0.17362318840579713 0.55662393162393176 0.19163509180996796 1.5000000000000002 1.6663331665265237 1.5000000000000002 1.8772389194269605 0.46265328874024531 1.0000000180025095e-35 0.20766968880176431 1.4401061453900497 0.18439938301933545 0.18823529411764708 0.15394673629658617 1.0000000180025095e-35 2.5000000000000004 0.40320380513878967 0.23880957876253575 0.30173704702006593 0.11584624580141249 0.59850746268656729 15756.849575651158 8862.815151515153 0.28290510658931717 0.24202037351443126 -0.39406901238296582 0.36800844839835672 13322.747326203211 0.97654698242933546 18022.290406222997 0.42340286831812263 0.36478537360890306 0.32063376874697636 0.55028089887640463
decision_type=2 2 2 2 2 2 2 2 2 2 2 2 2 2 2 2 2 2 2 2 2 2 2 2 2 2 2 2 2 2 2 2 2 2 2 2 2 2 2 2 2 2 2 2 2 2 2 2 2 2 2 2 2 2 2 2 2 2 2 2 2 2
left_child=1 5 3 -2 11 31 9 21 14 19 25 16 20 -12 27 18 32 -17 -16 49 -9 50 -11 58 -23 -3 -25 29 39 -6 -22 -1 33 -4 -27 -19 -8 38 -26 -14 -34 -42 43 -18 -13 -39 -21 -48 -20 -5 -7 60 -53 -33 -10 56 -29 -30 -15 -38 -24 -44
right_child=2 10 4 6 8 7 36 12 54 22 13 44 28 23 15 17 42 35 48 46 30 24 51 26 37 34 -28 55 57 -31 -32 53 40 -35 -36 -37 59 45 -40 -41 41 -43 61 -45 -46 -47 47 -49 -50 -51 -52 52 -54 -55 -56 -57 -58 -59 -60 -61 -62 -63
leaf_value=0.013699514367938289 0.074319035730973107 -0.013868643998770119 0.00012306253662778237 0.048893248340744329 0.026557256361959467 0.010105456655831497 0.068198859144296506 -0.021251379536415524 0.029334745245548501 0.042812211277320149 0.055292507013929758 0.051936285173875434 -0.013374421081693321 0.024078309362563131 0.056705794484308722 0.051425472863558246 0.022449332665911471 0.017615578115489 0.025440155828279201 0.06281653714443089 0.0593269150513542 -0.013818987231655764 0.0085785132516866119 -0.023863535093957351 0.012060967912703653 -0.035818740481405362 -0.0016395573071751387 0.0024063928706381907 0.0010955807435977811 -0.016201095592847957 -0.0034200687871690292 0.073829795147804536 0.07097249545908392 0.041732422489506427 -0.020035503254721528 -0.00023844474029500242 0.043563144836590011 0.0091157997261628876 0.055390330692713742 0.036477252322990671 0.038961513202668212 0.087357020875776459 0.015516498732547037 0.044130485725074033 0.092203677068557047 0.025225065627601333 0.029937729576612355 0.054833722472853612 -0.026516594264999346 0.066544827275250143 0.057704823527378317 0.0089092713321049077 0.032756859040711746 0.037768651290482541 0.051403196723769362 -0.007392885985545058 0.029840506098193019 0.038762640999757868 -0.0012299829805106559 0.062586422667821995 0.052799487788902054 0.048571841798758661
leaf_weight=45.527211576700211 244.88722097873688 242.67375412583351 21.50312015414238 197.9419087022543 98.987598687410355 12.608526691794394 191.14140586555004 182.47699944674969 88.657554611563683 127.61305466294289 15.321216166019438 158.76033452153206 11.003941282629965 39.528947964310646 75.14742748439312 33.388473212718964 135.95657926797867 167.57924009859562 69.89952839910984 31.894822105765343 7.6390209645032874 35.402786165475845 114.21783363819122 148.63461199402809 21.211900413036346 229.36489106714725 123.95587256550789 131.11047761142254 214.05173549056053 19.675848558545113 196.5014721006155 17.48460254073143 48.646062806248665 48.821118757128716 187.6306866556406 150.95497179031372 117.62256924808025 199.13259179890156 33.370115920901299 56.128626078367233 92.571556553244591 11.036979317665098 188.02402010560036 117.46429657936096 15.071074113249777 144.99408940970898 198.40633784234524 52.019635781645775 8.6500368267297727 107.36409266293049 37.714705467224121 51.225375488400459 214.20277173817158 174.27069881558418 80.930316179990768 171.07988701760769 33.731120765209198 14.902769282460211 131.60906611382961 104.75900828838348 10.747005045413969 19.183271169662476
leaf_count=185 692 1151 92 670 387 51 577 884 335 451 50 526 51 158 254 113 534 674 272 99 25 164 480 735 87 1189 554 572 930 93 879 51 144 174 912 660 407 840 113 208 329 30 757 416 39 567 746 172 42 325 120 214 807 632 272 773 131 55 586 328 37 66
internal_value=0.0216289 -0.000354957 0.0364175 0.0482516 0.025907 0.0117945 0.0440429 0.00689447 0.0173534 0.0381375 -0.0156095 0.0371761 -0.0020043 -0.00459078 0.013363 0.0206807 0.0325031 0.0131807 0.0378144 0.047057 -0.0105847 0.0194393 0.0280063 -0.0066772 0.0163573 -0.0232708 -0.0137729 0.00521432 0.00918921 0.0194345 -0.00102946 0.0358707 0.0453541 0.0290703 -0.0287306 0.00914763 0.0598119 0.0190471 0.0386592 0.0282535 0.0528317 0.0442251 0.0262784 0.0325241 0.0554957 0.0159173 0.0382994 0.035141 0.019654 0.0551302 0.045882 0.0231491 0.0281709 0.0411092 0.039908 0.000177871 0.00805304 0.0035763 0.00460878 0.0525622 0.0124447 0.0186132
internal_weight=6274.01 2523.14 3750.87 1764.04 1986.83 1404.42 1519.16 1167.14 1129.79 1105.63 1118.72 857.038 682.705 459.05 960.205 505.62 683.207 351.923 153.697 587.627 386.617 484.435 518.006 443.728 434.111 659.669 272.59 454.585 296.087 118.663 204.14 237.283 222.579 70.3242 416.996 318.534 413.523 398.709 54.582 67.1326 152.255 103.609 460.628 253.421 173.831 344.127 282.321 250.426 78.5496 305.306 50.3232 390.393 265.428 191.755 169.588 335.921 164.842 228.955 171.138 222.382 124.965 207.207
internal_count=24867 11177 13690 6005 7685 5842 5313 4974 4578 4001 5335 3107 3032 2083 3971 2015 2542 1447 568 2012 1788 1942 1989 2033 1771 3252 1289 1956 1244 480 904 868 769 266 2101 1334 1312 1607 200 259 503 359 1773 950 565 1407 1017 918 314 995 171 1538 1021 683 607 1476 703 985 744 735 517 823
is_linear=0
shrinkage=0.03


Tree=3
num_leaves=63
num_cat=0
split_feature=3 44 35 35 39 35 39 11 19 19 39 6 11 11 40 11 40 19 6 11 0 44 10 6 36 11 19 0 3 3 40 19 8 6 0 3 39 19 3 19 3 3 39 4 13 11 35 8 3 11 15 19 6 45 11 37 3 27 3 45 27 3
split_gain=1472.34 614.438 291.063 280.547 250.644 161.666 145.407 109.025 105.688 85.9373 82.297 79.4938 76.5863 66.9175 65.4096 62.6949 53.8104 52.2881 47.0797 45.3315 43.6393 43.5161 40.5539 39.9783 39.9327 39.5441 37.7192 36.6542 36.3262 34.9534 33.8809 31.9733 31.6264 31.5651 30.8986 30.8865 36.2755 30.0329 29.9625 29.6316 29.4676 28.2498 30.5511 28.8234 27.0296 26.761 26.7114 26.5272 26.4579 26.4477 38.9174 25.5966 25.258 25.2423 24.0165 23.7828 23.7392 23.6598 23.4128 23.2925 23.0663 23.0618
threshold=0.20806277056277059 1.0000000180025095e-35 0.22739423073668927 0.098337409541677842 15.500000000000002 0.16376559107205982 8.5000000000000018 0.26953601953601958 0.31471077819392429 0.31612258494337114 10.500000000000002 0.28035087719298252 0.27461753932342176 0.26794918998527251 1.8772389194269605 0.35206228956228963 1.8772389194269605 0.30060240963855428 0.30368444846292952 0.2243138634764251 0.22767145135566189 1.0000000180025095e-35 9596.1728395061746 0.58380149812734095 3.5000000000000004 0.3861642743221691 0.28829856584093877 0.47856705450091858 0.30816714150047492 0.25342723004694839 2.3048683211262326 0.31175813433877958 0.34857590802194938 0.21089696071163827 0.53671373555840829 0.14554280670785527 15.500000000000002 0.38151112316874664 0.22874354561101551 0.47722567287784684 0.36700680272108849 0.15419580419580423 16.500000000000004 0.34166666666666673 0.40678507538972658 0.39758158508158509 0.34083603326007667 0.68093711843711857 0.33945417789757421 0.29883518543312365 0.99593215664644241 0.32934002869440465 0.096464019851116647 1.0000000180025095e-35 0.19017480409885476 5.5000000000000009 0.29190074906367047 0.69098143236074283 0.28024390243902447 1.0000000180025095e-35 0.27744310575635883 0.44529914529914533
decision_type=2 2 2 2 2 2 2 2 2 2 2 2 2 2 2 2 2 2 2 2 2 2 2 2 2 2 2 2 2 2 2 2 2 2 2 2 2 2 2 2 2 2 2 2 2 2 2 2 2 2 2 2 2 2 2 2 2 2 2 2 2 2
left_child=2 4 6 7 5 13 52 11 14 22 37 24 21 33 27 31 -13 29 -15 56 -19 41 -7 48 44 46 58 61 -24 45 -6 35 55 -2 -14 -12 -37 49 -35 54 -32 -8 43 -43 -3 -9 -16 -23 60 -4 -51 -18 -1 -28 -11 -31 -10 -17 -20 -22 -21 -5
right_child=1 3 10 8 30 9 12 17 19 39 15 16 34 18 25 57 51 20 26 23 59 47 28 -25 -26 -27 53 -29 -30 32 40 -33 -34 38 -36 36 -38 -39 -40 -41 -42 42 -44 -45 -46 -47 -48 -49 -50 50 -52 -53 -54 -55 -56 -57 -58 -59 -60 -61 -62 -63
leaf_value=0.041326377684294563 0.047817100592252672 0.028232934446956313 -0.031062031479684275 -0.0020440546980483166 0.067692853993035082 -0.0082385718542600517 0.0046255499675622721 0.0054558058942282958 -0.016525817234827295 -0.0010521754862815194 -0.02358267117517544 -0.0038678169192723271 0.037493989661452579 0.056901616035660886 0.011286571448479827 0.04133792579121804 0.013598695788617133 0.064811919793277981 0.016358119820085202 0.067669170153224906 0.048204243091049197 -0.0042079495220146623 0.010203558794765977 3.606735845147211e-05 0.045538437589990349 0.044805548587904413 0.061737875890578012 -0.020437935330402324 0.034149526369815379 0.034373083407767159 0.037589567762729044 0.0055420056656918732 0.020264462570248845 0.0030647899611448252 0.00020944953771029744 -0.0092147830145898231 0.045808537677859959 0.0073463834283542528 0.03194874142772023 0.075421462434314718 0.074120610387650263 0.038632360582281901 0.092209971012235242 0.0098931841718646225 -0.0029350091261872912 0.050080730667030872 -0.014163846994793996 0.056292842101470328 0.041398406999084661 -0.01846850470412283 0.052998435738729574 0.040951638243141186 -0.015659616595781963 0.041969455795638294 0.03666375994931563 0.058503067502433496 0.017000046876031401 -0.0073228403744641296 0.038791262647500116 0.031257797943992804 0.020481043026596975 0.056971927794751048
leaf_weight=7.1665961295366278 105.69842405617237 103.51608745753765 319.92571038007736 248.75272084772587 295.37535484135151 65.8905298858881 82.114471137523651 80.063199758529663 41.616434216499329 16.317138031125069 171.78899568319321 157.88397552073002 164.23840659856796 304.95748841762543 272.28112944960594 30.991100072860718 118.45449396967888 72.89031520485878 63.585732400417328 9.7221109271049482 133.59695775806904 163.58371250331402 174.47232741117477 53.762577652931213 103.28312627971172 28.320970699191093 92.129266873002052 125.4485234618187 85.113279730081558 160.92744432389736 75.38230673968792 87.258095875382423 113.61417256295681 36.102689474821091 22.962633788585663 137.55843701958656 11.589616075158117 23.573508024215698 330.9154018163681 16.67948080599308 27.583324909210205 61.139558345079422 6.1206859052181235 65.401466757059097 32.777124211192131 14.205149382352827 42.785658270120621 6.6900699883699408 94.860138162970543 62.689402207732201 7.5854782164096823 41.903098046779633 177.44354803860188 167.5711857676506 193.32890817523003 48.696348637342453 34.798689410090446 12.477930545806883 127.1137079000473 167.29982674121857 222.08333501219749 6.0044135153293601
leaf_count=26 353 390 1652 1114 839 299 350 334 194 70 852 703 585 948 1129 111 481 216 249 29 443 724 727 235 354 99 276 610 311 584 260 374 439 152 99 640 41 102 1215 47 77 221 15 272 143 47 200 23 333 303 27 148 843 572 690 154 140 56 444 609 874 20
internal_value=0.0207869 0.0292802 -0.00385824 0.0192195 0.0409609 0.0361387 0.00972675 0.0285655 0.00853393 0.0226321 -0.0157421 0.0183916 0.017197 0.0422028 0.00139617 -0.00687601 0.00854814 0.0357304 0.0477564 0.0198301 0.0439008 0.00952928 0.0127392 0.0240648 0.0314457 0.010889 0.0415464 -0.00717013 0.0180767 0.0283996 0.0624856 -0.0105303 0.0330926 0.0333141 0.0329391 -0.0149098 -0.00489124 -0.0254088 0.0291173 0.0368337 0.0474673 0.0185071 0.027067 0.023822 0.0207187 0.012258 0.00781752 -0.00178161 0.0280091 -0.0273967 -0.0106474 0.0207861 -0.01341 0.049015 0.0337149 0.0400181 -0.001217 0.0273161 0.0313395 0.0388054 0.0225014 -0.000619517
internal_weight=6330.06 4707.76 1622.3 2529.55 2178.22 1779.88 756.861 1349.11 1180.44 551.802 865.438 557.818 572.251 1228.07 723.593 451.664 318.242 791.293 755.357 456.843 373.787 385.05 325.476 380.428 239.576 343.388 450.4 380.206 259.586 417.506 398.341 408.195 323.238 472.717 187.201 320.937 149.148 413.774 367.018 226.326 102.966 214.776 132.662 126.541 136.293 94.2683 315.067 170.274 326.666 390.201 70.2749 160.358 184.61 259.7 209.646 209.624 76.4151 43.469 190.699 300.897 231.805 254.757
internal_count=24867 17551 7316 10022 7529 6353 3158 5045 4977 2144 4158 2219 2289 4209 3172 2074 1332 2826 2489 1805 1268 1605 1337 1471 887 1428 1541 1744 1038 1558 1176 1907 1177 1720 684 1533 681 2084 1367 807 337 858 508 493 533 381 1329 747 1236 1982 330 629 869 848 760 738 334 167 693 1052 903 1134
is_linear=0
shrinkage=0.03


Tree=4
num_leaves=63
num_cat=0
split_feature=3 44 35 35 43 35 39 11 19 39 3 6 11 19 41 11 19 41 19 11 11 35 44 2 0 6 11 36 0 11 3 19 3 19 35 8 27 39 23 11 30 35 27 2 3 11 11 19 39 26 19 10 35 45 37 3 8 35 19 2 8 3
split_gain=1358.89 557.962 275.343 257.799 230.44 156.682 136.046 99.1821 98.1607 79.3387 77.2655 72.9389 70.2442 66.2449 61.4097 58.7423 55.9943 50.0703 47.1342 44.9031 41.873 40.6333 40.4831 40.7216 38.8302 36.9274 36.1977 36.057 34.9735 31.8907 31.8599 30.3889 30.1517 28.9226 28.7538 28.6022 28.5141 27.3644 25.8293 25.78 25.4999 31.512 25.4576 26.24 25.1175 25.0366 24.5499 24.4323 24.1573 23.7787 23.3159 23.0191 22.7376 22.5649 24.5685 22.3521 22.2102 22.2477 22.0996 24.0328 22.0898 22.0433
threshold=0.20806277056277059 1.0000000180025095e-35 0.22739423073668927 0.098337409541677842 1.0000000180025095e-35 0.082457950832401247 8.5000000000000018 0.26953601953601958 0.31471077819392429 10.500000000000002 0.36523199023199027 0.28035087719298252 0.27461753932342176 0.31530214424951269 4.5000000000000009 0.35206228956228963 0.3925070028011205 4.5000000000000009 0.30060240963855428 0.19367341835458868 0.2243138634764251 -0.17294500264496168 1.0000000180025095e-35 6767.4120294599024 0.22767145135566189 0.59850746268656729 0.3861642743221691 3.5000000000000004 0.47856705450091858 0.37424698795180728 0.25342723004694839 0.31175813433877958 0.12392463562033418 0.38151112316874664 0.015980993592933913 0.34857590802194938 0.32094158835452374 15.500000000000002 0.98435167910447774 0.29883518543312365 0.20400537109784866 -0.13917537952625667 0.32094158835452374 11619.437500000002 0.32709790209790218 0.18016393442622955 0.37153038259564897 0.4491379310344828 16.500000000000004 0.051956815114709856 0.32934002869440465 10867.053140096619 -0.22331266107084372 1.0000000180025095e-35 4.5000000000000009 0.29190074906367047 0.68093711843711857 -0.052427527570185699 0.21081871345029243 21269.995670995675 0.13079116179615113 0.3387222946544981
decision_type=2 2 2 2 2 2 2 2 2 2 2 2 2 2 2 2 2 2 2 2 2 2 2 2 2 2 2 2 2 2 2 2 2 2 2 2 2 2 2 2 2 2 2 2 2 2 2 2 2 2 2 2 2 2 2 2 2 2 2 2 2 2
left_child=2 4 6 7 -2 13 45 11 14 33 16 27 22 21 28 31 19 -13 30 -7 55 -6 23 -8 -20 -22 42 40 58 -21 46 32 -11 39 -14 -32 -23 -34 -17 -4 -3 -42 43 -16 -38 -1 -9 56 -25 -18 -19 -12 -37 -29 -55 -10 57 -24 -5 -60 -36 -44
right_child=1 3 9 8 5 10 12 18 20 15 51 17 34 -15 26 38 49 50 24 29 25 36 47 48 -26 -27 -28 53 -30 -31 35 -33 37 -35 60 52 44 -39 -40 -41 41 -43 61 -45 -46 -47 -48 -49 -50 -51 -52 -53 -54 54 -56 -57 -58 -59 59 -61 -62 -63
leaf_value=-0.029034604954754566 0.064045728660208467 0.039465532553816032 -0.030611885024574452 -0.014689103475964183 0.053290112470844787 -0.0013212377157138598 -0.0056676900067878268 0.0027086530741531022 -0.016155617100309785 -0.026908670200626407 0.023139922221639693 -0.0037586328106530291 0.046262191621179505 0.053432242741991015 -0.016377111106381414 0.012674587497122395 0.083936762714915972 0.01311113314863872 0.061297367115228055 0.019972993954525755 0.026436701611025938 0.047590434745030642 0.012018869429340641 0.022162486068902806 0.037041234712853387 -0.00275377845372344 0.042632816978681737 0.052147698202586537 -0.020024920247356318 0.040592255463581729 0.038169072032223805 0.005362159506013449 -0.010962620558474467 0.0071022165410271256 0.049151674599985762 0.056451682099653948 0.024268444971977141 0.02865155580520292 0.065761929934609206 -0.010384083670045615 0.034790731914104686 -0.001250049141585934 0.00023436528068630926 0.048628899059958798 0.040324619296046277 -0.0053506045913058933 0.037519470881234585 0.057523351339916567 0.072073148281708244 0.038235916082904844 0.039035125658379285 0.054448853190205961 0.01458995503970777 0.0052216181748523348 0.067740255999651486 0.016366203738148809 0.050180449451903621 -0.013145160737440988 0.0015117642101715604 0.039735556320482299 0.015756134095205546 0.020219236228209793
leaf_weight=59.746135786175728 289.61413669586182 41.80690111219883 314.9681313931942 71.903029605746269 118.6423337906599 79.586359292268753 50.679909214377403 70.094535142183304 41.300098553299904 114.37238091230392 27.348474651575089 157.60345324873924 73.325216501951218 381.77714265882969 7.1699467152357128 32.95173054933548 11.696380987763403 119.16629928350449 74.733745813369751 536.97148601710796 340.53635837137699 105.07888297736645 43.506386309862137 156.55906592309475 305.70236000418663 43.819981813430786 28.867827847599983 75.170290470123291 124.21574550867081 77.689017757773399 213.13776908814907 87.479109466075897 187.21964465081692 23.654602631926537 22.121692642569542 13.208774253726004 254.27515365183353 16.998480215668678 11.033715233206747 69.905071869492531 33.377898216247559 62.325405493378639 221.24688199162483 23.675560861825943 136.15603016316891 123.67462915182114 24.659158527851105 5.9350898265838614 9.2383635938167554 92.371740564703941 42.634957775473595 102.64421913027763 101.38661725819111 22.57189238071442 7.5157705694437018 35.061777248978615 6.445881411433219 114.24523949623108 166.59345000982285 16.173219233751297 94.348430961370468 64.072595834732056
leaf_count=305 796 147 1652 342 368 348 226 295 194 583 102 703 241 1168 32 133 30 481 216 2078 1277 338 177 607 1052 194 99 241 610 264 738 374 885 102 72 41 944 65 34 330 119 267 964 79 459 564 86 19 25 315 148 319 398 91 22 140 22 529 733 59 371 254
internal_value=0.0199931 0.0280619 -0.00375476 0.0184913 0.0390818 0.0353198 0.00939585 0.0273783 0.00824658 -0.015396 0.0264395 0.0176981 0.0165584 0.0435907 0.00135224 -0.00669594 0.0229344 0.00826007 0.0341492 0.0198449 0.0190704 0.0374603 0.00920546 0.0178098 0.0418289 0.0231011 0.0105104 0.0300946 -0.00698034 0.0225902 0.0272184 -0.0102699 -0.0145719 -0.0249691 0.0315078 0.0316535 0.033654 -0.00763817 0.0261785 -0.0269493 0.0199154 0.0113116 0.00755542 0.0334174 0.0298843 -0.0130932 0.0118296 -0.00172912 0.0250034 0.0434768 0.0199806 0.0479078 0.0194863 0.0433328 0.0211106 -0.00118202 -0.00392283 -0.00618294 -0.000600673 0.00493051 0.0221616 0.00473828
internal_weight=6381.99 4763.58 1618.41 2549.73 2213.85 1924.24 759.826 1365.1 1184.64 858.583 928.308 562.173 576.405 995.93 723.918 450.055 798.315 319.405 802.923 694.247 460.718 614.152 386.61 216.477 380.436 384.356 345.033 242.768 378.885 614.661 422.487 406.07 318.591 408.528 189.795 327.733 495.51 204.218 43.9854 384.873 137.51 95.7033 316.165 30.8455 390.431 183.421 94.7537 170.133 165.797 104.068 161.801 129.993 114.595 105.258 30.0877 76.3619 164.198 157.752 254.67 182.767 116.47 285.319
internal_count=24867 17551 7316 10022 7529 6733 3158 5045 4977 4158 3456 2219 2289 3277 3172 2074 3035 1332 2826 2690 1805 2109 1605 858 1268 1471 1428 887 1744 2342 1558 1907 1533 2084 684 1177 1741 950 167 1982 533 386 1329 111 1403 869 381 747 632 345 629 421 439 354 113 334 728 706 1134 792 443 1218
is_linear=0
shrinkage=0.03


Tree=5
num_leaves=63
num_cat=0
split_feature=32 35 6 44 39 44 32 35 32 39 32 41 41 38 43 32 39 32 35 6 39 6 45 16 45 39 30 38 43 39 35 15 25 45 32 43 32 45 6 26 21 15 44 32 22 3 8 6 25 25 37 37 35 32 35 38 23 15 39 15 10 33
split_gain=1764.89 453.097 365.674 214.615 183.209 135.787 123.789 108.597 90.1967 75.5722 75.3031 62.9901 61.7433 66.6369 61.2732 55.048 54.3365 49.0391 42.4774 41.8205 37.7404 50.1745 49.1576 36.4883 35.5578 35.3308 34.0777 32.3888 31.0359 30.4909 30.2961 29.8505 26.5534 26.4126 25.9212 25.8871 25.4671 23.7499 23.3963 22.7097 22.0382 21.1465 20.8269 24.5375 20.5992 20.2289 19.9967 19.9936 19.9692 19.9247 19.7811 27.8564 21.8419 19.0824 19.5914 18.8615 23.4766 20.695 20.0095 19.4881 18.8191 18.1424
threshold=0.26094675170576831 0.24866052754607418 0.35781671159029654 1.0000000180025095e-35 8.5000000000000018 1.0000000180025095e-35 0.34775630613475383 -0.15527322918627265 0.32430828101023618 8.5000000000000018 0.33804836114731435 4.5000000000000009 5.5000000000000009 5.5000000000000009 1.0000000180025095e-35 0.2269153053926011 15.500000000000002 0.22378715844899422 -0.014748794957359977 0.40508365508365513 9.5000000000000018 0.16302800189843383 1.0000000180025095e-35 0.36489262371615316 1.0000000180025095e-35 15.500000000000002 0.16173620878262232 1.5000000000000002 1.0000000180025095e-35 16.500000000000004 0.10643963082987477 0.89833763123963906 0.16421956203413154 1.0000000180025095e-35 0.32430828101023618 1.0000000180025095e-35 0.38880227780591303 1.0000000180025095e-35 0.31444622792937404 0.41240409207161127 0.26246067229673792 0.98954356126345033 1.0000000180025095e-35 0.23605363347179717 0.26726190476190481 0.36088342440801463 0.19652406417112303 0.38935969868173265 0.070835226477491062 0.042294192085757361 5.5000000000000009 6.5000000000000009 -0.06158155569920274 0.3156723190361635 0.25620031538342186 1.5000000000000002 0.75989690721649494 0.99974226804123723 9.5000000000000018 0.97280431432973813 15429.9358974359 0.055936673658273643
decision_type=2 2 2 2 2 2 2 2 2 2 2 2 2 2 2 2 2 2 2 2 2 2 2 2 2 2 2 2 2 2 2 2 2 2 2 2 2 2 2 2 2 2 2 2 2 2 2 2 2 2 2 2 2 2 2 2 2 2 2 2 2 2
left_child=1 4 5 8 19 14 11 32 18 -3 20 55 13 -13 -2 38 17 50 -4 27 23 -22 -23 40 53 -17 47 44 -10 33 -14 -8 42 -20 49 -28 39 -21 -11 -30 -7 -32 43 -6 -1 -25 -24 -19 -15 -26 52 -52 -9 54 -16 58 -57 -58 61 -60 -35 -5
right_child=2 9 3 6 7 10 31 16 28 15 -12 12 30 48 24 25 -18 26 29 37 21 22 46 45 34 -27 35 -29 36 -31 41 -33 -34 60 -36 -37 -38 -39 -40 -41 -42 -43 -44 -45 -46 -47 -48 -49 -50 -51 51 -53 -54 -55 -56 56 57 -59 59 -61 -62 -63
leaf_value=-0.0019796268221507528 0.071104793114003084 -0.032238399910341851 0.045357287666304771 0.017176854189142755 0.025073612061274723 0.0090295913291910789 0.017560292748759226 0.018182768965606153 0.065757580603456711 0.035945994399372315 0.050629308990098751 0.053951981253895387 0.022139549058714448 0.039971566721287752 0.049970143521010223 -0.0029663871789295023 0.037854301184029861 0.042784455443997428 0.028523329563351348 -0.027460409581308472 0.061287304314873427 0.040854777772083885 0.042653717956287862 0.044356710469053928 0.052461387646853173 0.053093247677182938 0.071319098948429582 -0.0077437493236653231 0.036859337050793174 0.046542776602556762 0.0014454510226375385 0.044014445672863563 0.056518292099637615 0.020771146282944453 0.04941048651803067 0.012219550535375944 0.068674494536178229 0.0056636625836577895 -0.019014041238503584 0.071378514895925477 0.030249149599780294 0.034747498815119585 0.015970132722684605 0.061663873575264226 0.032286743990465737 0.0020739111576821376 0.011347814869231435 -0.012753398148599319 0.0032591688520165621 0.027042102736842835 0.031888759159037675 -1.6372903452649093e-05 -0.0050983397215112487 0.062343258296968296 -0.0034531068523227827 0.04719922603905536 -0.0037877187195020012 0.04371932463992597 0.016163739457556905 0.075651380408938207 0.0032024240973407242 -0.0089632321742696697
leaf_weight=27.917161673307419 120.69801691174507 217.33836440742016 99.636595025658607 61.034981846809387 38.655118986964226 155.56442095339298 53.301383376121521 41.912975117564201 60.274303913116455 6.9550697654485694 198.33649110794067 75.774131074547768 141.63309915363789 18.141901016235352 227.92915278673172 236.31083945930004 66.808752551674843 53.968004539608955 253.28276650607586 114.3042318969965 59.336158901453018 190.36594557762146 22.264933794736862 72.414596930146217 35.534011378884315 10.46926313638687 6.6858949214220038 174.55769464373589 261.41075596213341 49.304217368364334 200.4144386947155 143.1350930929184 47.891432702541351 157.08746759593487 156.47744832932949 514.86272920668125 29.609560117125511 23.269239202141762 448.60480013489723 18.630744874477386 61.825012400746346 18.696901381015778 54.173596501350403 29.567136138677597 35.748129829764366 12.033291682600973 106.77484406530857 6.4046913832426062 50.456656575202942 135.42570275068283 42.410861253738403 58.104333445429802 264.05425471067429 154.98088446259499 6.2294470965862265 8.6778290718793851 311.67255157232285 8.3702079504728299 13.295291125774385 8.0438619256019575 85.038990318775177 38.983936131000519
leaf_count=126 301 1168 316 243 139 625 198 165 156 27 611 243 527 63 704 1066 220 182 913 583 172 640 73 244 109 32 18 805 866 150 852 469 144 590 476 2077 79 103 2236 50 224 68 207 86 136 49 418 29 211 477 160 252 1176 431 26 30 1375 30 52 23 344 175
internal_value=0.0195526 6.3108e-06 0.0322445 0.0240434 0.00964595 0.0425908 0.0151742 0.0152658 0.0341082 -0.0167737 0.0343361 0.0107071 0.0179792 0.0345636 0.0512474 -0.01198 0.0116719 0.00989548 0.0273103 -0.00867202 0.0295768 0.0358985 0.031155 0.0216251 0.047889 -0.00055545 0.0154803 -0.0010513 0.0459305 0.023996 0.0113259 0.0368642 0.0374985 0.0217371 0.0405355 0.0129964 0.0420414 -0.021836 -0.0181607 0.0391912 0.0150893 0.00431537 0.0299919 0.0410426 0.0172344 0.0383767 0.0168015 0.0368317 0.013056 0.0323706 0.00189096 0.013434 -0.00189447 0.0540568 0.0485352 0.00253702 -0.00118693 -0.00252261 0.0126414 0.038976 0.014617 0.00695961
internal_weight=6403.07 2520.97 3882.1 2165.91 1601.3 1716.19 1151.63 1225.5 1014.28 919.678 878.916 955.196 505.117 144.373 837.275 702.34 1055.21 988.404 644.35 375.796 680.579 378.742 319.406 301.837 716.577 246.78 581.921 238.223 369.925 544.713 360.744 196.436 170.287 495.409 327.437 521.549 309.651 137.573 455.56 280.042 217.389 219.111 122.396 68.2223 63.6653 84.4479 129.04 60.3727 68.5986 170.96 406.482 100.515 305.967 389.139 234.159 450.079 328.721 320.043 121.358 21.3392 242.126 100.019
internal_count=24740 11137 13603 8023 6608 5580 4559 4855 3464 4529 3056 3892 1964 517 2524 3361 4279 4059 2313 1753 2445 1303 1131 1142 2223 1098 2306 1067 1151 1997 1447 667 576 1847 1062 2095 995 686 2263 916 849 920 432 225 262 293 491 211 274 586 1753 412 1341 1161 730 1928 1435 1405 493 75 934 418
is_linear=0
shrinkage=0.03


Tree=6
num_leaves=63
num_cat=0
split_feature=32 35 6 44 44 44 32 32 35 32 40 32 40 43 0 35 46 16 32 44 14 6 43 0 47 43 40 45 15 43 45 10 8 14 30 38 35 11 6 43 36 38 44 32 0 32 38 38 3 22 5 25 40 33 22 45 25 6 45 14 0 6
split_gain=1628.16 428.157 332.202 196.7 138.966 122.87 113.667 82.6535 77.8355 68.0659 65.0879 62.9661 61.599 55.3469 52.6547 52.3107 43.0456 40.029 37.57 36.8693 35.7712 35.3713 32.9802 32.9322 32.7923 30.8556 30.2789 28.3636 27.0174 26.6105 26.2905 26.5195 25.1233 24.1164 23.5515 23.3816 23.3203 23.1584 21.8367 21.3716 21.0524 20.9343 20.4482 20.4301 19.784 19.7496 19.5613 19.2868 19.1459 18.9472 21.6664 19.0662 18.9215 20.677 20.0321 18.803 27.3937 18.6934 18.0708 17.9803 17.5485 17.3445
threshold=0.26094675170576831 0.24866052754607418 0.35781671159029654 1.0000000180025095e-35 1.0000000180025095e-35 1.0000000180025095e-35 0.34775630613475383 0.33107697342851888 -0.15527322918627265 0.33804836114731435 1.4401061453900497 0.22533820409384478 1.6663331665265237 1.0000000180025095e-35 0.13487525987525992 0.10226758535582066 1.0000000180025095e-35 0.42770034843205579 0.21777570576209818 1.0000000180025095e-35 0.27823315118397091 0.39159811985898946 1.0000000180025095e-35 0.22767145135566189 1.0000000180025095e-35 1.5000000000000002 1.8772389194269605 1.0000000180025095e-35 0.89833763123963906 1.0000000180025095e-35 1.0000000180025095e-35 15429.9358974359 0.050423728813559332 0.053342816500711245 0.16173620878262232 1.5000000000000002 -0.20418859649122803 0.24865591397849465 0.21089696071163827 1.0000000180025095e-35 8.5000000000000018 5.5000000000000009 1.0000000180025095e-35 0.32430828101023618 0.24357284113381678 0.38880227780591303 3.5000000000000004 1.5000000000000002 0.23615934627170584 0.3723210214318286 0.19868421052631582 0.044834294801235706 1.8772389194269605 0.080660321521409631 0.26365441906653431 1.0000000180025095e-35 0.089386347105680913 0.42652938824470216 1.0000000180025095e-35 0.53950103950103967 0.20220057720057724 0.27812939521800289
decision_type=2 2 2 2 2 2 2 2 2 2 2 2 2 2 2 2 2 2 2 2 2 2 2 2 2 2 2 2 2 2 2 2 2 2 2 2 2 2 2 2 2 2 2 2 2 2 2 2 2 2 2 2 2 2 2 2 2 2 2 2 2 2
left_child=1 4 5 7 8 13 12 17 -1 20 21 41 32 -2 48 33 -17 22 24 57 26 35 -4 -15 -10 -18 37 -25 -8 -20 -24 -32 -5 -14 60 -6 -36 -7 -28 -9 -35 42 -3 46 -45 -41 -29 -39 -12 50 -22 -51 59 -54 -55 -31 -57 -13 -23 -21 -16 -53
right_child=2 11 3 6 10 9 28 39 18 -11 14 19 15 23 34 16 25 -19 29 52 49 58 30 27 -26 -27 38 43 -30 55 31 -33 -34 40 36 -37 -38 47 -40 45 -42 -43 -44 44 -46 -47 -48 -49 -50 51 -52 61 53 54 -56 56 -58 -59 -60 -61 -62 -63
leaf_value=0.044786266690141296 0.067501958429083353 -0.016694959169046807 0.042207980924109156 0.070522744737696111 0.016659408065234846 0.004261364157355888 0.016917363193570366 0.063877262588636741 0.0025530912300436095 0.048205473712944882 0.023703138964878728 0.030866044583688985 0.074122315035272182 0.055290220519866436 0.052073174808748804 0.00039947756510151617 0.030888889345637063 0.042074330312207614 0.044860288958353305 -0.026333212625810305 0.038370569034372359 -0.02766844303527826 0.027268628502056916 0.048394886379613443 0.068428654802854413 0.0064695025156072681 0.061310364070882174 0.039058599749999978 0.041971883489470146 0.022930748233677287 0.021173853576086411 0.00030316568382076362 -0.0025772654189733352 0.025849672217598669 0.023247002218648876 -0.0080910672958348952 0.0013308470119420155 0.049404531614698419 0.03738103720639542 0.039066115335511818 -0.025752703855707926 -0.012383323453558732 -0.030302741448997885 -0.0072168122693226965 0.046377466277776398 0.06509042137786987 0.01570424312209423 0.023034374224417852 0.067745902992563653 0.064538392930220262 0.014935072985666353 0.039712925856445286 -0.01237205607610975 0.03703880187803537 -0.028586408201711412 0.023392058743426019 -0.0072427451477161545 0.0011633997633442694 0.0076378142256836763 0.025044333463057809 0.012427609038468184 0.0098162303379853919
leaf_weight=95.167636394500732 123.2897232323885 154.83722931146622 75.438092231750488 4.1953489184379569 46.439631015062332 34.561120808124542 53.665366664528847 49.322722285985947 192.11051978170872 202.00664086639881 22.696430370211601 23.078844264149666 9.0650512874126417 224.25429426133633 15.076642170548437 239.5758685618639 100.82847140729427 130.74050405621529 37.964991644024849 95.393190994858742 41.727369323372841 98.91769751906395 272.08599063754082 256.70418527722359 6.9582106471061698 87.272363230586052 50.335481464862823 57.890715345740318 145.56419305503368 243.15941491723061 150.24512475728989 86.683479309082031 277.12068742513657 234.07383948564529 47.791362971067429 130.85244606435299 504.39493305981159 39.42153163254261 115.74945794045925 232.14767438173294 7.2038307487964621 146.24192151427269 286.46584635972977 6.4451675564050666 108.72676141560078 30.29725170135498 74.807056561112404 70.939561054110527 15.044611841440199 15.546906024217604 246.70248657464981 43.864772945642471 68.036622315645218 16.837636262178425 5.4272132813930503 51.074310898780823 53.700995728373528 109.00886495411396 14.836739376187323 6.4141819775104514 30.886615797877312 29.62974239885807
leaf_count=298 301 768 222 13 189 140 198 124 811 611 86 87 24 635 48 1023 368 414 114 499 139 512 972 770 21 365 140 189 469 911 560 355 1217 850 173 607 2180 125 387 738 32 718 1542 25 329 79 275 261 43 46 947 144 320 64 27 192 233 476 65 28 125 116
internal_value=0.018832 3.49845e-06 0.0309043 0.023109 0.00932082 0.0406774 0.0146289 0.0326706 0.019619 0.0328667 0.00176007 -0.0164155 0.01034 0.0488313 0.00714076 0.0152364 0.00884707 0.0270339 0.0155125 -0.00578719 0.0283555 -0.00998399 0.0236577 0.04566 0.00490396 0.0195845 0.0359085 0.0413639 0.03525 0.0209745 0.0208948 0.013554 -0.00145177 0.026132 0.00496302 -0.00158532 0.00323697 0.0258071 0.0446839 0.0455789 0.0242865 -0.022273 -0.0255399 0.0340536 0.0433486 0.0421055 0.0259371 0.0325173 0.0414717 0.0221166 0.018348 0.034256 -0.014178 -0.00413316 0.0208518 0.0183474 0.00767011 0.00639527 -0.0230345 -0.0230454 0.0255819 0.0277304
internal_weight=6446.94 2518.81 3928.13 2185.53 1607.07 1742.6 1158.57 1026.96 680.136 890.485 926.937 911.742 959.335 852.118 635.891 678.019 427.677 715.193 584.968 324.197 688.478 291.047 584.453 728.828 199.069 188.101 311.007 504.574 199.23 385.9 509.015 236.929 281.316 250.343 598.15 177.292 552.186 144.922 166.085 311.768 241.278 587.545 441.303 247.87 115.172 262.445 132.698 110.361 37.741 377.471 288.43 89.0414 192.109 90.3015 22.2648 347.935 104.775 132.088 113.754 101.807 45.9633 73.4945
internal_count=24740 11137 13603 8023 6608 5580 4559 3464 2580 3056 4028 4529 3892 2524 2655 2662 1756 2523 2282 1501 2445 1373 2109 2223 832 733 1053 1588 667 1450 1887 915 1230 906 2526 796 2353 526 527 941 882 3028 2310 818 354 817 464 386 129 1392 1086 306 938 411 91 1336 425 563 577 527 173 260
is_linear=0
shrinkage=0.03


Tree=7
num_leaves=63
num_cat=0
split_feature=32 0 6 44 39 44 32 44 32 32 32 16 40 39 47 39 32 40 0 0 22 26 6 39 45 14 16 22 0 22 32 46 3 22 39 26 42 15 13 14 22 32 34 15 34 37 32 46 45 31 36 32 5 33 30 3 33 0 5 3 26 3
split_gain=1504.51 372.617 302.992 180.756 132.863 111.806 104.604 95.7543 84.2114 75.6168 61.8201 60.9515 57.3814 50.9507 49.1576 46.9145 38.938 38.1407 38.5534 36.9647 36.599 34.4493 37.0403 32.759 43.6962 35.8282 32.4065 31.7907 29.2387 28.4506 31.6699 28.0595 26.7828 28.8748 25.0158 25.3188 24.7548 24.5479 23.6146 26.4833 29.0064 25.5208 23.5049 24.8102 22.2967 21.7731 21.6714 23.7889 21.3543 23.5233 20.8396 20.4076 20.2666 23.1446 22.7094 19.1661 26.1493 18.0328 18.6362 17.9625 17.9112 17.0653
threshold=0.26094675170576831 0.42204861111111119 0.35781671159029654 1.0000000180025095e-35 8.5000000000000018 1.0000000180025095e-35 0.34775630613475383 1.0000000180025095e-35 0.21594335266664857 0.32430828101023618 0.33804836114731435 0.45857843137254906 1.6663331665265237 15.500000000000002 1.0000000180025095e-35 15.500000000000002 0.22378715844899422 1.6663331665265237 0.13487525987525992 0.58640755379885834 0.40161290322580651 0.3054093567251463 0.4662100456621005 9.5000000000000018 1.0000000180025095e-35 0.18780940594059409 0.36489262371615316 0.55662393162393176 0.23384370650228678 0.44782214156079864 0.21107930890780205 1.0000000180025095e-35 0.14218328840970354 0.40560125342734049 15.500000000000002 0.39369100844510685 1.0000000180025095e-35 0.89833763123963906 0.2215007215007215 0.60136986301369866 0.19399641577060936 0.25847044994694912 0.92431029470671422 0.92518656716417924 0.96582357287044329 4.5000000000000009 0.32430828101023618 1.0000000180025095e-35 1.0000000180025095e-35 0.18601917395678461 4.5000000000000009 0.33481322130097707 0.37561881188118817 0.079447745118271865 0.26669849063466089 0.29080338266384781 0.05504149635753678 0.22305140961857381 0.31726674409601247 0.36088342440801463 0.23919465174129356 0.2303271441202476
decision_type=2 2 2 2 2 2 2 2 2 2 2 2 2 2 2 2 2 2 2 2 2 2 2 2 2 2 2 2 2 2 2 2 2 2 2 2 2 2 2 2 2 2 2 2 2 2 2 2 2 2 2 2 2 2 2 2 2 2 2 2 2 2
left_child=1 7 5 9 61 13 12 11 14 20 23 16 -5 28 32 21 -1 29 -19 27 34 45 -23 26 57 -26 55 31 -2 30 -9 -14 -6 -34 35 36 -4 -8 52 41 -41 -40 -18 -44 -27 -10 47 60 -11 -50 -47 -51 53 -20 -54 56 -7 -25 -59 -28 -30 -3
right_child=2 4 3 6 8 10 37 17 15 48 -12 -13 19 -15 -16 -17 42 18 38 -21 -22 22 -24 24 25 44 59 -29 46 -31 -32 -33 33 -35 -36 -37 -38 -39 39 40 -42 -43 43 -45 -46 50 -48 -49 49 51 -52 -53 54 -55 -56 -57 -58 58 -60 -61 -62 -63
leaf_value=0.0062297001787498313 0.051538996762992451 -0.03183402740885441 0.023394974518600134 -0.0014086747762560516 -0.022505601095782549 0.032019310374650403 0.016304132902800261 -0.026981970072654786 -0.0085466033942601591 0.049299216083486211 0.045987157088197554 0.047392177769459629 0.010372393480804312 0.061466033023770544 0.04643234252232744 0.041902978823802978 0.012747372896865559 0.040164426657670116 0.018416852477285788 -0.0073691832000335822 0.038105104136405749 0.052318338721651425 0.0060974542080724824 0.052692862401709832 0.045228037668516179 0.0072982855893738412 0.040924960104173125 0.053169259511327449 0.014182950001721366 0.020593974272211466 -0.0015936712973382502 0.023694413644659081 -0.014421443833430716 0.010760575479154579 0.035858560641982326 0.064235114569097265 0.00842420520590011 0.040087355743494826 -0.0052972940966230396 0.061382688572708073 -0.0013590456825136991 0.044589797943795181 0.0094324117404789975 0.036616883447932201 0.049187640422808702 0.0011534519981802156 0.04671873654723073 0.042898279937799384 0.042234876966527356 -0.0095432753831192953 0.031731430746154046 0.029592395360075633 -0.017365457686403036 0.059335006607578233 0.017503923030166565 0.0036784624719608584 0.0033482335088321079 0.019984649470029908 0.042444288204516539 0.0013255588875556678 0.034919267368445382 -0.0139804995181046
leaf_weight=172.39297179877758 240.18393062055111 248.58320835232735 232.65506890416145 281.12301757931709 261.7262282371521 78.468323826789856 54.011670604348183 59.889464408159256 237.47749377787113 186.27097828686237 205.35030287504196 71.113845303654671 363.98487229645252 168.97061036527157 11.508364006876944 26.280278325080872 101.98421542346478 35.203056678175926 85.094903215765953 61.931334957480431 151.63756260275841 21.553525298833847 56.659076049923897 81.589115679264069 39.451855584979057 102.08254909515381 74.53769339621067 20.991900861263275 72.017845168709755 35.415294617414474 169.39422103762627 235.2784795165062 169.13791504502296 53.856984466314316 87.681355014443398 10.430936098098753 175.19350035488605 147.80434116721153 186.61102223396301 12.787921607494356 13.464751511812208 9.6018747389316541 38.836517184972763 142.69347904622555 12.839853525161741 126.35238003730774 178.51623690128326 125.67942923307419 131.00819255411625 15.78360992670059 23.801319941878319 47.98859529197216 28.120690762996674 14.638299599289892 41.376666307449341 96.832620888948441 45.473011270165443 50.752966016530991 101.66828057169914 12.152208566665648 80.162819027900696 60.8769191801548
leaf_count=706 673 1365 844 1230 1346 277 198 306 1091 534 611 216 1447 426 41 82 389 118 331 277 483 72 239 235 122 396 244 64 262 138 759 874 833 223 273 29 684 469 817 43 58 33 151 485 40 555 518 384 398 64 92 155 133 46 164 389 183 182 328 49 261 305
internal_value=0.0181503 9.99618e-07 0.0296519 0.0222268 -0.0111837 0.0389104 0.0141081 0.011915 -0.00580748 0.0313289 0.0314968 0.0215487 0.00998719 0.0466216 -0.0145278 0.0029807 0.0175015 0.00456736 0.0101161 0.0146872 0.0251485 0.000769967 0.0189237 0.0272102 0.0330162 0.0205671 0.0198581 0.0168952 0.0430081 -0.00437068 -0.00824711 0.0156109 -0.0159906 -0.00832402 0.0212527 0.018176 0.0169752 0.0337484 0.00739839 0.000957927 0.0292062 -0.00281927 0.0243402 0.030826 0.0120432 -0.00288912 0.0385015 0.0331964 0.0419774 0.0349384 0.00603832 0.0198596 0.0158415 0.0245061 0.00334695 0.0137221 0.0215355 0.0412036 0.0350034 0.0354164 0.0251415 -0.0283372
internal_weight=6486.94 2516.43 3970.51 2203.78 1297.81 1766.73 1165.13 1218.62 988.354 1038.65 901.199 527.021 963.31 865.531 496.229 492.124 455.907 691.598 426.899 682.187 657.598 465.844 78.2126 695.848 388.385 154.374 307.464 620.255 696.56 264.699 229.284 599.263 484.721 222.995 505.961 418.28 407.849 201.816 391.696 222.466 26.2527 196.213 283.514 181.53 114.922 387.631 456.376 277.86 381.051 194.78 150.154 63.7722 169.231 99.7332 69.4974 220.774 123.941 234.01 152.421 86.6899 152.181 309.46
internal_count=24740 11137 13603 8023 6244 5580 4559 4893 4574 3464 3056 1947 3892 2524 2443 2131 1731 2946 1743 2662 2313 2049 311 2445 1303 558 1142 2385 2098 1203 1065 2321 2402 1056 1830 1557 1528 667 1625 951 101 850 1025 636 436 1738 1425 907 1151 617 647 219 674 377 297 849 460 745 510 293 523 1670
is_linear=0
shrinkage=0.03


Tree=8
num_leaves=63
num_cat=0
split_feature=32 35 44 6 44 6 32 32 35 32 32 40 40 40 38 0 35 10 37 37 43 37 6 46 6 43 43 32 35 44 3 14 45 18 45 40 36 45 3 38 38 8 30 40 18 23 32 8 32 40 38 14 25 44 37 40 14 2 36 6 15 45
split_gain=1392.29 387.059 277.658 162.91 120.407 120.008 91.6806 77.5465 67.0015 61.4667 58.5869 58.2505 63.9974 57.7901 54.1093 44.9162 42.1577 35.8678 37.3613 40.273 34.997 34.5593 32.8141 31.6058 31.2222 28.9987 26.1088 25.8698 25.4906 24.6384 24.2469 23.6798 22.7066 23.5815 22.5188 22.192 32.6243 23.1372 22.6505 22.0997 21.6967 21.6777 21.5253 21.3277 20.613 20.4999 20.4866 26.2479 20.4793 20.4391 20.2212 20.1892 20.0557 19.8072 19.1699 18.9535 18.5142 21.955 18.0387 17.8306 17.8246 17.5416
threshold=0.26094675170576831 0.24866052754607418 1.0000000180025095e-35 0.36417112299465243 1.0000000180025095e-35 0.30461293743372225 0.34903704882634828 0.32430828101023618 -0.16077338736913202 0.32743937645184479 0.22533820409384478 1.8772389194269605 2.3048683211262326 1.4401061453900497 5.5000000000000009 0.13487525987525992 0.098337409541677842 5315.5189990732169 5.5000000000000009 6.5000000000000009 1.0000000180025095e-35 5.5000000000000009 0.39159811985898946 1.0000000180025095e-35 0.12792207792207794 1.0000000180025095e-35 1.0000000180025095e-35 0.38374537351028187 0.14371497608105366 1.0000000180025095e-35 0.11194653299916459 0.15235814296241715 1.0000000180025095e-35 23403.377192982462 1.0000000180025095e-35 1.6663331665265237 1.5000000000000002 1.0000000180025095e-35 0.37807807807807814 2.5000000000000004 1.5000000000000002 0.2312382739212008 0.10845959595959596 2.3048683211262326 27680.449768810427 0.98578167115902982 0.33481322130097707 0.25089928057553962 0.37324432404540769 1.0318578549261868 5.5000000000000009 0.56385869565217395 0.085073596231315982 1.0000000180025095e-35 6.5000000000000009 2.5595537745932826 0.40946348733233989 16350.921717171719 3.5000000000000004 0.54201977401129953 0.89639376218323596 1.0000000180025095e-35
decision_type=2 2 2 2 2 2 2 2 2 2 2 2 2 2 2 2 2 2 2 2 2 2 2 2 2 2 2 2 2 2 2 2 2 2 2 2 2 2 2 2 2 2 2 2 2 2 2 2 2 2 2 2 2 2 2 2 2 2 2 2 2 2
left_child=1 4 5 9 8 26 11 16 -1 24 50 -5 14 22 58 -15 56 -10 30 -20 49 29 40 28 -4 -9 -2 -27 -14 -12 -19 -23 59 -34 39 36 -26 44 -38 -8 -6 42 -17 -39 -37 -32 47 -28 -11 -18 53 -31 -16 -3 -49 -25 -7 -58 -13 -22 -36 -24
right_child=2 10 3 6 13 7 34 25 17 48 21 12 23 15 52 41 20 18 19 -21 32 31 61 55 35 27 46 -29 -30 51 45 -33 33 -35 60 37 38 43 -40 -41 -42 -43 -44 -45 -46 -47 -48 54 -50 -51 -52 -53 -54 -55 -56 -57 57 -59 -60 -61 -62 -63
leaf_value=0.041989758665051967 0.062812211670811205 -0.016043819105764072 0.048186521527146607 0.0011950127067478881 0.016090838347540992 0.038052629318172361 0.062849025388959909 0.058113548422009963 -0.018312393863638754 0.037094989207466254 0.0014203363102477855 0.03509276727308857 0.012315131340367418 0.037947840365403586 0.034940550335409111 0.051864873570358794 0.064307773619934033 -0.025072911150581599 0.048947874413679197 0.016607461047779173 0.028684530284098366 0.044399177330756913 -0.026879727208039939 0.013436824679536582 -0.0020531807008193174 0.035051595297221128 0.050549550999408562 0.058089146522279776 -0.0069543234671101814 -0.019873544486548819 0.0099686323247198515 0.0028722993521350893 0.012197212440666903 -0.028934979023572054 0.003775382242272298 0.034386402858822385 0.027154750994608106 0.029924356969103838 -0.021983747522389491 0.031167239143586808 -0.0077159726017925877 0.00068731468633934849 0.010284966444832759 0.0081012905242049873 -0.006481117353065005 0.027816299204744724 0.053967557757838062 0.037973684499143685 0.056384785511776364 0.027673440905532695 -0.011761884831349519 0.029572839689374224 0.0013606646276107435 -0.029570562933080961 0.012988064400959514 0.039820740361910995 0.030903612065698916 -0.0016335409237455045 0.064701501618758053 0.010356455597710142 0.030964477650080029 0.0080552597679576007
leaf_weight=92.771959632635117 90.022433042526245 152.46866378188133 48.133586689829826 433.13059544563293 46.747070848941803 259.1760366410017 33.348907738924026 76.965658515691757 28.281455188989639 231.43915611505508 99.836116328835487 37.274094939231873 134.18002696335316 38.893401861190796 25.24141637980938 11.882678613066672 22.561940476298332 15.432969331741331 57.160770460963249 89.30084753036499 164.20836371183395 17.307108134031296 96.402009755373001 69.175168305635452 68.320966750383377 361.64463496208191 149.44272664189339 50.731324806809425 114.16214925050735 154.34765030443668 336.21794685721397 43.282753527164459 170.92512381076813 13.405240178108214 31.465874716639519 245.4218470454216 117.40238963067532 74.245260372757912 8.9548618495464307 51.328024640679359 129.9249679595232 401.75348779559135 186.39859965443611 89.346391052007675 11.475442156195639 70.308373048901558 163.96935579180717 167.87892040610313 64.747653976082802 36.682325556874275 144.28207367658615 7.6739064902067176 44.022506460547447 278.44764812290668 33.70899561047554 38.474573045969009 72.562330484390259 24.871660277247429 39.180438101291656 68.4102763235569 72.006113335490227 14.746507421135901
leaf_count=281 211 768 142 1854 189 804 91 189 129 727 435 125 512 129 86 37 56 75 182 336 568 61 512 265 284 1125 417 131 501 787 1324 186 657 61 121 805 415 257 40 168 607 1726 763 341 47 253 435 513 173 112 718 32 183 1542 117 132 235 94 111 263 235 65
internal_value=0.0175032 0 0.028477 0.0208775 0.00877228 0.0366859 0.0131149 0.0316099 0.0182651 0.0299574 -0.015795 0.00926286 0.0162203 0.00170547 0.0329694 0.00673605 0.0260246 0.014565 0.0162091 0.0292745 0.0201601 -0.00554372 -0.00944988 0.00934862 0.0248649 0.041102 0.0477662 0.0379064 0.00344571 -0.0102749 0.0116611 0.0148372 0.0170745 0.00917558 0.0322233 0.0230277 0.0146074 0.0269145 0.023634 0.0437395 -0.00139423 0.00470196 0.0128168 0.0180361 0.0325474 0.0130688 0.0451187 0.0409626 0.0413396 0.0417603 -0.0215346 -0.0174963 0.013674 -0.0247963 0.033819 0.0229226 0.0338395 0.022574 0.0503702 0.0233141 0.0227369 -0.0222147
internal_weight=6523.51 2513.87 4009.64 2082.48 1616.22 1927.17 1122.99 1322.14 689.474 959.488 897.646 934.841 501.71 926.749 145.718 638.928 832.803 596.702 568.421 146.462 476.193 322.448 287.821 355.992 663.301 489.342 605.022 412.376 248.342 261.858 421.959 60.5899 416.949 184.33 188.149 615.167 194.678 420.489 126.357 84.6769 176.672 600.035 198.281 163.592 256.897 406.526 515 351.031 296.187 59.2443 575.198 162.022 69.2639 430.916 201.588 107.65 356.61 97.434 76.4545 232.619 103.472 111.149
internal_count=24740 11137 13603 7615 6608 5988 4384 4295 2580 3231 4529 3769 1915 4028 505 2655 2850 2299 2170 518 1717 1501 1373 1410 2331 1445 1693 1256 1013 1254 1652 247 1549 718 615 2189 739 1450 455 259 796 2526 800 598 852 1577 1482 1047 900 168 3028 819 269 2310 630 397 1133 329 236 831 356 577
is_linear=0
shrinkage=0.03


Tree=9
num_leaves=63
num_cat=0
split_feature=32 0 44 32 39 32 0 44 0 32 41 41 39 38 45 47 39 45 20 22 32 39 36 26 0 4 39 39 30 0 0 43 3 22 3 7 0 32 7 33 42 39 38 28 37 30 31 36 32 37 18 19 21 8 24 0 25 33 31 3 10 11
split_gain=1290.29 334.113 255.49 134.011 124.679 97.9969 96.2556 82.6341 79.39 77.111 57.3066 75.5479 56.7181 52.9166 48.5795 45.3886 42.4037 41.6531 38.1665 36.0461 35.7549 34.6666 33.8911 31.5125 31.398 31.3574 30.4489 29.1354 28.8878 27.875 25.9048 25.4123 25.3589 25.997 25.2335 25.0483 24.139 24.0639 23.9097 22.9637 22.132 45.9734 22.1079 21.827 21.1471 20.9186 20.8198 20.1612 19.8702 19.7927 20.1855 19.3173 19.6868 19.2179 18.3275 18.2728 17.7775 24.5855 17.7677 17.5686 17.5358 17.3793
threshold=0.26094675170576831 0.42204861111111119 1.0000000180025095e-35 0.34251316411155458 8.5000000000000018 0.33579373283870995 0.25760368663594474 1.0000000180025095e-35 0.23384370650228678 0.21594335266664857 4.5000000000000009 5.5000000000000009 15.500000000000002 5.5000000000000009 1.0000000180025095e-35 1.0000000180025095e-35 15.500000000000002 1.0000000180025095e-35 0.34166666666666673 0.48212005108556838 0.22378715844899422 9.5000000000000018 1.5000000000000002 0.3054093567251463 0.17362318840579713 0.39444444444444454 7.5000000000000009 13.500000000000002 0.19897216951296651 0.34454494064443192 0.58640755379885834 1.0000000180025095e-35 0.14218328840970354 0.40560125342734049 0.27806414662084772 0.96099033816425139 0.48793604651162797 0.25847044994694912 0.99974226804123723 0.064298081307177332 1.0000000180025095e-35 12.500000000000002 3.5000000000000004 0.14940476190476196 5.5000000000000009 0.14252205673774304 0.10228333711811612 3.5000000000000004 0.28735654104128266 4.5000000000000009 12444.09341264596 0.23244068592905806 0.18544973544973548 0.050423728813559332 0.25467684964367338 0.22068372803666922 0.14285937084657876 0.073737420027515724 0.18973582260990754 0.34752415458937203 9554.8044733044753 0.34417415829367187
decision_type=2 2 2 2 2 2 2 2 2 2 2 2 2 2 2 2 2 2 2 2 2 2 2 2 2 2 2 2 2 2 2 2 2 2 2 2 2 2 2 2 2 2 2 2 2 2 2 2 2 2 2 2 2 2 2 2 2 2 2 2 2 2
left_child=1 7 5 6 -3 8 21 18 -2 15 29 13 17 47 30 32 23 56 20 26 -1 22 -4 49 -21 61 35 -16 -28 51 -13 -7 53 -34 -15 -9 -25 38 -30 -37 41 -19 -42 -23 -20 -22 -26 -12 -45 -11 -51 -8 -53 -6 -27 -33 59 -58 -39 -10 -46 -5
right_child=2 4 3 25 9 31 10 19 12 16 11 14 -14 34 27 -17 -18 40 44 24 45 43 -24 36 46 54 28 -29 37 -31 -32 55 33 -35 -36 39 -38 58 -40 -41 42 -43 -44 48 60 -47 -48 -49 -50 50 -52 52 -54 -55 -56 -57 57 -59 -60 -61 -62 -63
leaf_value=0.0024124468426983793 0.047725132071358728 -0.027595345672313108 -0.0019460237637696492 0.031723936109363464 0.025829039647396541 0.061077935204134542 -0.0073813375316563257 -0.020487505035322866 0.036884462417839554 -0.0082202778869407203 0.035165894785988423 0.022783898954303092 0.041501114866842735 -0.00081571033836396519 -0.0015713589444428867 0.043988214624010993 0.039499252514901682 0.017152567162682673 0.024626297278183017 0.069444923928073832 0.045240121069126588 0.066168923165115953 0.029768000380141164 0.038133478386395234 -0.020836856858271212 -0.011798124243357237 0.017606601047244781 0.036010927052278117 -0.0019671334355668927 0.0020790615511594134 -0.013115279310499979 0.058010767025601172 -0.013801585118295346 0.010053923342009745 0.030647123173580697 -0.0058511151183071449 0.0042677213246686951 0.052595817290873662 0.055003405681669823 0.039716498524453692 0.023635842126500269 0.046324756966176717 0.0040605943693657913 0.021233671971178193 0.021221408889953008 0.018185056463540933 0.023485379203160239 0.061673113881390886 0.043923815103390676 0.015593974713121782 -0.0064359006812266199 0.0055821957492602544 0.027595634188145441 -0.02322846940135187 0.027874857278495827 0.040665025886361117 0.0062504473720951153 0.037657741036209204 -0.014948733751958545 0.019989782082048914 0.059153062973883563 0.048238525855011129
leaf_weight=138.3138210773468 216.53713436424732 301.08666335046291 43.635573834180832 94.985881969332695 7.263313114643096 86.360516145825386 27.285974472761154 85.501659736037254 316.65686097741127 235.99560038745403 52.051583990454674 277.33142012357712 225.53007698059082 38.536019057035446 201.61805440485477 11.751657277345656 26.766796976327896 196.31248384714127 124.31370997428894 11.454075664281843 29.983142539858818 24.919874906539917 97.975510612130165 31.848916426301003 11.45941451191902 11.024131402373312 129.34186786413193 20.337560877203941 326.17369639873505 445.19552151858807 19.180741205811501 65.391798198223114 166.77182541787624 54.327385857701302 55.919502928853035 38.112196654081345 47.174674928188324 13.180590555071833 6.6660307943820944 13.330782309174536 83.829202383756638 64.942628458142281 137.5533057898283 55.869410991668701 16.351128220558167 189.60000137984753 53.322163850069046 54.100338488817215 96.196634635329247 83.097165629267693 67.742424219846725 57.068551883101463 103.89230862259865 249.37031818926334 165.5407633036375 392.9823499917984 55.053073853254318 38.147419303655624 4.6264082789421073 68.681121557950974 36.221907570958138 154.81013382971287
leaf_count=573 588 1670 176 298 32 200 115 426 987 1091 170 990 638 157 832 41 82 701 429 30 92 62 329 110 52 44 507 69 1421 1890 87 162 833 223 195 177 201 43 21 51 290 195 528 189 57 695 197 150 283 340 307 228 366 1314 548 1132 210 125 21 232 101 437
internal_value=0.0168891 -1.48012e-06 0.0273742 0.0201036 -0.010707 0.0351997 0.0162682 0.0111832 0.030996 -0.00552418 0.0127683 0.0185658 0.0279372 0.0342039 0.0125039 -0.0139571 0.00285001 0.0247474 0.0200438 0.00434094 0.0143872 0.0311082 0.0199801 0.000729795 0.0237916 0.0351219 0.00192905 0.00187342 0.00549318 0.00618035 0.0204479 0.0460154 -0.0153977 -0.00792447 0.0177919 -0.0105362 0.0179855 0.00101264 -0.000800953 0.00595308 0.0185064 0.0244306 0.0114939 0.0399788 0.0314573 0.0219119 0.0155788 0.0487489 0.0356266 -0.00279123 0.00568272 0.0158575 0.0198177 -0.0218188 0.0253755 0.0431582 0.0310305 0.0191643 0.0348942 0.033887 0.0474753 0.041986
internal_weight=6556.6 2511.15 4045.45 2097.48 1283.2 1947.98 1671.11 1227.95 1403.24 982.11 1352.52 719.075 1186.71 200.607 518.468 489.484 492.626 961.176 534.784 693.169 357.897 318.597 141.611 465.859 76.2357 426.361 616.933 221.956 479.989 633.442 296.512 544.735 477.733 221.099 94.4555 136.945 79.0236 350.647 332.84 51.443 482.638 261.255 221.383 176.986 176.887 219.583 64.7816 106.152 152.066 386.835 150.84 188.247 160.961 256.634 176.565 458.374 478.538 93.2005 17.807 385.338 52.573 249.796
internal_count=24740 11137 13603 7615 6244 5988 6288 4893 4494 4574 5249 2650 3906 672 1978 2443 2131 3268 1947 2946 1360 1039 505 2049 279 1327 2667 901 2013 2599 1077 1494 2402 1056 352 654 311 1506 1442 228 1714 896 818 534 587 787 249 320 472 1738 647 709 594 1346 592 1294 1554 335 64 1219 158 735
is_linear=0
shrinkage=0.03


Tree=10
num_leaves=63
num_cat=0
split_feature=32 35 44 35 36 32 32 37 39 39 40 0 35 32 0 37 40 40 46 38 39 32 39 39 32 36 36 3 13 42 36 37 25 22 37 13 13 19 0 40 40 40 39 32 49 25 35 33 26 7 35 46 26 45 22 14 0 0 39 7 40 34
split_gain=1184.84 393.86 270.316 161.37 111.924 104.882 96.8538 78.9481 74.7364 58.0392 55.3524 54.2186 46.3659 45.8587 43.633 42.9528 42.2308 62.4106 57.9363 48.3639 41.6149 33.703 33.3547 33.0164 32.7849 31.9267 30.5008 28.593 28.4066 26.3877 55.2661 37.4631 26.0098 25.2889 24.4123 24.4003 24.2048 26.1188 24.0745 23.9154 51.4277 51.4158 23.3951 23.289 22.63 21.3437 21.3035 25.7469 21.0535 26.9215 25.3567 20.4925 19.867 19.8428 19.0908 25.2887 18.8137 18.0461 17.4035 17.765 17.3702 17.1637
threshold=0.26094675170576831 0.20104534789809608 1.0000000180025095e-35 0.057450739441727898 2.5000000000000004 0.2222362517157119 0.33579373283870995 4.5000000000000009 14.500000000000002 10.500000000000002 1.6663331665265237 0.3054093567251463 -0.13917537952625667 0.3633076846150875 0.2091287747309962 5.5000000000000009 1.8772389194269605 2.3048683211262326 1.0000000180025095e-35 5.5000000000000009 13.500000000000002 0.16918035127183004 8.5000000000000018 15.500000000000002 0.2773795904576809 1.5000000000000002 1.5000000000000002 0.27315608919382511 0.24544852697782193 1.0000000180025095e-35 5.5000000000000009 5.5000000000000009 0.06263242142550389 0.57601438109912706 6.5000000000000009 0.17425810904071776 0.28647416413373866 0.25126262626262635 0.20220057720057724 2.3048683211262326 1.6663331665265237 1.4401061453900497 7.5000000000000009 0.35790734181789385 1.0000000180025095e-35 0.14532631570594592 0.082457950832401247 0.10135662195216978 0.25089928057553962 0.8628618693134823 0.21638579433737412 1.0000000180025095e-35 0.11050061050061051 1.0000000180025095e-35 0.58102025506376609 0.48212005108556838 0.53262411347517735 0.38416815742397142 13.500000000000002 0.8528750826173167 2.107525783562807 0.90559207088451765
decision_type=2 2 2 2 2 2 2 2 2 2 2 2 2 2 2 2 2 2 2 2 2 2 2 2 2 2 2 2 2 2 2 2 2 2 2 2 2 2 2 2 2 2 2 2 2 2 2 2 2 2 2 2 2 2 2 2 2 2 2 2 2 2
left_child=1 4 6 10 15 22 8 12 11 -7 26 51 54 16 -12 38 25 19 32 -18 -20 -9 -3 -11 -16 -5 43 58 34 30 31 -13 -19 53 -17 -23 60 -38 -1 40 41 -10 -40 61 -28 -43 -8 -48 50 -50 -27 -2 -37 -26 55 -6 -21 -24 59 -14 -31 -4
right_child=2 5 3 13 7 9 46 21 39 23 14 29 27 -15 24 28 17 18 20 56 -22 35 57 -25 33 48 44 -29 -30 36 -32 -33 -34 -35 -36 52 37 -39 42 -41 -42 45 -44 -45 -46 -47 47 -49 49 -51 -52 -53 -54 -55 -56 -57 -58 -59 -60 -61 -62 -63
leaf_value=0.0097751292498462379 0.026558545471089368 -0.034080591682216596 0.018444518324363609 -0.0059640583551127148 0.025750902771319775 -0.014584480001458426 0.05011565792208026 -0.00074655812834427046 0.046607230500654732 0.0034877359670358659 0.04679311779038392 0.01796541459925154 -0.016361412298366962 0.030821935462683331 0.0097374713675694221 0.048914327368005203 0.045028778360277917 0.018566298389210468 0.018438061748438987 0.019298801814822256 0.071522111908298464 0.047218060352653135 0.0020583269012395171 0.042748237720397812 0.036211219214534129 0.02416846262468127 0.021286351320256473 0.021705958546861241 0.002151973643280413 -0.0030771739716951418 0.057492905245703954 0.046845863283181348 -0.0046362485554175764 0.061247591706610205 0.011466786147934619 -0.0062830983111093371 -0.0061408900801716145 0.028697267889533019 -0.019390085502656182 0.024527935083849563 0.062956728097541909 0.024357451114534124 -0.0026764683437992096 0.042951749017058317 0.062814372843775654 -0.01683430154823538 0.034210187457553685 0.063498954790201748 0.025860023673405726 -0.015173689889846544 0.0033961379942119029 0.042030732348238814 0.030613154567132331 0.023133003581443112 0.045956437129221227 -0.029358977273070692 -0.021161108911015778 -0.019485025969438827 0.017036686852103709 0.0034258723438596664 0.022186944618056672 -0.009986997085716251
leaf_weight=86.864659622311592 133.11293479800224 148.98242346942425 27.194164916872978 204.64053343236446 67.253819450736046 208.41425101459026 315.09821277856827 27.153066977858543 167.23358020186424 236.19143126904964 153.14752785861492 323.84471908211708 48.116141706705093 99.860288873314857 72.625471130013466 30.479278773069382 91.267655059695244 54.836810782551765 118.67437240481377 78.250701725482941 14.958786576986311 86.380662322044373 37.816801488399506 20.924862682819366 215.66511306166649 111.8029315918684 169.9768098294735 95.977046459913254 73.696249902248383 91.90238156914711 43.217653036117554 46.36343041062355 208.38461494445801 24.564954429864883 32.833355218172073 14.324071511626242 23.596628025174141 103.88733498752117 109.03721649944782 69.275044560432434 94.437300056219101 72.825102627277374 245.54494306445122 11.946343481540678 12.727764055132864 13.239331528544424 207.96670657396317 31.519297569990158 19.464604184031487 54.105136454105377 101.07851895689964 190.84706217050552 138.99844750761986 208.17079834640026 37.567112728953362 8.2990807443857175 11.764595672488211 428.19655983150005 68.865772470831871 266.40625457465649 33.219515591859818 63.513223215937614
leaf_count=345 422 878 101 896 228 1053 812 112 430 1021 424 1137 223 313 272 97 275 199 431 285 40 266 169 62 669 411 596 361 301 360 121 139 873 65 126 57 93 347 554 222 240 241 1063 34 35 55 610 75 75 244 428 536 474 709 114 36 54 2244 260 1123 115 267
internal_value=0.0163046 0.000114543 0.0262718 0.0188637 0.0104005 -0.0135693 0.034308 0.0172672 0.0301117 -0.00281806 0.027983 0.025611 0.0111535 0.0113746 0.0326763 0.000193001 0.00955279 0.0150484 0.00837222 0.0296344 0.0244517 0.0308205 -0.0217009 0.00670991 0.028513 0.00307518 0.0168768 0.00706522 0.0148656 0.0206981 0.0253742 0.0216021 0.000191351 0.0315445 0.0295904 0.0344076 0.0130262 0.0222256 -0.00435639 0.0407807 0.0440019 0.0369011 -0.00782853 0.00375202 0.0242285 0.0179739 0.0449412 0.0381024 0.0095431 -0.00425617 0.0143258 0.0356927 0.0271447 0.0298018 0.0284303 0.0196269 0.01396 -0.0177303 0.00338754 0.000385008 0.00361878 -0.00141924
internal_weight=6608.53 2518.32 4090.21 2128.62 1437.8 1080.53 1961.59 859.341 1407 465.531 959.532 989.992 592.485 1169.09 674.174 578.456 1069.23 578.138 396.855 181.283 133.633 266.856 614.996 257.116 521.026 491.092 285.358 479.365 137.009 666.032 413.426 370.208 263.221 448.401 63.3126 239.703 252.606 127.484 441.447 417.01 347.735 253.298 354.582 102.654 182.705 86.0644 554.584 239.486 286.451 73.5697 212.881 323.96 153.323 423.836 113.12 75.5529 90.0153 466.013 383.388 314.522 125.122 90.7074
internal_count=24818 11167 13651 7696 5740 5427 5955 3254 4458 2136 3172 3270 2345 4524 2139 2486 4211 2157 1543 614 471 909 3291 1083 1715 2054 1033 1967 524 2312 1397 1276 1072 1443 223 797 915 440 1962 1188 966 726 1617 402 631 296 1497 685 1158 319 839 958 531 1378 378 264 339 2413 1606 1346 475 368
is_linear=0
shrinkage=0.03


Tree=11
num_leaves=63
num_cat=0
split_feature=32 35 44 6 36 32 32 32 39 35 39 35 0 32 39 39 14 39 6 32 39 0 40 27 42 36 40 40 40 40 26 29 7 6 22 40 8 35 25 7 35 33 40 46 10 46 8 8 35 32 40 0 15 8 10 19 0 8 36 19 35 35
split_gain=1100.61 371.636 249.876 155.698 104.206 100.776 89.4405 81.2501 69.0852 56.1069 54.9329 50.6977 50.1322 43.4626 38.6853 32.8354 32.6284 30.573 28.9663 28.4863 27.4008 27.6777 26.3475 26.0656 24.3395 50.2712 24.3564 23.1793 25.1191 59.0704 22.8609 23.4337 22.5228 22.3483 27.3551 22.222 21.4067 20.2146 19.9303 19.7185 19.5948 23.54 18.8323 50.3199 22.463 18.828 18.6552 18.4395 20.3922 18.2583 18.1093 17.3069 17.3022 17.2274 16.6018 16.583 16.4502 16.2315 16.047 15.5441 15.3555 15.2384
threshold=0.26094675170576831 0.20104534789809608 1.0000000180025095e-35 0.25677655677655681 2.5000000000000004 0.2222362517157119 0.33579373283870995 0.34388868388307742 14.500000000000002 -0.15527322918627265 10.500000000000002 0.10814862569329324 0.3054093567251463 0.20795733315901413 7.5000000000000009 8.5000000000000018 0.078461538461538485 15.500000000000002 0.60136986301369866 0.2773795904576809 13.500000000000002 0.46110630942091624 1.6663331665265237 0.58793208004851438 1.0000000180025095e-35 5.5000000000000009 1.4401061453900497 1.0318578549261868 1.6663331665265237 2.3048683211262326 0.16990566037735852 0.023570226039551605 0.84347993827160506 0.29449472096530926 0.47014260249554374 1.4401061453900497 0.080816326530612256 0.030858307861872939 0.14532631570594592 0.97086442786069671 0.082457950832401247 0.10135662195216978 1.8772389194269605 1.0000000180025095e-35 22069.315432994681 1.0000000180025095e-35 0.34400614754098363 0.65582770270270274 0.028885554722013842 0.26877717700388287 2.107525783562807 0.38416815742397142 0.87137002341920389 0.18245838668373884 24888.38916256158 0.25126262626262635 0.28292357537640561 0.49058249040809215 3.5000000000000004 0.21896404109589043 -0.0079336469026447653 -0.27502148894678929
decision_type=2 2 2 2 2 2 2 2 2 2 2 2 2 2 2 2 2 2 2 2 2 2 2 2 2 2 2 2 2 2 2 2 2 2 2 2 2 2 2 2 2 2 2 2 2 2 2 2 2 2 2 2 2 2 2 2 2 2 2 2 2 2
left_child=1 4 6 22 14 15 8 11 12 -6 57 16 45 47 33 -3 -5 -12 42 -18 21 32 49 -21 25 26 -14 -10 35 -30 -16 56 -15 34 39 60 -22 -9 -37 -1 -8 -42 44 -44 -13 -2 -39 48 -11 -4 55 -17 -52 -24 -31 -26 -32 -7 -47 -23 -29 -33
right_child=2 5 3 7 9 10 40 37 27 13 17 18 24 20 30 51 19 -19 -20 23 36 59 53 -25 50 -27 -28 28 29 54 31 61 -34 -35 -36 38 -38 46 -40 -41 41 -43 43 -45 -46 58 -48 -49 -50 -51 52 -53 -54 -55 -56 -57 -58 -59 -60 -61 -62 -63
leaf_value=-0.019109904456256085 0.025563443427224053 -0.033726888814117686 -0.010860883462471998 0.046375669486697718 0.033256918927304861 -0.017240574678987399 0.048079381935817879 0.037915449954323471 0.056001702844307853 0.00939280893955949 0.0033776895554587893 0.0048331114330132287 0.016942247629769158 -0.010842787169870506 0.012609784463297189 0.0019947646853308333 0.0026940359643326389 0.040934068065605907 -0.0091355586775386903 0.017151204786314482 0.073081942656103641 0.014767601492532876 0.052427822541063714 0.049125901749911459 -0.011176810849404898 0.054740167852222708 0.036187371515344444 0.053050966660668906 0.060029536624365491 0.018467966376579877 0.064595151281721788 0.027628277798615441 0.018632830015370649 -0.023811827979171613 0.069356308335473155 0.023445663530689848 0.025291411911768012 0.029630952417106993 -0.016432713460264883 0.02258011647511686 0.03289580331783204 0.060721855945194782 0.002371535730118409 0.025890563554255647 -0.027135566242095732 0.031189608482306754 0.011626583361297779 0.03015961016484563 -0.01235677636058187 0.026825806605091845 -0.010125582080404148 -0.019100761463500329 0.031106349290386612 0.035390877198618512 0.066151569736383087 0.011872481637160958 0.0060858657234341565 0.0093297597015769944 0.048739597399485711 -0.018057815031580774 0.029025160710345065 -0.005403166006711633
leaf_weight=31.401871904730797 134.13364568352699 146.07363712787628 12.88242547214031 32.503380239009857 151.13525435328484 183.74940866231918 318.53961190581322 114.14169023931026 63.446089848875999 67.588809251785278 236.56745484471321 274.72198134660721 298.49441914260387 25.053228542208672 181.67759899795055 37.853776544332504 125.5041501969099 21.196807101368904 102.63402864336967 491.40381406247616 8.992859870195387 20.028080686926842 72.707657054066658 24.127187296748161 34.585405305027962 44.02146053314209 74.423652932047844 38.908972427248955 96.050153911113739 62.41482949256897 7.7324077785015133 13.164418146014212 306.9934646487236 81.259904727339745 4.7408619672060004 73.382670119404793 141.53781424462795 126.42743162810802 13.159657821059225 14.969027757644652 209.7636437267065 31.969372048974037 182.49560837447643 148.88749520480633 21.199373871088028 92.797548830509186 89.217770591378212 16.533381924033165 90.597148224711418 101.41079850494862 10.546850904822348 423.77620884776115 62.917254567146301 221.0877713561058 7.351792335510253 145.68008635938168 9.9932900518178922 23.099266707897186 100.0908589810133 36.227321103215218 66.390490770339966 233.27382498979568
leaf_count=155 422 878 53 95 476 947 812 332 150 276 1021 1155 1042 110 706 169 499 62 464 1768 22 80 189 71 140 121 234 92 240 204 23 44 1164 429 14 241 483 403 55 60 610 75 742 512 101 272 314 62 412 335 42 2244 204 663 18 529 42 106 264 169 188 1013
internal_value=0.015748 0.000108795 0.0252936 0.0181867 0.0100508 -0.013266 0.0329804 0.0142571 0.0289619 0.016643 -0.00273948 0.0111035 0.024648 0.0131156 0.000186288 -0.0213073 0.017041 0.00649239 0.00561908 0.0155419 0.0173311 0.0130986 0.034862 0.0186627 0.019936 0.0244027 0.0207997 0.039167 0.0361574 0.0447533 0.00441998 -0.00120381 0.0163972 -0.0140432 0.00144512 0.0286927 0.028213 0.0276613 0.0173352 -0.00556773 0.0431444 0.0366118 0.00803896 0.0129521 0.00252439 0.0342935 0.0222048 9.56415e-05 -0.00304472 0.022546 0.0125775 -0.0173644 0.0251404 0.0396337 0.0236231 0.00742991 0.0319966 -0.0142558 0.0403325 -0.00631259 0.0379733 -0.00361601
internal_weight=6635.64 2515.22 4120.42 2141.35 1442.9 1072.32 1979.07 1733.26 1418.8 864.687 464.613 1403.48 997.691 713.552 578.213 607.704 673.539 257.764 729.938 641.035 538.833 388.302 408.089 515.531 670.669 416.94 372.918 421.105 357.659 165.817 445.842 264.164 332.047 132.372 51.1118 191.842 150.531 329.787 86.5423 46.3709 560.273 241.733 627.304 331.383 295.921 327.022 215.645 174.719 158.186 114.293 253.73 461.63 73.4641 293.795 69.7666 180.265 17.7257 206.849 192.888 56.2554 105.299 246.438
internal_count=24818 11167 13651 7696 5740 5427 5955 6456 4458 3254 2136 5407 3270 2778 2486 3291 2433 1083 2974 2338 2028 1523 1240 1839 2312 1397 1276 1188 1038 462 1828 1122 1274 658 229 576 505 1049 296 215 1497 685 2510 1254 1256 958 717 750 688 388 915 2413 246 852 222 669 65 1053 536 249 280 1057
is_linear=0
shrinkage=0.03


Tree=12
num_leaves=63
num_cat=0
split_feature=3 39 0 35 11 39 39 6 42 36 39 0 11 39 40 11 19 11 10 22 15 19 25 19 27 29 11 36 27 22 39 36 35 47 14 3 6 39 36 36 36 35 12 3 40 35 30 19 24 8 26 36 30 0 36 14 10 3 22 27 35 0
split_gain=778.043 261.802 227.062 177.963 86.7215 82.4831 76.0209 75.6631 75.4924 86.5796 55.6935 55.4949 54.0824 51.255 50.7258 49.4502 42.7749 38.0418 36.165 34.7568 33.9484 33.4443 32.4506 35.0572 31.8133 31.6994 32.857 29.6613 29.7337 31.0288 29.221 28.1345 27.5779 26.8438 25.4924 26.4306 24.9651 23.6333 23.1759 29.9853 34.2154 22.5507 31.1159 22.2379 21.5871 21.2029 21.5144 21.0128 20.8106 20.5969 20.297 20.2601 19.4674 19.2541 19.5786 19.1484 18.717 17.6695 17.2875 16.9808 16.8 16.5351
threshold=0.20887321633590292 9.5000000000000018 0.45571895424836606 0.05261870114483664 0.31471077819392429 15.500000000000002 8.5000000000000018 0.39339826839826847 1.0000000180025095e-35 5.5000000000000009 11.500000000000002 0.21231060606060609 0.28647416413373866 10.500000000000002 2.9056810222284128 0.27461753932342176 0.25556655121227118 0.24636459430979982 12263.412734768668 0.39668856048166395 0.99086270871985171 0.32282878411910676 0.090627589181088347 0.32230727173318757 0.32094158835452374 0.30366872604048373 0.25500200080032015 5.5000000000000009 0.25949975949975951 0.27130750605326881 17.500000000000004 1.5000000000000002 -0.19559230482677875 1.0000000180025095e-35 0.11884584342211461 0.34752415458937203 0.62178642056690847 15.500000000000002 2.5000000000000004 6.5000000000000009 5.5000000000000009 0.15751286910093101 0.34166666666666673 0.27408307556341144 2.107525783562807 0.3167260955834606 0.25003607503607511 0.29190074906367047 0.23445376661630049 0.35111427216690377 0.21231060606060609 8.5000000000000018 0.16173620878262232 0.42204861111111119 1.5000000000000002 0.30461293743372225 6414.1328828828837 0.38762755102040819 0.34454494064443192 0.24357284113381678 -0.12002580243915288 0.5187529301453353
decision_type=2 2 2 2 2 2 2 2 2 2 2 2 2 2 2 2 2 2 2 2 2 2 2 2 2 2 2 2 2 2 2 2 2 2 2 2 2 2 2 2 2 2 2 2 2 2 2 2 2 2 2 2 2 2 2 2 2 2 2 2 2 2
left_child=2 7 6 11 13 8 19 15 9 10 17 43 38 -4 -7 27 18 -5 52 -1 -6 45 -15 33 -18 26 32 28 59 56 34 -17 -8 -24 -14 -36 -12 49 -13 40 -40 -33 -43 47 -23 46 57 55 -20 50 -28 -26 -10 54 -34 -3 -30 -9 -57 -2 -48 -16
right_child=1 3 4 5 20 14 25 21 16 -11 36 12 30 22 61 31 24 -19 48 -21 -22 44 23 -25 51 -27 37 -29 29 -31 -32 41 53 -35 35 -37 -38 -39 39 -41 -42 42 -44 -45 -46 -47 60 -49 -50 -51 -52 -53 -54 -55 -56 58 -58 -59 -60 -61 -62 -63
leaf_value=-0.015553300246712058 0.019216739001744518 0.03292019757644217 -0.025449996914742829 0.00049779395195240727 0.0013568980198199133 0.040034320043635621 0.036399143763231445 0.011045145911865614 0.025541756721362358 0.050447075317808898 0.031797809957449102 0.012665865533433721 0.050607844201781667 0.019884569635835559 0.01264720710964254 0.01088234135532138 0.0369915491036217 0.019232059422119984 0.034502117830634275 0.020910656387417782 0.040229751318325645 0.0087122794039769889 -0.017713508404490399 0.0083852911063322915 0.013751919558124631 0.086763135433385624 0.019858533033626346 0.061862841608879032 0.025600830644936682 0.013228228835776044 0.056745959388279928 0.032530307772832563 -0.010983140235282522 0.045351755460169847 0.026647665272110568 0.039712571582706281 -0.00765975821612649 0.056351955707775972 0.027665807503195913 0.01322637079400418 0.061101101872354076 -0.017438295832848654 0.037342075022584846 0.046768960001875942 0.044510709718897506 -0.018442660079533851 0.02416340082205496 0.045484272124342071 0.0055520958816375286 0.0037586545917802109 0.045901808664798725 -0.02735871146147521 -0.014361695471189061 -0.0117770046739217 0.012699216280716139 -0.017099517557921332 -0.0083775633327038239 0.071764714740102278 0.032305179690690126 0.065750077101249943 -0.0060108586047825175 -0.035910372714576311
leaf_weight=125.05785046517849 23.612661525607109 42.612187519669533 353.86474867165089 145.61559364199638 136.81236061453819 224.20000465214252 27.730501055717468 55.929666876792908 12.000865936279295 94.002362668514252 286.62940350174904 168.02489379048347 66.436673253774643 30.610738053917885 23.576923847198486 111.60018725693226 54.342236816883087 297.53101170063019 27.952009603381157 28.821490928530693 23.666393458843231 163.37190473079681 295.53767214715481 61.557212650775909 601.79481157660484 5.4314326196908942 128.56681802868843 8.9346205592155439 16.023112714290619 165.93027375638485 49.73734039068222 224.49679777026176 37.466734662652016 6.0831087678670874 427.5608995705843 210.27461823821068 15.032411485910414 17.605535581707954 230.20541213452816 114.08403441309929 31.524011746048927 20.52920438349247 16.898034363985062 277.10794793069363 16.692414179444313 70.344497576355934 17.673852816224098 53.62578946352005 112.17141106724739 52.704480215907097 34.475953653454781 10.848257929086683 117.34680266678333 49.976099237799644 188.89336113631725 17.511013627052311 150.76294764876366 4.6111587882041922 9.8861364871263486 10.243905305862425 247.18931947648525 8.5043274611234647
leaf_count=625 85 129 1981 603 586 606 86 236 42 264 917 606 173 117 83 413 162 1043 91 117 82 635 1517 252 2193 14 453 25 63 629 115 699 169 21 1337 589 62 44 742 395 81 87 56 722 51 359 64 141 445 204 107 47 527 238 735 72 658 13 31 28 1112 39
internal_value=0.0152177 0.0209953 -0.00297885 0.0250646 -0.0128637 0.0190675 0.0099009 0.00953484 0.0167657 0.0233055 0.0198696 0.032234 0.0292081 -0.0171595 0.0349876 0.0158205 0.0109028 0.0130843 0.000803267 -0.008695 0.00712979 0.00135173 -0.00969736 -0.0122037 0.014978 0.0151784 0.0144333 0.00811722 0.00678256 0.00404183 0.0344181 0.0235525 0.00791581 -0.0164171 0.0328292 0.030965 0.0298197 0.0229059 0.0219741 0.0261233 0.0317262 0.0289332 0.00724817 0.0420164 0.0120704 -0.00351947 -0.000279547 0.0313107 0.011369 0.0201379 0.0254086 0.0130147 -0.0106194 0.00503451 0.00876299 0.0203619 -0.0050819 0.0158301 0.000671491 0.0335367 -0.0039777 -0.000203151
internal_weight=6659.85 5054.98 1604.86 3730.14 908.132 2031.55 696.73 1324.84 1775.27 838.811 744.808 1698.59 1297.85 747.653 256.281 749.032 936.456 443.147 269.471 153.879 160.479 575.813 393.789 363.178 666.985 542.851 537.419 375.508 366.573 332.716 754.01 373.524 304.067 301.621 704.272 637.836 301.662 233.353 543.838 375.813 261.729 261.924 37.4272 400.743 180.064 395.748 325.404 123.635 140.123 215.747 163.043 612.643 129.348 276.336 226.36 70.0093 166.786 60.5408 27.3972 33.8566 264.863 32.0813
internal_count=24818 17470 7348 12257 4556 7124 2792 5213 6396 2889 2625 5133 4038 3888 728 2743 3507 1646 1105 742 668 2470 1907 1790 2402 2050 2036 1488 1463 1350 2214 1255 1228 1538 2099 1926 979 808 1824 1218 823 842 143 1095 686 1784 1425 373 536 764 560 2240 569 1142 904 232 721 249 103 113 1176 122
is_linear=0
shrinkage=0.03


Tree=13
num_leaves=63
num_cat=0
split_feature=32 35 44 6 32 36 32 32 37 39 39 38 40 46 37 35 46 39 39 6 32 39 42 39 35 40 38 32 40 35 36 8 13 23 40 2 35 39 32 6 22 14 6 7 32 16 39 46 40 40 35 10 35 38 23 14 22 16 35 18 35 33
split_gain=967.111 333.336 219.738 137.395 93.3446 92.8399 80.4212 72.7817 68.7999 61.5731 50.0066 45.8952 47.065 44.3427 38.482 37.8474 37.2816 41.757 32.124 31.6659 29.1226 27.542 26.3566 33.2717 30.3071 26.6552 25.7656 24.1103 23.4596 21.7683 21.7045 21.5653 21.1542 21.1005 20.989 23.4031 26.1905 20.6698 20.0902 19.978 19.8954 26.3681 19.5389 23.7104 21.599 20.1759 19.278 19.2694 18.9368 42.5686 18.3108 17.5027 17.4458 17.6568 21.1864 18.7369 17.4079 17.3335 17.133 16.8265 16.7241 21.8246
threshold=0.26094675170576831 0.20104534789809608 1.0000000180025095e-35 0.25677655677655681 0.2222362517157119 2.5000000000000004 0.33579373283870995 0.34388868388307742 4.5000000000000009 14.500000000000002 10.500000000000002 1.5000000000000002 1.8772389194269605 1.0000000180025095e-35 5.5000000000000009 -0.13917537952625667 1.0000000180025095e-35 9.5000000000000018 8.5000000000000018 0.45988845988845994 0.16918035127183004 15.500000000000002 1.0000000180025095e-35 12.500000000000002 0.1829164150242133 1.6663331665265237 6.5000000000000009 0.37324432404540769 1.6663331665265237 0.29192767293869393 1.5000000000000002 0.19336510263929621 0.17425810904071776 0.97819293478260883 1.0318578549261868 11687.020433694748 0.0071225649350649132 13.500000000000002 0.26877717700388287 0.20156250000000003 0.58513575701794762 0.48212005108556838 0.40765107212475638 0.84471651536868941 0.20795733315901413 0.20743212149102627 7.5000000000000009 1.0000000180025095e-35 2.3048683211262326 1.6663331665265237 -0.13917537952625667 8090.0000000000009 0.030858307861872939 2.5000000000000004 0.95515030946065438 0.35767590618336892 0.31287650602409645 0.10367218987908645 0.050727848304469837 8375.6976744186068 0.082457950832401247 0.056263901869381273
decision_type=2 2 2 2 2 2 2 2 2 2 2 2 2 2 2 2 2 2 2 2 2 2 2 2 2 2 2 2 2 2 2 2 2 2 2 2 2 2 2 2 2 2 2 2 2 2 2 2 2 2 2 2 2 2 2 2 2 2 2 2 2 2
left_child=1 5 6 27 18 14 9 11 15 13 -6 29 30 22 39 33 17 -14 -3 58 -10 -12 23 25 -25 -2 31 28 -4 38 -13 51 -22 40 -11 36 -36 -18 -5 -1 41 -7 43 56 -45 -44 -41 -40 49 -37 -33 -16 -9 -54 55 -55 -17 -34 -15 -47 -8 -62
right_child=2 4 3 7 10 8 60 52 20 34 21 12 16 19 26 42 37 -19 -20 -21 32 -23 -24 24 -26 -27 -28 -29 -30 -31 -32 50 57 -35 35 48 -38 -39 47 46 -42 -43 45 44 -46 59 -48 -49 -50 -51 -52 -53 53 54 -56 -57 -58 -59 -60 -61 61 -63
leaf_value=0.0083958006258574389 0.014147781050121369 -0.033169093703860481 0.018306950596015191 -0.00091753728124208589 -0.013787219833316523 0.027207050123303256 0.044806218073915216 0.035277930266306476 -0.0012956324708652894 0.052393610700089126 0.0030818614899205243 -0.0055168540221541742 0.052660911057200596 0.040674092658877233 -0.011259621445588994 -0.037506899195848327 0.01984697028602499 0.00393364015560798 -0.016749975675224255 0.015684151909196437 0.042982872304451886 0.03845770721128168 0.0092999805036440095 0.051830277437283148 0.0070308860750393698 0.048342630144173518 0.055852356558994364 0.057048776108750698 0.034955868369219899 -0.0009230822544842081 0.0073505877173712956 0.027761010517021369 -0.016257862403119681 -0.0060276880946929026 0.046991126316099537 0.032226787919771745 0.013802996564858486 0.05856090150690979 0.018217291252050197 -0.018001326127639144 0.049465734435452283 -0.034743338834941448 0.049267621310615656 -0.0023352467837991667 0.017170124013972481 0.011480057805137642 -0.0028069880744266799 0.033968569310497236 0.022348068675060048 0.061141836184777754 -0.0054346669037028707 0.038971410850621911 0.031443606575417594 0.03511976626709893 -0.00075199402868745017 0.0050451908370264444 0.011778610914190723 0.026971565236171977 0.027331765979964853 -0.010527875765677906 0.025914259189624509 0.044017507562419129
leaf_weight=88.463227465748787 221.56136034429073 141.35449033975601 107.26606996357441 31.128195226192474 204.50500732660294 59.814906269311905 323.50441415607929 116.10962501168251 27.304955467581749 64.394022718071938 237.50819040834904 269.20994827151299 16.587296143174171 179.00001686811447 7.7057920545339575 15.255353257060053 221.02630341053009 314.1800102442503 454.09216244518757 111.39873985946178 89.059839010238647 21.54648956656456 229.55270777642727 54.182871282100677 18.392502218484879 22.648514300584793 11.910935118794439 33.307671532034874 274.13086572289467 42.077752202749252 209.84654757380486 18.913771629333496 8.69367967545986 16.517405986785889 28.802269592881203 124.30783528089523 84.869745194911957 13.185788959264753 183.15802243351936 109.19851802289486 33.085125833749771 6.7686714977025977 6.4413985162973395 65.321508884429932 229.91325151920319 42.882422268390656 242.72344008088112 115.07779206335545 51.138366356492043 73.780099183320999 69.766895353794098 30.217740088701248 85.508487448096275 49.108005717396736 53.06790617108345 30.487433820962906 10.932477533817289 148.12195415794849 174.5414075255394 113.91695450246334 132.15645568072796 112.8443803191185
leaf_count=348 761 878 368 125 1053 193 812 332 112 150 1021 1161 49 483 33 75 762 1219 2413 389 266 62 818 143 67 63 35 78 794 177 840 63 36 62 73 352 282 36 662 565 93 30 21 281 855 178 1049 376 159 172 295 98 265 148 195 109 43 495 546 514 390 295
internal_value=0.014707 0 0.0235623 0.0169276 -0.0127993 0.00933049 0.0307146 0.0132437 0.0155016 0.0269293 -0.00269634 0.0102654 0.00703762 0.0228824 6.9957e-06 0.00981578 0.0129022 0.00640146 -0.0206577 0.0297023 0.0279883 0.00604948 0.0170688 0.0226841 0.0405435 0.0173498 0.013798 0.0324572 0.0302873 0.0193257 0.000113714 0.00977689 0.0312517 0.025195 0.0364924 0.0336489 0.0222725 0.0220634 0.0219212 -0.00432605 0.0304003 0.0208217 0.00611837 0.0104117 0.012845 -0.00231808 -0.00753396 0.0243145 0.0388146 0.0430371 0.0016348 0.0286832 0.0258387 0.0207876 0.0138782 0.0236587 -0.0168513 0.024547 0.0341051 -0.00448641 0.0402816 0.0342792
internal_weight=6683.48 2511.94 4171.54 2164.46 1059.01 1452.93 2007.08 1749.76 874.03 1438.57 463.56 1415.48 1044.04 1011.28 578.9 600.849 564.979 330.767 595.447 464.94 273.18 259.055 546.338 316.785 72.5754 244.21 138.515 414.705 381.397 371.442 479.056 126.604 245.875 116.186 427.292 362.898 113.672 234.212 329.364 440.385 99.6687 66.5836 484.663 321.423 295.235 163.241 351.922 298.236 249.226 198.088 88.6807 37.9235 334.281 218.172 132.663 79.5954 26.1878 156.816 353.541 156.799 568.505 245.001
internal_count=24818 11167 13651 7696 5427 5740 5955 6456 3254 4458 2136 5407 4067 3270 2486 2345 2066 1268 3291 1418 909 1083 1852 1034 210 824 524 1240 1162 1340 2001 489 797 378 1188 1038 355 798 1163 1962 316 223 1967 1254 1136 713 1614 1038 683 524 358 131 1049 717 452 257 118 531 1029 692 1497 685
is_linear=0
shrinkage=0.03


Tree=14
num_leaves=63
num_cat=0
split_feature=32 35 44 35 32 44 43 32 6 35 39 39 8 32 6 35 35 40 40 38 39 46 37 32 43 32 46 39 43 14 6 8 16 38 38 2 27 38 21 24 40 39 10 36 31 11 10 8 19 24 32 0 39 3 6 6 11 6 3 32 23 34
split_gain=901.588 306.849 175.024 128.279 116.548 109.598 67.4363 58.8899 52.2496 48.536 47.8237 47.3222 40.1225 38.7706 37.0271 33.1033 29.3637 29.1604 49.0502 40.154 27.9883 27.0763 25.0063 24.0799 23.6144 23.1039 23.0498 29.6714 22.8891 22.4768 22.3595 22.3211 20.5526 19.8894 19.7018 22.4202 26.7825 19.7422 18.8355 18.6972 18.1454 17.958 17.8581 17.7612 17.6089 21.2852 19.921 17.4666 17.4324 36.7627 17.3915 17.2549 17.0006 18.1204 16.9664 18.9318 16.5761 16.24 17.594 16.1832 16.1503 15.5645
