tree
version=v4
num_class=1
num_tree_per_iteration=1
label_index=0
max_feature_idx=28
objective=binary sigmoid:1
feature_names=car_sum car_std car_range car_median car_min car_max car_mean car_variance outer_count inner_count car_product diff_12 diff_23 diff_13 total_diff is_consecutive odd_count even_count all_odd all_even is_ascending is_descending race_no_numeric pos1_car_no pos2_car_no pos3_car_no grade_encoded track_encoded category_encoded
feature_infos=[3:24] [0.70710678118654757:5.6568542494923806] [1:8] [1.5:8] [1:7] [2:9] [1.5:8] [0.5:32] [0:3] [0:3] [6:504] [1:8] [1:8] [1:8] [4:16] [0:1] [0:3] [0:3] [0:1] [0:1] [0:1] [0:1] [1:12] [1:9] [1:9] [1:9] [0:5] [0:40] [0:126]
tree_sizes=3410 3438 3438 3428 3425 3431 3463 3451 3440 3468 3454 3453 3438 3438 3447 3450 3445 3447 3443 3446 3449 3447 3453 3405 3427 3443 3452 3452 3461 3467 3461 3464 3444 3458 3474 3449 3460 3442 3466 3465 3470 3461 3480 3453 3469 3486 3494 3452 3445 3476 3462 3446 3442 3476 3460 3450 3459 3478 3481 3457 3463 3457 3464 3469 3458 3435 3484 3455 3461 3457 3460 3450 3450 3460 3457 3442 3483 3434 3446 3448 3426 3410 3427 3373 3406 3460 3464 3484 3455 3451 3470 3450 3459 3468 3446 3451 3417 3438 3439 3436 3463 3466 3430 3435 3418 3446 3462 3462 3422 3457 3479 3470 3443 3447 3438 3415 3439 3443 3434 3480 3448 3472 3431 3459 3432 3424 3431 3443 3414 3434 3454 3429 3433 3477 3422 3444 3455 3432 3404 3440 3438 3431 3429 3398 3419 3412 3425 3409 3435 3462 3429 3451 3438 3444 3418 3426 3433 3441 3430 3409 3454

Tree=0
num_leaves=31
num_cat=0
split_feature=10 10 0 23 26 16 16 26 26 0 1 1 3 5 5 25 25 25 22 26 1 26 25 26 23 10 10 0 12 13
split_gain=1928.96 748.516 648.23 200.465 180.742 166.563 134.101 161.063 109.449 106.011 114.622 139.069 101.461 133.717 237.852 116.838 91.0369 85.2204 81.0679 79.6605 72.9626 72.3715 56.4077 62.9951 56.0341 53.6479 52.2026 51.8434 40.7582 42.867
threshold=35.500000000000007 106.50000000000001 8.5000000000000018 1.5000000000000002 1.0000000180025095e-35 1.5000000000000002 2.5000000000000004 1.5000000000000002 1.5000000000000002 9.5000000000000018 2.7370892179053912 2.3189659109916136 5.2500000000000009 6.5000000000000009 5.5000000000000009 5.5000000000000009 5.5000000000000009 5.5000000000000009 10.500000000000002 1.5000000000000002 1.2071067811865477 1.5000000000000002 2.5000000000000004 1.0000000180025095e-35 1.5000000000000002 7.0000000000000009 142.00000000000003 7.5000000000000009 3.5000000000000004 3.5000000000000004
decision_type=10 10 2 2 2 2 2 2 2 2 2 2 2 2 2 10 10 10 2 2 2 2 8 2 2 10 10 2 10 10
left_child=2 6 3 4 -1 16 7 12 18 -7 11 24 13 14 -2 -16 20 -13 27 22 -4 28 -5 -24 -11 -25 -3 -6 -12 -30
right_child=1 26 5 19 8 9 -8 -9 -10 10 21 17 -14 -15 15 -17 -18 -19 -20 -21 -22 -23 23 25 -26 -27 -28 -29 29 -31
leaf_value=-0.9777200000834646 -0.95885826541341346 -0.89539951777340643 -0.94868916724726382 -0.98101174176922079 -1.060695793652624 -0.99403065089605391 -0.97198050302569228 -0.90315158414687402 -0.944309120736194 -0.99308443225105125 -0.98993200063623277 -0.90636852339812402 -0.90764270180187323 -0.95840658693044756 -0.89595985611295803 -0.9383826317581655 -0.97093496969966986 -0.9540593786434528 -0.9452658471082106 -0.92868955402731768 -0.91091461378811656 -0.94545700263337196 -0.97173933783659605 -1.0591697686035213 -0.95890812171869344 -1.0059600096686088 -0.86833717661974585 -1.0275553250182816 -0.98153482006191828 -0.95595791469806757
leaf_weight=175.17165711522102 512.8113989084959 446.85198384523392 278.80951680243015 590.18620559573174 267.82046888768673 375.28989036381245 298.37452308833599 318.4295234978199 30.373214691877365 154.83890379965305 523.42735946178436 200.34527079761028 207.24149434268475 947.79052804410458 392.60050964355469 279.94515416026115 201.1041504740715 178.33814696967602 20.688670635223389 55.6286631077528 239.72598460316658 181.20660822093487 92.68049581348896 64.602784186601639 543.71250307559967 176.58363571763039 308.07821351289749 211.90320919454098 415.46201488375664 273.09541098773479
leaf_count=658 1803 1209 944 2242 1290 1488 1099 893 101 612 2048 570 593 3327 1065 911 738 616 69 174 696 606 341 310 1912 727 727 931 1581 950
internal_value=-0.956369 -0.928781 -0.975875 -1.00143 -1.02174 -0.963795 -0.940134 -0.936564 -1.03628 -0.969238 -0.965475 -0.953215 -0.941116 -0.944376 -0.933167 -0.913596 -0.942288 -0.928792 -1.04188 -0.986793 -0.931199 -0.974962 -0.990306 -1.00676 -0.966472 -1.0202 -0.884331 -1.04607 -0.979383 -0.971376
internal_weight=8963.12 3712.12 5250.99 1685.64 705.957 3565.36 2957.19 2658.82 530.786 2845.72 2470.43 1077.23 2340.39 2133.15 1185.36 672.546 719.64 378.683 500.412 979.682 518.536 1393.19 924.053 333.867 698.551 241.186 754.93 479.724 1211.98 688.557
internal_count=31231 11627 19604 6843 3049 12761 9691 8592 2391 10383 8895 3710 7699 7106 3779 1976 2378 1186 2290 3794 1640 5185 3620 1378 2524 1037 1936 2221 4579 2531
is_linear=0
shrinkage=1


Tree=1
num_leaves=31
num_cat=0
split_feature=10 10 0 28 23 28 16 26 25 11 11 26 22 16 1 11 12 28 10 26 5 5 25 25 25 24 3 5 26 1
split_gain=1593.39 589.58 555.661 250.724 212.696 210.17 121.656 122.716 118.555 104.229 102.816 93.7022 95.2109 88.3092 100.719 101.32 76.5728 76.3593 72.4854 68.3694 68.8808 80.3477 59.5917 54.6119 48.0683 46.8233 46.7836 72.7329 46.4623 44.0753
threshold=35.500000000000007 106.50000000000001 8.5000000000000018 68.500000000000014 2.5000000000000004 8.5000000000000018 1.5000000000000002 1.0000000180025095e-35 3.5000000000000004 2.5000000000000004 2.5000000000000004 1.0000000180025095e-35 10.500000000000002 2.5000000000000004 2.5811813947440876 4.5000000000000009 2.5000000000000004 65.500000000000014 17.000000000000004 1.5000000000000002 5.5000000000000009 6.5000000000000009 2.5000000000000004 5.5000000000000009 4.5000000000000009 2.5000000000000004 5.2500000000000009 6.5000000000000009 1.0000000180025095e-35 2.5811813947440876
decision_type=10 10 2 2 2 2 2 2 10 10 8 2 2 2 2 10 10 2 10 2 2 2 10 10 10 10 2 2 2 2
left_child=2 8 3 4 11 -4 17 9 26 -8 28 -1 16 14 15 19 25 24 -9 20 -10 23 -20 -22 -7 -13 27 -2 -5 -19
right_child=1 -3 5 10 -6 6 7 18 13 -11 -12 12 -14 -15 -16 -17 -18 29 22 -21 21 -23 -24 -25 -26 -27 -28 -29 -30 -31
leaf_value=0.030590250212906296 0.097288631470346637 0.11858476217613932 0.022036817139000717 0.062040300948348961 0.032684971548743724 0.074130193684115164 0.059228528586398148 0.038806344567169304 0.045553099481879057 0.026310668888236344 0.021356894147888484 -0.049122727047948338 0.068310404621354279 0.033564685499056134 0.090648464961768385 0.027279796231291904 0.00146790475797396 0.083899525907681183 0.085550324350262524 0.11120773748492892 0.10765912052124355 0.053722401552345658 0.058596990109448868 0.071919988437970095 0.037574855781607575 -0.017211683939667141 0.12473948827169919 0.069086940953344889 0.1181923831781586 0.13812631166563871
leaf_weight=126.46179260313511 412.35481688380241 800.50019001960754 596.41875946521759 145.69906806945801 455.41217252612114 316.06800606846809 357.62890048325062 321.23975294828415 377.06504811346531 737.92714913189411 149.89816831052303 212.9050185829401 32.099612876772881 221.1283852905035 364.68027022480965 191.78872726857662 273.60489004850388 105.36490365862846 285.61395491659641 79.891755893826485 172.24428324401379 362.09029476344585 745.75469326972961 290.08732387423515 127.10199290513992 251.57360237836838 68.047814130783081 522.31780996918678 49.963041439652443 59.767302885651588
leaf_count=476 1143 1936 2294 490 1711 978 1204 1179 1330 2817 579 1064 104 821 1038 719 1154 316 858 204 445 1239 2514 911 465 1138 164 1677 127 136
internal_value=0.0558908 0.0803667 0.0382211 0.0145797 0.00485978 0.049206 0.0545051 0.0495222 0.0703692 0.0370652 0.0525834 -0.00926932 -0.0158238 0.0634853 0.0670806 0.0612373 -0.0194983 0.0745393 0.0596047 0.0663134 0.063315 0.0714262 0.0660735 0.085266 0.0636682 -0.0318571 0.0844918 0.0815433 0.0764575 0.103628
internal_weight=9212.7 3862.2 5350.5 1697.62 1352.06 3652.89 3056.47 2448.16 3061.7 1095.56 345.56 896.645 770.183 2058.98 1837.85 1473.17 738.084 608.302 1352.61 1281.38 1201.49 824.422 1031.37 462.332 443.17 464.479 1002.72 934.673 195.662 165.132
internal_count=31231 11627 19604 6843 5647 12761 10467 8572 9691 4021 1196 3936 3460 6707 5886 4848 3356 1895 4551 4129 3925 2595 3372 1356 1443 2202 2984 2820 617 452
is_linear=0
shrinkage=0.05


Tree=2
num_leaves=31
num_cat=0
split_feature=10 10 0 23 26 16 26 1 24 23 25 26 16 1 11 22 26 26 5 5 23 0 25 26 0 25 12 13 16 1
split_gain=1337.2 479.676 479.105 161.02 146.697 125.022 130.712 140.979 127.538 138.409 97.3865 87.8427 74.3497 83.0471 85.5195 65.3131 57.5599 55.993 57.6183 66.5612 54.9482 46.2173 44.8914 49.5216 44.6623 44.4687 42.5176 50.0355 40.1676 42.5449
threshold=35.500000000000007 106.50000000000001 8.5000000000000018 1.5000000000000002 1.0000000180025095e-35 2.5000000000000004 1.5000000000000002 2.7370892179053912 5.5000000000000009 5.5000000000000009 3.5000000000000004 1.5000000000000002 2.5000000000000004 2.5811813947440876 4.5000000000000009 10.500000000000002 1.5000000000000002 1.5000000000000002 5.5000000000000009 6.5000000000000009 1.5000000000000002 7.5000000000000009 2.5000000000000004 1.0000000180025095e-35 6.5000000000000009 5.5000000000000009 3.5000000000000004 3.5000000000000004 1.5000000000000002 2.5811813947440876
decision_type=10 10 2 2 2 2 2 2 10 2 10 2 2 2 10 2 2 2 2 2 2 2 8 2 2 10 10 10 2 2
left_child=2 10 3 4 -1 6 7 8 9 20 28 15 13 14 17 21 22 18 -12 25 -4 -6 -5 -24 -25 -20 -7 -28 29 -2
right_child=1 -3 5 16 11 26 -8 -9 -10 -11 12 -13 -14 -15 -16 -17 -18 -19 19 -21 -22 -23 23 24 -26 -27 27 -29 -30 -31
leaf_value=0.034140063331454328 0.083867034250492994 0.10742329230891284 0.027725656171023946 0.031693814177978757 -0.041481979530323697 0.021373815118096582 0.089490088366463771 0.028236584254725913 0.087142894827221221 0.092523815455439806 0.042401577920436417 0.061714371056373674 0.031402957656960856 0.082898335950953528 0.025600479960859387 0.06061112185811867 0.074198601803544761 0.10094047347032881 0.097880322721925997 0.049827983952823243 0.050632207195353801 -0.0098489012008945494 0.039190854242051126 -0.040815248184360192 0.0091080464528495043 0.066225102157615734 0.029931358383311842 0.061084223984523262 0.069083584971613488 0.13671956771003316
leaf_weight=181.28841190040112 386.93428628146648 838.43888473510742 358.99255228042603 607.68307158350945 257.78607104718685 533.14913927018642 210.18410708010197 642.18781736493111 271.85627430677414 169.31776195764542 384.6393673568964 32.252503469586372 224.45081704854965 378.46443474292755 194.09600104391575 22.005276203155518 59.74206705391407 83.525991976261139 179.78015960752964 370.6468795388937 983.1103257983923 210.12671191990376 96.372934818267822 59.355465158820152 181.43895399570465 299.04494243860245 361.18147426843643 201.72612221539021 608.88802121579647 42.875211670994759
leaf_count=658 1060 1936 1326 2242 1290 2033 581 2383 744 451 1330 101 821 1038 719 69 174 204 445 1239 3273 931 341 298 739 911 1329 641 1838 86
internal_value=0.0518186 0.0737975 0.0356881 0.0137498 -0.00458963 0.0457276 0.0516331 0.0483469 0.0555841 0.049899 0.0648521 -0.0180494 0.0586767 0.0619108 0.0566481 -0.0233222 0.026596 0.0612155 0.0585149 0.0657993 0.0445113 -0.0272923 0.0235733 0.00891765 -0.00318905 0.0781388 0.0315189 0.0411132 0.0774126 0.0891815
internal_weight=9431.54 3991.78 5439.76 1708.05 703.459 3731.71 2635.65 2425.46 1783.28 1511.42 3153.35 522.171 2114.65 1890.2 1511.73 489.918 1004.59 1317.64 1234.11 849.472 1342.1 467.913 944.85 337.167 240.794 478.825 1096.06 562.908 1038.7 429.809
internal_count=31231 11627 19604 6843 3049 12761 8758 8177 5794 5050 9691 2391 6707 5886 4848 2290 3794 4129 3925 2595 4599 2221 3620 1378 1037 1356 4003 1970 2984 1146
is_linear=0
shrinkage=0.05


Tree=3
num_leaves=31
num_cat=0
split_feature=10 10 28 0 28 26 5 5 3 23 25 25 28 3 26 22 16 1 10 26 22 28 25 10 1 16 26 28 23 28
split_gain=1139.1 615.421 210.82 188.091 174.601 151.961 122.79 136.26 103.804 103.75 96.0455 77.7288 67.9686 63.1214 54.4145 51.8408 50.5603 49.2912 48.7078 47.3222 45.9721 43.2185 38.3506 37.2856 36.7224 36.6452 36.6382 32.0644 31.7701 31.5703
threshold=15.500000000000002 106.50000000000001 65.500000000000014 7.5000000000000009 8.5000000000000018 1.0000000180025095e-35 6.5000000000000009 5.5000000000000009 5.2500000000000009 1.5000000000000002 2.5000000000000004 5.5000000000000009 89.500000000000014 5.2500000000000009 1.0000000180025095e-35 9.5000000000000018 2.5000000000000004 2.9142135623730954 14.500000000000002 1.0000000180025095e-35 2.5000000000000004 5.5000000000000009 2.5000000000000004 142.00000000000003 2.040832999733067 1.5000000000000002 1.0000000180025095e-35 15.500000000000002 1.5000000000000002 38.500000000000007
decision_type=10 10 2 2 2 2 2 2 2 2 10 10 2 2 2 2 2 2 8 2 2 2 8 10 2 2 2 2 2 2
left_child=2 4 3 9 13 6 7 24 17 14 25 -9 15 20 -1 29 -14 27 26 -12 -2 -22 -11 -3 -6 -5 -4 -8 -17 -7
right_child=1 23 18 10 5 12 8 11 -10 22 19 -13 16 -15 -16 28 -18 -19 -20 -21 21 -23 -24 -25 -26 -27 -28 -29 -30 -31
leaf_value=0.026417105907902461 0.042820915458298137 0.089538910231082514 0.04521504755336566 0.065010388302069205 0.050513892218081717 0.0674718515197269 0.019927419984132236 0.09484675308187715 0.083457787928612207 0.01899601304514778 0.038795615121091372 0.054979820058088102 0.0948583451327112 0.10149563523233084 -0.038061461499896428 0.01184694272103768 0.052301074819828958 0.01818638114924578 0.015706989183287792 0.0059265668833125371 0.079368531144840354 0.015582845154716869 -0.014135400039188561 0.11080226431028831 0.02307625449013222 0.032768836914467601 0.076603397913306823 0.046761344979518379 0.050746313687132463 0.052324561035925657
leaf_weight=37.170860856771469 389.94151428341866 513.02961748838425 376.79568468034267 106.77894072234631 475.64702074229717 1709.656750202179 148.49047239124775 294.3814685344696 103.35780331492424 278.61687676608562 133.13082957267761 211.53853563964367 283.61001868546009 32.16672246158123 264.56792260706425 64.765419572591782 93.975510030984879 441.84458588063717 106.36388842761517 618.64440329372883 28.244206696748734 435.69461886584759 126.95610789954662 356.74787580966949 165.38279196619987 519.31015746295452 124.76608790457249 456.50594116747379 286.76918783783913 437.78769086301327
leaf_count=136 1297 1209 1266 303 1521 5030 537 706 262 1056 465 660 690 74 1335 241 302 1668 405 2503 79 1613 577 727 605 1884 342 1492 901 1345
internal_value=0.0482147 0.0589395 0.0206159 0.0130577 0.0532908 0.0568048 0.0472027 0.0587873 0.0356423 -0.00789574 0.0238174 0.0782014 0.0644692 0.0327625 -0.0300957 0.0614681 0.0842964 0.030909 0.0465256 0.0117583 0.0301558 0.0194931 0.00861167 0.0982778 0.0434476 0.0382851 0.0530467 0.0401879 0.0435993 0.0643888
internal_weight=9622.64 6929.54 2693.1 2085.18 6059.76 5173.71 2297.15 1146.95 1150.2 707.312 1377.86 505.92 2876.56 886.047 301.739 2498.98 377.586 1046.84 607.926 751.775 853.88 463.939 405.573 869.777 641.03 626.089 501.562 604.996 351.535 2147.44
internal_count=31231 20959 10272 8259 19023 15960 7451 3492 3959 3104 5155 1366 8509 3063 1471 7517 992 3697 2013 2968 2989 1692 1633 1936 2126 2187 1608 2029 1142 6375
is_linear=0
shrinkage=0.05


Tree=4
num_leaves=31
num_cat=0
split_feature=10 10 10 28 28 23 11 16 11 16 3 28 28 11 11 5 5 28 10 10 11 1 22 28 28 11 24 28 10 11
split_gain=990.419 364.692 338.503 179.955 170.553 126.291 96.6683 105.808 78.9496 75.3063 71.5669 59.6948 59.5579 53.3149 48.4936 57.0452 79.4723 45.2938 45.2293 60.7909 48.2204 39.5455 38.4 38.1563 70.5094 37.3277 35.9392 33.8848 32.7634 32.567
threshold=35.500000000000007 11.000000000000002 106.50000000000001 8.5000000000000018 68.500000000000014 1.5000000000000002 1.5000000000000002 1.5000000000000002 2.5000000000000004 2.5000000000000004 5.2500000000000009 87.500000000000014 105.50000000000001 1.5000000000000002 4.5000000000000009 5.5000000000000009 6.5000000000000009 87.500000000000014 17.000000000000004 19.000000000000004 2.5000000000000004 2.5811813947440876 10.500000000000002 21.500000000000004 58.500000000000007 3.5000000000000004 5.5000000000000009 65.500000000000014 199.50000000000003 4.5000000000000009
decision_type=10 10 10 2 2 2 10 2 8 2 2 2 2 8 10 2 2 2 10 10 10 2 2 2 2 10 10 2 10 10
left_child=1 4 9 26 5 22 17 25 -6 10 11 14 18 -7 15 -2 23 -5 -9 -20 -21 -16 -1 -17 -25 -8 -3 -27 -4 -12
right_child=2 3 28 6 8 13 7 12 -10 -11 29 -13 -14 -15 21 16 -18 -19 19 20 -22 -23 -24 24 -26 27 -28 -29 -30 -31
leaf_value=-0.024521279753854749 0.040881080946366055 0.0099142817723723402 0.085484572188067529 0.054307602214152532 0.065393576189235345 -0.0032426005510729789 0.048337530351495538 0.021929143228570178 0.012866798444280054 0.03293854993274084 0.10429323779423905 0.071837309832677304 0.059816763279632271 0.026652291178036136 0.017009401905251378 0.079303176546071177 0.048514926269584091 0.089840438244218904 0.064595377430963261 0.053659309438883307 0.029367648644185292 0.055818270441761554 0.046476277918692022 0.019057447244767212 0.081539122288011009 0.064678891021707985 0.039722163628855001 0.11093478709603771 0.10882069279553948 0.069456673244882652
leaf_weight=421.0413546860218 516.93568608164787 575.90467192232609 698.56576164066792 567.52831326425076 163.02426309883595 260.68565326929092 213.57183536887169 688.7222366631031 128.00586827099323 322.3587456792593 104.53008279204369 480.12610124051571 221.91128222644329 347.54050162434578 164.43109899759293 516.8229099214077 707.74222660064697 107.48745024204254 181.226746737957 250.1173799186945 1136.1245278567076 109.90780797600746 19.810700461268425 84.733773872256279 97.372519254684448 130.26911655068398 122.84455417096615 58.13347053527832 196.75262831151485 196.67533481121063
leaf_count=2018 1658 2207 1565 1747 473 1112 655 2558 474 1099 219 1279 672 1260 601 1301 2187 272 505 758 3951 323 64 277 238 351 410 117 371 509
internal_value=0.0449887 0.0312115 0.0633494 0.0383774 0.0084605 -0.000930974 0.0429374 0.0389381 0.0423199 0.0559476 0.0584343 0.0558247 0.0350709 0.0138327 0.0523215 0.0551311 0.060361 0.0599856 0.0326323 0.0373302 0.0337577 0.0325902 -0.0213097 0.0723406 0.0525204 0.0627511 0.0151668 0.0790294 0.09063 0.0815935
internal_weight=9790.9 5593.95 4196.95 4253.84 1340.11 1049.08 3555.09 2880.08 291.03 3301.64 2979.28 2678.07 2478.1 608.226 2197.95 1923.61 1406.67 675.016 2256.19 1567.47 1386.24 274.339 440.852 698.929 182.106 401.974 698.749 188.403 895.318 301.205
internal_count=31231 19604 11627 14203 5401 4454 11586 9567 947 9691 8592 7864 8444 2372 6585 5661 4003 2019 7772 5214 4709 924 2082 1816 515 1123 2617 468 1936 728
is_linear=0
shrinkage=0.05


Tree=5
num_leaves=31
num_cat=0
split_feature=10 10 10 28 28 23 25 11 11 23 28 28 28 3 8 3 0 1 11 28 22 28 25 22 10 28 16 24 10 10
split_gain=855.745 298.894 275.615 164.575 163.751 127.254 104.433 87.4412 72.2363 61.4296 54.2649 54.1803 53.1574 53.0222 41.8735 65.057 43.9883 39.9544 39.6556 35.0037 34.2617 38.4895 34.1229 33.3504 32.0758 28.0025 27.2151 41.4997 27.5045 26.664
threshold=35.500000000000007 11.000000000000002 106.50000000000001 8.5000000000000018 68.500000000000014 1.5000000000000002 2.5000000000000004 1.5000000000000002 2.5000000000000004 6.5000000000000009 109.50000000000001 13.500000000000002 88.500000000000014 4.7500000000000009 1.0000000180025095e-35 5.2500000000000009 11.500000000000002 2.040832999733067 1.5000000000000002 35.500000000000007 4.5000000000000009 42.500000000000007 3.5000000000000004 9.5000000000000018 199.50000000000003 8.5000000000000018 2.5000000000000004 7.5000000000000009 71.000000000000014 33.500000000000007
decision_type=10 10 10 2 2 2 10 10 8 2 2 2 2 2 2 2 2 2 8 2 2 2 10 2 10 2 2 10 10 10
left_child=1 4 7 -3 5 23 9 13 -6 12 29 14 19 25 16 22 17 -9 -7 -5 -21 -22 -16 -1 -4 -2 27 28 -13 -8
right_child=2 3 24 6 8 18 10 11 -10 -11 -12 26 -14 -15 15 -17 -18 -19 -20 20 21 -23 -24 -25 -26 -27 -28 -29 -30 -31
leaf_value=-0.025005014239320278 0.034923138684260911 0.013237580579634436 0.078528916119606718 0.058275861283125945 0.063352766885659356 -0.000777647137502082 0.033996083218324563 0.0069059205145799571 0.013335253019918857 0.028454656751569725 0.07096439490666398 0.049621405350664449 0.082557877337437399 0.094383616311116622 0.036498623737446355 0.071344625202400175 0.064245722738205474 0.072905792395150187 0.024887163336843893 0.080124460817215887 -0.014151259964382169 0.038843121967681998 0.0070089220198069919 0.030841506054575529 0.10156143130001678 0.065442525283146868 0.036709000823579245 0.093587129122408533 0.065531050539593946 0.016109015230127127
leaf_weight=407.43999665975571 89.945073276758194 694.02158404886723 685.02195109426975 595.03240290284157 165.58766986429691 261.41165612637997 2058.1423864364624 81.370659112930298 128.55383665859699 232.95560637116432 94.094039335846901 1148.7474592477083 170.13860259950161 148.1815809905529 172.54374545812607 72.039416596293449 214.2919360101223 31.956022620201111 353.48492293059826 36.354574859142303 43.621346816420555 156.7786979675293 228.53100690245628 28.448118627071381 198.64950412511826 495.84701023995876 231.65040566027164 67.697201520204544 361.26386007666588 233.35856342315674
leaf_count=1989 285 2593 1509 1727 463 1107 6830 295 472 794 254 3339 428 310 544 175 567 77 1269 91 165 494 843 101 363 1344 761 147 939 849
internal_value=0.0418554 0.0291391 0.0588758 0.0355548 0.00855276 -0.000674398 0.039831 0.0523061 0.0415217 0.0516435 0.0337124 0.0480077 0.0570267 0.0675764 0.0371475 0.0275995 0.0509079 0.0256086 0.0139698 0.0517891 0.0354473 0.0272815 0.0197139 -0.0213425 0.0837232 0.0607717 0.0528087 0.055167 0.0534351 0.0321775
internal_weight=9887.16 5659.42 4227.74 4314.5 1344.93 1050.78 3620.48 3344.07 294.142 1234.88 2385.59 2610.09 1001.93 733.974 800.733 473.114 327.619 113.327 614.897 831.787 236.755 200.4 401.075 435.888 883.671 585.792 1809.36 1577.71 1510.01 2291.5
internal_count=31124 19626 11498 14225 5401 4466 11632 9626 935 3699 7933 7687 2905 1939 2501 1562 939 372 2376 2477 750 659 1387 2090 1872 1629 5186 4425 4278 7679
is_linear=0
shrinkage=0.05


Tree=6
num_leaves=31
num_cat=0
split_feature=10 10 10 16 28 23 28 26 16 11 3 11 5 5 12 3 28 26 22 10 16 13 20 26 11 26 11 11 11 23
split_gain=750.627 290.629 210.071 171.214 145.192 115.429 108.705 101.105 76.5966 69.8952 71.2187 62.6391 57.5905 105.813 53.5185 51.9376 50.8206 43.5963 37.6113 36.1839 40.6225 43.7395 38.9334 40.9022 35.2258 38.5252 31.9381 31.7301 30.2926 28.4474
threshold=29.000000000000004 106.50000000000001 11.000000000000002 2.5000000000000004 68.500000000000014 1.5000000000000002 8.5000000000000018 1.5000000000000002 1.5000000000000002 1.5000000000000002 4.7500000000000009 2.5000000000000004 5.5000000000000009 6.5000000000000009 1.5000000000000002 5.2500000000000009 65.500000000000014 1.0000000180025095e-35 10.500000000000002 27.500000000000004 2.5000000000000004 1.5000000000000002 1.0000000180025095e-35 1.0000000180025095e-35 1.5000000000000002 1.0000000180025095e-35 3.5000000000000004 3.5000000000000004 4.5000000000000009 2.5000000000000004
decision_type=10 10 10 2 2 2 2 2 2 10 2 8 2 2 10 2 2 2 2 10 2 10 2 2 8 2 10 10 10 2
left_child=2 3 4 7 5 17 -4 9 16 10 -2 -6 -11 -14 -10 -15 28 -1 27 20 21 -16 -23 -24 25 -7 -5 -19 29 -8
right_child=1 -3 6 26 11 24 8 -9 14 12 -12 -13 13 15 19 -17 -18 18 -20 -21 -22 22 23 -25 -26 -27 -28 -29 -30 -31
leaf_value=0.019476777857756214 0.053007552574623397 0.078123512777051096 0.011190215841629228 0.038137852212975325 0.05890006777195235 0.050616315016374896 0.021397046337308587 0.074213405061788404 0.013435017809153847 0.029369962031699389 0.088498132295107709 0.012600763954750283 0.062306042038939427 0.032899893683273757 0.031163973942501567 0.061317066212525466 0.07258288372941861 -0.035996940270551399 0.05278106469238019 0.019264234886978277 0.028339554782617772 0.062056103371642218 0.070738093383126546 0.005116615699487609 0.023399628633998727 -0.0079260086775931032 0.016246512202801711 0.0068083739500262577 0.066499076382857417 0.048611729789924257
leaf_weight=58.668918073177338 659.48192648589611 899.24496966600418 555.50188829004765 267.54109026491642 169.11218847334385 31.921142071485519 189.26534622907639 425.31816703081131 368.52814543247223 534.11163312196732 181.06544415652752 129.23262548446655 765.47226585447788 895.41380366683006 336.85759375989437 196.84512214362621 184.36212919652462 308.15002281963825 14.138327941298483 326.28525100648403 651.29048129916191 383.62567330896854 36.122692838311195 69.536289364099503 357.06925003230572 229.39676439762115 445.76190696656704 50.111723750829697 98.340769544243813 197.3775751888752
leaf_count=221 1853 1872 2081 841 463 106 632 991 1353 1729 377 472 1961 2833 1117 487 449 1614 42 1141 2213 1045 97 246 1269 1001 1596 213 245 564
internal_value=0.0392372 0.0522263 0.024808 0.0468957 0.00809976 -0.000646585 0.0314351 0.0512671 0.0353905 0.0482441 0.0606683 0.0388725 0.0438735 0.0480389 0.0308249 0.0380309 0.0501932 -0.0205095 -0.026826 0.0343742 0.0377062 0.0450801 0.0546424 0.0276442 0.0131926 -0.000739051 0.0244686 -0.0299954 0.0416584 0.0353118
internal_weight=10015.2 5270.26 4744.89 4371.01 1347.8 1049.46 3397.09 3657.71 2841.59 3232.39 840.547 298.345 2391.84 1857.73 2172.25 1092.26 669.346 431.069 372.4 1803.72 1477.43 826.142 489.285 105.659 618.387 261.318 713.303 358.262 484.984 386.643
internal_count=31124 14540 16584 12668 5401 4466 11183 10231 9102 9240 2230 935 7010 5281 7212 3320 1890 2090 1869 5859 4718 2505 1388 343 2376 1107 2437 1827 1441 1196
is_linear=0
shrinkage=0.05


Tree=7
num_leaves=31
num_cat=0
split_feature=10 10 10 16 28 23 26 26 25 25 11 5 5 1 1 28 25 26 28 22 25 25 0 1 10 16 25 26 11 1
split_gain=659.191 258.705 185.192 149.89 129.039 104.799 95.7239 88.1335 87.6943 78.7637 54.6504 44.6825 86.2293 47.0948 44.5597 40.9008 40.4201 39.9862 36.4386 34.7842 34.1902 33.8838 30.8083 51.3798 28.4157 27.2903 27.1531 27.1466 27.0055 26.5164
threshold=29.000000000000004 106.50000000000001 11.000000000000002 2.5000000000000004 68.500000000000014 1.5000000000000002 1.5000000000000002 1.5000000000000002 2.5000000000000004 1.5000000000000002 2.5000000000000004 5.5000000000000009 6.5000000000000009 2.5811813947440876 2.9142135623730954 8.5000000000000018 5.5000000000000009 1.0000000180025095e-35 8.5000000000000018 9.5000000000000018 4.5000000000000009 2.5000000000000004 11.500000000000002 2.3189659109916136 199.50000000000003 2.5000000000000004 6.5000000000000009 1.0000000180025095e-35 3.5000000000000004 2.5811813947440876
decision_type=10 10 10 2 2 2 2 2 10 10 8 2 2 2 2 2 10 2 2 2 10 8 2 2 10 2 10 2 10 2
left_child=2 3 4 7 5 17 8 9 14 -2 -6 18 16 -14 25 -10 -13 -1 -11 28 -5 -7 23 -17 -3 -4 -15 -23 -19 -25
right_child=1 24 6 20 10 21 -8 -9 15 11 -12 12 13 26 -16 22 -18 19 -20 -21 -22 27 -24 29 -26 -27 -28 -29 -30 -31
leaf_value=0.018347915941019796 0.092214518421815259 0.068397348298361485 0.050787409127452436 0.041488296200417725 0.054934253549161052 0.020135858962810383 0.057376792264624568 0.069218346904348083 0.0062242372639568083 0.012746986319181733 0.011911112183169493 0.068239534226149992 0.031888057668713291 0.042908531280865699 0.025399162616439732 0.018787492460518571 0.047752869977251061 -0.035341816925164186 0.039121632544465962 0.03515510326071225 0.016572422016487433 0.041052508240903875 0.0068947447465458446 0.049837795238437614 0.089739664328001928 0.023801433563294658 0.068108968842652551 -0.013105200872633378 0.0051944263009074737 0.028916773501652095
leaf_weight=59.157766208052635 86.829090625047684 706.74582940340042 569.52061794698238 186.32231323421001 172.1787701100111 434.15577702224255 283.67196902632713 433.00698308646679 384.5421184450388 159.20590250194073 129.86836218833923 530.83704644441605 819.24664177000523 310.44443647563457 408.77867504954338 827.40898656845093 447.95568439364433 297.6951064914465 757.41915632784367 21.796544417738914 533.30481666326523 26.911140590906143 220.82681009173393 265.05173197388649 204.62004300951958 113.36253623664379 165.78482876718044 160.46006812155247 47.392179802060127 359.65739294886589
leaf_count=221 170 1509 1573 553 463 1557 756 991 1469 551 472 1216 2560 859 1396 2888 1236 1593 2255 74 1884 89 807 733 363 391 393 730 202 1170
internal_value=0.0368599 0.0489329 0.0233734 0.0439374 0.00767569 -0.000622408 0.0295431 0.0479889 0.0270325 0.0451808 0.0364626 0.0438965 0.0476605 0.03918 0.0384931 0.0209477 0.0588745 -0.0197256 0.034548 -0.0258817 0.0230353 0.0124654 0.0243285 0.0269756 0.0732039 0.046319 0.0517043 -0.00528239 -0.0297604 0.0378077
internal_weight=10124.2 5341.72 4782.44 4430.36 1349.62 1047.57 3432.82 3710.73 3149.15 3277.72 302.047 3190.89 2274.27 1295.48 1091.66 2057.49 978.793 426.042 916.625 366.884 719.627 621.527 1672.94 1452.12 911.366 682.883 476.229 187.371 345.087 624.709
internal_count=31124 14540 16584 12668 5401 4466 11183 10231 10427 9240 935 9070 6264 3812 3360 7067 2452 2090 2806 1869 2437 2376 5598 4791 1872 1964 1252 819 1795 1903
is_linear=0
shrinkage=0.05


Tree=8
num_leaves=31
num_cat=0
split_feature=10 10 10 28 28 23 25 11 26 11 23 28 28 12 26 16 22 5 5 1 28 16 24 25 22 28 28 10 11 27
split_gain=582.307 203.634 194.55 119.284 114.91 95.1642 75.0017 63.7569 56.7372 47.9315 43.9291 43.5644 43.3553 38.387 36.6746 31.8868 31.8021 31.2006 60.1845 39.297 30.321 30.2872 43.2065 30.2425 28.6203 33.0914 28.077 25.5823 25.2166 26.6999
threshold=35.500000000000007 11.000000000000002 106.50000000000001 8.5000000000000018 68.500000000000014 1.5000000000000002 2.5000000000000004 1.5000000000000002 1.5000000000000002 2.5000000000000004 6.5000000000000009 88.500000000000014 90.500000000000014 3.5000000000000004 1.0000000180025095e-35 2.5000000000000004 9.5000000000000018 5.5000000000000009 6.5000000000000009 2.5811813947440876 35.500000000000007 2.5000000000000004 4.5000000000000009 2.5000000000000004 1.5000000000000002 42.500000000000007 15.500000000000002 199.50000000000003 3.5000000000000004 30.500000000000004
decision_type=10 10 10 2 2 2 10 10 2 8 2 2 2 10 2 2 2 2 2 2 2 2 10 8 2 2 2 10 10 2
left_child=1 4 7 -3 5 14 10 13 -8 -6 11 20 15 -2 -1 17 28 -9 -19 26 -5 -10 -23 -7 -22 -26 -20 -4 29 -16
right_child=2 3 27 6 9 23 8 12 21 -11 -12 -13 -14 -15 16 -17 -18 18 19 -21 24 22 -24 -25 25 -27 -28 -29 -30 -31
leaf_value=0.01729551520409054 0.047104398798938019 0.010591002020934027 0.064320141974645625 0.048429818036376145 0.051374106847062298 0.018974279547752798 0.025364117052734111 0.023648141432360093 0.065025498741602225 0.011263023196553101 0.023425108874556143 0.06970816777979176 0.052473597861198519 0.070326714147478625 -0.042268308069719318 0.019527377232534931 0.032951849103969665 0.054574370175588298 0.014489416223489536 0.046377820359461711 0.094489261554503129 0.051130202099411361 -0.022119064123099028 -0.0050361491381161645 -0.012837879255318839 0.033128119137109467 0.035342413127482063 0.084481940029435099 0.0049227151922576276 -0.0056148020092769641
leaf_weight=59.613513201475143 485.24468414485455 707.1626385897398 713.78101733326912 623.26616297662258 174.83986909687519 437.61175000667572 2223.9565850943327 301.73149664700031 147.85810802876949 130.46408714354038 240.11495569348335 179.06952345371246 514.57181118428707 284.91116851568222 227.93935030698776 252.08391351997852 22.090052857995033 557.4778948277235 274.77046349644661 418.42883783578873 14.988259315490721 65.227899774909019 28.919743031263351 186.78319025039673 49.658187478780746 181.78867246210575 395.60472977161407 206.44113618135452 47.510040298104286 63.985099449753761
leaf_count=221 1299 2593 1509 1727 463 1557 7277 964 360 472 794 428 1326 640 1266 847 74 1352 924 1095 31 185 111 819 179 540 1179 363 202 327
internal_value=0.0346849 0.0242917 0.0483976 0.0294412 0.00727769 -0.00059889 0.0329896 0.0429916 0.0278726 0.0342593 0.0427729 0.0471951 0.0393797 0.0557098 -0.0189686 0.0363127 -0.0249654 0.0384811 0.0411951 0.0343357 0.0425465 0.0508843 0.0285773 0.0117841 0.0276331 0.023243 0.0268062 0.0688573 -0.0287579 -0.0342563
internal_weight=10217.9 5812.85 4405.05 4462.01 1350.84 1045.53 3754.85 3484.82 2465.96 305.304 1288.89 1048.77 2714.67 770.156 421.138 2200.1 361.525 1948.01 1646.28 1088.8 869.701 242.006 94.1476 624.395 246.435 231.447 670.375 920.222 339.434 291.924
internal_count=31124 19626 11498 14225 5401 4466 11632 9626 7933 935 3699 2905 7687 1939 2090 6361 1869 5514 4550 3198 2477 656 296 2376 750 719 2103 1872 1795 1593
is_linear=0
shrinkage=0.05


Tree=9
num_leaves=31
num_cat=0
split_feature=10 10 10 17 28 23 28 26 17 11 3 12 5 5 11 28 3 26 28 22 10 11 11 26 11 17 13 20 26 13
split_gain=523.224 209.329 143.126 121.177 102.513 86.4396 76.9614 73.6065 61.0589 52.4498 53.6427 42.662 42.565 76.0475 42.2291 41.2629 39.2581 33.6425 29.8952 29.445 28.4693 27.7541 26.4965 31.5732 25.7224 25.2666 30.2984 36.1194 39.8961 25.1609
threshold=29.000000000000004 106.50000000000001 11.000000000000002 1.0000000180025095e-35 68.500000000000014 1.5000000000000002 8.5000000000000018 1.5000000000000002 1.5000000000000002 1.5000000000000002 4.7500000000000009 1.5000000000000002 5.5000000000000009 6.5000000000000009 2.5000000000000004 65.500000000000014 5.2500000000000009 1.0000000180025095e-35 109.50000000000001 10.500000000000002 25.500000000000004 2.5000000000000004 1.5000000000000002 1.0000000180025095e-35 3.5000000000000004 1.0000000180025095e-35 1.5000000000000002 1.0000000180025095e-35 1.0000000180025095e-35 3.5000000000000004
decision_type=10 10 10 2 2 2 2 2 2 10 2 10 2 2 8 2 2 2 2 2 10 10 8 2 10 2 10 2 2 10
left_child=2 3 4 -2 5 17 -4 9 11 10 -5 -8 -11 -14 -6 29 -15 -1 20 24 25 -22 23 -7 -19 -13 -27 -28 -29 -10
right_child=1 -3 6 7 14 22 8 -9 15 12 -12 18 13 16 -16 -17 -18 19 -20 -21 21 -23 -24 -25 -26 26 27 28 -30 -31
leaf_value=0.016312957104130769 0.020222619388102825 0.064970174453193336 0.0091333483140538345 0.043945966599984072 0.048156054399009551 0.04457520601129597 0.0099498472788453196 0.061636615523831262 0.042608698944941695 0.023901957514536318 0.074134770154693524 0.022554390355222692 0.051541561063985941 0.026938427135483091 0.010653522509010672 0.062088908856501528 0.051226186376991105 -0.03279819436024952 0.059483742406412611 0.044829179350868352 0.11777762225261626 0.012052660882499781 0.019834451494927904 -0.0076224608024185424 0.0057360155333185574 0.024220773586999089 0.050798932446769918 0.059610222080422381 -0.0054949678089785377 0.01870101487351308
leaf_weight=60.038676798343658 731.80544599890709 926.36156050860882 563.82533997297287 686.48772728443146 177.14191183447838 33.069977596402168 377.49127987027168 443.29980459809303 335.48713566362858 550.4873229265213 188.54101717472076 624.99688945710659 796.73763319849968 924.29798918962479 131.0226224064827 191.48543336987495 203.83409909904003 290.99802131950855 74.535754770040512 14.717795774340628 6.2400224506855002 333.39108791947365 365.59241807460785 228.49971343576908 50.592480137944221 332.45119017362595 388.84191192686558 36.148708343505859 66.694220960140228 165.46711941063404
leaf_count=221 2437 1872 2081 1853 463 106 1353 991 914 1729 377 2073 1961 2833 472 449 487 1614 189 42 11 1155 1269 1001 213 1078 1022 94 237 527
internal_value=0.0326773 0.0433055 0.0207254 0.0388684 0.00690216 -0.000576876 0.0260665 0.0424632 0.0293193 0.039923 0.0504641 0.0253014 0.0361929 0.0397039 0.0322359 0.0423088 0.0313354 -0.018241 0.0284081 -0.0240804 0.0271072 0.014044 0.0111427 -0.000989544 -0.0270763 0.0301642 0.0359257 0.0438232 0.0173762 0.0347272
internal_weight=10300.6 5451.85 4848.73 4525.49 1351.67 1043.51 3497.06 3793.69 2933.23 3350.39 875.029 2240.79 2475.36 1924.87 308.165 692.44 1128.13 416.347 1863.3 356.308 1788.76 339.631 627.162 261.57 341.591 1449.13 824.136 491.685 102.843 500.954
internal_count=31124 14540 16584 12668 5401 4466 11183 10231 9102 9240 2230 7212 7010 5281 935 1890 3320 2090 5859 1869 5670 1166 2376 1107 1827 4504 2431 1353 331 1441
is_linear=0
shrinkage=0.05


Tree=10
num_leaves=31
num_cat=0
split_feature=10 3 10 28 16 28 26 5 5 28 20 22 28 26 25 28 26 1 10 28 22 22 10 28 28 22 26 10 6 27
split_gain=473.092 168.822 132.628 134.793 74.5193 72.1759 59.689 63.9208 68.6296 54.37 51.2585 49.0472 46.9932 35.7368 39.1909 32.5327 31.156 30.8403 30.564 29.3756 26.5884 26.5878 27.4844 25.6189 36.4546 25.5325 33.7166 33.1401 25.7116 25.4223
threshold=29.000000000000004 5.2500000000000009 11.000000000000002 68.500000000000014 1.5000000000000002 8.5000000000000018 1.0000000180025095e-35 6.5000000000000009 5.5000000000000009 8.5000000000000018 1.0000000180025095e-35 2.5000000000000004 65.500000000000014 1.5000000000000002 2.5000000000000004 61.500000000000007 1.0000000180025095e-35 2.3189659109916136 7.0000000000000009 85.500000000000014 9.5000000000000018 6.5000000000000009 19.000000000000004 67.500000000000014 35.500000000000007 7.5000000000000009 1.0000000180025095e-35 7.0000000000000009 2.1666666666666674 16.500000000000004
decision_type=10 2 10 2 2 2 2 2 2 2 2 2 2 2 10 2 2 2 8 2 2 2 10 2 2 2 2 8 2 2
left_child=2 5 3 10 12 11 7 8 -7 -6 25 -2 -4 14 -11 -15 -12 -9 -5 -19 -18 -16 -23 24 -10 26 27 -1 -28 -30
right_child=1 -3 4 18 9 6 -8 17 23 13 16 -13 -14 15 21 -17 20 19 -20 -21 -22 22 -24 -25 -26 -27 28 -29 29 -31
leaf_value=0.062068339612198903 0.03560075585093464 0.060283417126642813 0.030839401332371161 0.061342364400162878 0.0039309010463832823 0.026812682147835321 0.044825889585724449 0.034333573466766187 0.050844905351086878 0.030871863320854856 0.031179751634592259 0.0073532145807761393 0.05894512612659128 -0.048168837465261037 0.022553915484808368 0.045441804399570143 -0.03463202041624848 0.0083812878085482365 0.025497578638661301 0.034270416302005467 0.048206571433747646 0.019415696324289768 -0.0020880934773152802 0.065331161640194632 -0.0052162732933807993 0.022085901005979233 -0.021454822028661783 0.006559071445001962 -0.015907592469236481 0.012149855765602645
leaf_weight=35.870575278997421 293.58319467306137 913.59305094182491 637.56866893172264 80.976990655064583 427.3649745285511 403.25901763141155 2157.7952264547348 371.35029576718807 183.76008205115795 692.55086471140385 22.764961525797844 323.62328612804413 194.97372053563595 9.5412529408931714 733.36236114799976 230.0408204048872 188.48504568636417 393.31896539032459 228.30035309493542 152.28387835621834 10.076727271080015 287.33305777609348 306.81682309508324 264.03740848600864 34.218605697154999 145.43572372198105 191.49317340552807 107.65869776904583 130.52581977844238 211.15605667233467
leaf_count=106 841 1911 1886 193 1615 1200 5602 1042 434 2105 78 1073 451 38 2422 610 1072 1316 720 445 31 951 1106 573 106 540 907 390 563 824
internal_value=0.0305846 0.0406488 0.0192411 0.00592932 0.0243557 0.0367275 0.0392079 0.0324767 0.0420679 0.0203005 -0.00265978 0.0208013 0.0374338 0.0233939 0.0212214 0.0416744 -0.024015 0.0232079 0.0349156 0.0156214 -0.0303808 0.0161811 0.00830432 0.054812 0.0420231 0.00308536 -0.00099346 0.0205002 -0.00679163 0.00141549
internal_weight=10363.1 5490.82 4872.3 1352.74 3519.55 4577.23 3960.02 1802.23 885.275 2687.01 1043.47 617.206 832.542 2259.65 2020.06 239.582 221.327 916.953 309.277 545.603 198.562 1327.51 594.15 482.016 217.979 822.14 676.704 143.529 533.175 341.682
internal_count=31151 14543 16608 5424 11184 12632 10718 5116 2313 8847 4511 1914 2337 7232 6584 648 1181 2803 913 1761 1103 4479 2057 1113 540 3330 2790 496 2294 1387
is_linear=0
shrinkage=0.05


Tree=11
num_leaves=31
num_cat=0
split_feature=10 10 10 28 16 16 12 11 28 20 28 11 11 11 26 28 28 26 26 22 0 28 22 28 28 22 24 24 10 28
split_gain=421.826 158.274 117.833 120.433 70.5195 66.203 63.222 54.2076 48.3718 46.9942 41.5166 36.4942 34.1225 31.7482 50.206 31.7113 29.8703 28.5622 26.4687 25.0394 26.1372 24.7819 33.4569 27.4532 93.0323 59.748 31.3763 32.2343 31.1635 27.3586
threshold=29.000000000000004 106.50000000000001 11.000000000000002 68.500000000000014 2.5000000000000004 1.5000000000000002 3.5000000000000004 3.5000000000000004 8.5000000000000018 1.0000000180025095e-35 87.500000000000014 2.5000000000000004 1.5000000000000002 2.5000000000000004 1.0000000180025095e-35 82.500000000000014 93.500000000000014 1.0000000180025095e-35 1.0000000180025095e-35 5.5000000000000009 8.5000000000000018 8.5000000000000018 2.5000000000000004 33.500000000000007 52.500000000000007 4.5000000000000009 6.5000000000000009 5.5000000000000009 58.000000000000007 14.500000000000002
decision_type=10 10 10 2 2 2 10 10 2 2 2 8 10 10 2 2 2 2 2 2 2 2 2 2 2 2 10 10 10 2
left_child=2 4 3 9 6 7 10 15 -7 -1 21 -5 -8 -10 -15 -4 19 -11 -14 20 -16 22 -2 26 25 -25 27 28 29 -23
right_child=1 -3 5 11 -6 8 12 -9 13 17 -12 -13 18 14 16 -17 -18 -19 -20 -21 -22 23 -24 24 -26 -27 -28 -29 -30 -31
leaf_value=0.0029250112768824822 0.033268779957133308 0.056929196787001812 0.021984161907933217 0.047448461651541138 0.020437956309868256 0.0037284776776829579 0.060344725874333351 0.055401040485283715 0.029780876468759088 0.029262922424682911 0.046778655551617206 0.01274496968303627 0.028718233723192585 0.0072118013280501412 -0.0072545547980230989 0.052625386254382137 0.054819815198223078 -0.029413885715481015 0.048143088055509285 0.014544617717229744 0.038939249210441354 0.014378617596805442 0.0036649186852561032 0.046730905764251762 0.034845007433607619 -0.031833454122928921 0.01054014472016318 0.059921999580484775 0.045475145990782555 0.036603157470877397
leaf_weight=822.74235811829567 193.30364008247852 949.53100328147411 498.51294077932835 180.71724843978882 749.33237394690514 428.02675187587738 345.033208578825 239.15423744916916 841.97313320636749 23.042474284768105 460.75025467574596 131.35863827168941 271.5327163785696 647.87099489569664 34.365802764892578 102.08792068064213 80.985961899161339 194.94012154638767 507.31007067859173 403.93678420782089 266.27505144476891 226.76319378614426 189.30539003014565 31.633721441030502 418.44630366563797 101.50592088699341 106.7515290081501 159.11366933584213 458.78468708693981 360.13724863529205
leaf_count=3330 551 1930 1535 453 2418 1615 753 560 2541 78 1130 460 757 2253 135 242 196 1103 1246 1329 778 699 633 79 1133 363 337 343 1184 987
internal_value=0.0288762 0.0383412 0.0181854 0.00562649 0.034485 0.0229787 0.0372311 0.0352492 0.0191642 -0.00253919 0.0330827 0.0328659 0.0472128 0.0220653 0.0175281 0.0272087 0.0260278 -0.0231778 0.0413819 0.022704 0.0336416 0.0302685 0.0186394 0.0326529 0.0232609 -0.0131081 0.0365969 0.0389004 0.0356915 0.0280286
internal_weight=10425.2 5529.23 4895.99 1352.8 4579.7 3543.19 3830.37 839.755 2703.43 1040.72 2706.5 312.076 1123.88 2275.41 1433.43 600.601 785.564 217.983 778.843 704.578 300.641 2245.75 382.609 1863.14 551.586 133.14 1311.55 1204.8 1045.69 586.9
internal_count=31151 14543 16608 5424 12613 11184 10195 2337 8847 4511 7439 913 2756 7232 4691 1777 2438 1181 2003 2242 913 6309 1184 5125 1575 442 3550 3213 2870 1686
is_linear=0
shrinkage=0.05


Tree=12
num_leaves=31
num_cat=0
split_feature=10 3 26 10 26 11 25 22 23 11 28 28 11 11 3 16 11 1 16 1 28 11 26 0 26 12 24 5 4 1
split_gain=377.487 146.277 107.551 107.56 84.3938 64.0838 58.6677 48.9483 51.5656 44.2576 40.7995 39.5185 37.6836 36.0496 35.3297 31.6672 34.6565 30.7461 30.6346 30.5705 28.7624 28.5359 42.1884 25.8254 25.7063 25.5261 25.1844 48.7379 28.2447 23.5409
threshold=29.000000000000004 5.2500000000000009 1.5000000000000002 11.000000000000002 1.0000000180025095e-35 1.5000000000000002 2.5000000000000004 8.5000000000000018 3.5000000000000004 2.5000000000000004 14.500000000000002 58.500000000000007 5.5000000000000009 5.5000000000000009 4.7500000000000009 1.5000000000000002 4.5000000000000009 2.9142135623730954 2.5000000000000004 2.040832999733067 8.5000000000000018 2.5000000000000004 1.0000000180025095e-35 10.500000000000002 1.0000000180025095e-35 2.5000000000000004 5.5000000000000009 6.5000000000000009 3.5000000000000004 2.5811813947440876
decision_type=10 2 2 10 2 10 10 2 2 8 2 2 10 8 2 2 10 2 2 2 2 10 2 2 2 10 10 2 2 2
left_child=2 5 3 4 9 14 17 8 25 -1 26 -4 -3 -13 20 16 24 19 -12 -5 -2 22 -17 -15 -8 -6 28 -28 -7 -26
right_child=1 12 11 6 7 10 15 -9 -10 -11 18 13 -14 23 -16 21 -18 -19 -20 -21 -22 -23 -24 -25 29 -27 27 -29 -30 -31
leaf_value=0.035679541405983117 0.015104586453931909 0.059413974107702244 -0.026660752909350438 0.024537670348443719 -0.025327283311359985 0.014600333977635244 0.037653228166878085 0.025287116780007488 0.017241943743167575 0.0027233848369157109 0.035922621391667589 0.056273015067791587 0.033594488276032182 -0.04676990129927875 0.058371469146296789 0.03912977180634597 0.057794388026597303 0.018245298040330891 0.022041004441338594 0.045235170815062675 0.041976067098626876 0.006679413335154866 0.010839780880273025 0.030338025366718299 0.021215008582843215 -0.0044552328337183599 0.060102557692109919 0.01987687814838061 0.058808003962977112 -0.010586528611539222
leaf_weight=232.14894483983517 118.76095010340214 741.82471506297588 19.2482930123806 345.28371478617191 367.29183779656887 760.3907176554203 143.48554208874702 107.08909170329571 133.88660018146038 182.12328600883484 1943.855274990201 261.33120949566364 176.39826719462872 12.324023053050039 289.95923939347267 199.59846206009388 73.478177487850189 420.34950686991215 503.09225146472454 373.72112087905407 642.33607864379883 1052.908397346735 390.08525505661964 84.409609481692314 189.92313601076603 244.78535157442093 111.59551492333412 233.56301644444466 37.9433723539114 83.571050614118576
leaf_count=669 363 1473 74 1040 1939 2396 387 395 460 666 5064 620 438 47 592 573 166 1383 1571 933 1615 3703 1357 229 592 1068 237 718 76 307
internal_value=0.0272933 0.0362197 0.0171987 0.0150644 0.00269241 0.0326083 0.0198541 -0.00629473 -0.010838 0.0212075 0.0294235 0.0428535 0.0544635 0.0466107 0.0434792 0.0149551 0.0261119 0.0290192 0.0330716 0.0353075 0.0377922 0.0116194 0.020429 0.0204246 0.0205045 -0.0169903 0.0216103 0.0329106 0.0167148 0.0114789
internal_weight=10476.8 5559.72 4917.04 4539.73 1267.33 4641.5 3272.4 853.053 745.964 414.272 3590.44 377.313 918.223 358.065 1051.06 2133.05 490.458 1139.35 2446.95 719.005 761.097 1642.59 589.684 96.7336 416.98 612.077 1143.49 345.159 798.334 273.494
internal_count=31151 14543 16608 15638 5197 12632 10441 3862 3467 1335 10062 970 1911 896 2570 7085 1452 3356 6635 1973 1978 5633 1930 276 1286 3007 3427 955 2472 899
is_linear=0
shrinkage=0.05


Tree=13
num_leaves=31
num_cat=0
split_feature=5 1 28 28 28 23 16 3 3 5 25 3 5 26 28 0 28 24 28 26 0 22 25 28 23 26 4 26 11 28
split_gain=326.846 156.052 122.281 102.065 224.378 82.1034 77.129 56.1178 54.2874 85.5498 81.4342 51.316 58.1986 48.6846 46.063 55.6526 45.9803 42.0726 40.145 38.4719 35.5703 34.9378 32.5771 29.2825 27.7981 27.4079 26.561 25.7155 24.3501 24.3476
threshold=5.5000000000000009 2.9142135623730954 8.5000000000000018 57.500000000000007 40.500000000000007 1.5000000000000002 1.5000000000000002 5.2500000000000009 5.2500000000000009 6.5000000000000009 5.5000000000000009 5.2500000000000009 6.5000000000000009 1.5000000000000002 71.000000000000014 7.5000000000000009 51.500000000000007 1.5000000000000002 104.50000000000001 1.0000000180025095e-35 9.5000000000000018 3.5000000000000004 5.5000000000000009 8.5000000000000018 3.5000000000000004 1.0000000180025095e-35 1.5000000000000002 1.0000000180025095e-35 1.5000000000000002 55.500000000000007
decision_type=2 2 2 2 2 2 2 2 2 2 10 2 2 2 2 2 2 10 2 2 2 2 10 2 2 2 2 2 10 2
left_child=2 3 26 4 8 14 -3 18 9 10 -2 12 22 17 15 25 21 -7 19 -8 27 -6 -5 -21 -24 -4 -1 -12 -19 -15
right_child=1 6 5 11 16 13 7 -9 -10 -11 20 -13 -14 29 -16 -17 -18 28 -20 23 -22 -23 24 -25 -26 -27 -28 -29 -30 -31
leaf_value=-0.010924629428065474 0.054044266438329484 0.064475584432369393 0.015966511427997539 0.069078668634635521 0.022684026517707949 0.010611032618851112 0.0024947630038939638 0.039552944265258128 0.058007910807849672 0.024317591094603058 0.076733880440743529 0.070336369072105456 0.034582983310216232 -0.02087764891042395 0.024196049812854732 0.008901568195817949 0.028610782635672058 0.032182874884159739 0.034954374241988544 0.0027200607435633973 0.034566776700555767 -0.032347110056731625 0.055490993976118314 0.023623248232419361 0.015285302043006398 -0.031185290581649185 0.0096206438552663386 -0.0088898192875516823 0.019852740996424804 0.053838074306480715
leaf_weight=479.79217545688152 765.93462853133678 101.14394463598728 37.273066192865372 280.04329866170883 34.726955384016037 653.25052377581596 535.53844621777534 305.80679269134998 284.58786533772945 1078.0799151808023 9.750287860631941 248.71047692000866 594.16683372855186 11.538362309336661 231.87454171478748 403.99985507130623 55.411658823490143 760.96748216450214 249.5694305151701 214.08392643928528 537.34095203876495 165.77034430205822 132.53148424625397 780.38031239807606 64.329938501119614 173.09570157527924 233.71643298864365 79.723309025168419 854.35795760154724 162.03625982999802
leaf_count=2072 1695 200 131 538 94 2313 1872 713 560 3104 23 442 1556 41 716 1498 146 2086 670 790 1435 565 302 2342 176 1011 776 293 2620 371
internal_value=0.02582 0.0327267 0.0145697 0.0382256 0.0331369 0.0186411 0.0218308 0.0197571 0.0372966 0.0349069 0.0430977 0.0498291 0.0450564 0.0232923 0.0052113 -0.00194854 -0.0116292 0.0213338 0.0163504 0.0133105 0.0297071 -0.022784 0.0580846 0.0191291 0.0423925 -0.0228036 -0.00418742 0.000460359 0.0256661 0.0488334
internal_weight=10519.5 6517.63 4001.9 4331.11 3011.33 3288.39 2186.52 2085.38 2755.42 2470.83 1392.75 1319.78 1071.07 2442.15 846.243 614.369 255.909 2268.58 1779.57 1530 626.815 200.497 476.905 994.464 196.861 210.369 713.509 89.4736 1615.33 173.575
internal_count=31151 17516 13635 10929 7915 10787 6587 6387 7110 6550 3446 3014 2572 7431 3356 2640 805 7019 5674 5004 1751 659 1016 3132 478 1142 2848 316 4706 412
is_linear=0
shrinkage=0.05


Tree=14
num_leaves=31
num_cat=0
split_feature=10 10 26 10 26 16 12 25 22 23 9 28 28 25 16 1 1 23 12 27 27 26 1 26 28 28 27 5 23 26
split_gain=306.555 129.864 87.4116 86.9018 69.8797 52.8906 53.5969 48.2276 43.5401 45.3247 38.3054 33.3132 32.7501 26.1508 25.4457 23.8983 24.2318 23.5152 22.4156 24.092 22.4175 22.3451 22.5693 22.1413 20.4024 20.2577 24.8833 20.1495 19.279 19.2138
threshold=29.000000000000004 106.50000000000001 1.5000000000000002 11.000000000000002 1.0000000180025095e-35 2.5000000000000004 3.5000000000000004 2.5000000000000004 8.5000000000000018 3.5000000000000004 2.5000000000000004 58.500000000000007 87.500000000000014 1.5000000000000002 1.5000000000000002 2.9142135623730954 2.040832999733067 5.5000000000000009 2.5000000000000004 31.500000000000004 33.500000000000007 1.0000000180025095e-35 2.5811813947440876 1.0000000180025095e-35 8.5000000000000018 5.5000000000000009 17.500000000000004 6.5000000000000009 8.5000000000000018 1.0000000180025095e-35
decision_type=10 10 2 10 2 2 10 10 2 2 2 2 2 10 2 2 2 2 10 2 2 2 2 2 2 2 2 2 2 2
left_child=2 5 3 4 10 6 12 15 9 18 -1 -4 -2 -8 17 16 -5 21 19 -6 -21 -9 -23 -15 -7 -11 -27 -14 -13 -26
right_child=1 -3 11 7 8 24 13 14 -10 25 -12 28 27 23 -16 -17 -18 -19 -20 20 -22 22 -24 -25 29 26 -28 -29 -30 -31
leaf_value=0.010199169335426406 0.0251177874873274 0.049345607496233151 -0.025757252172047954 0.021948173706470654 -0.029992057863473167 -0.0049689640554045483 0.064159800668913622 0.035324249142267353 0.02366001065997066 -0.03757734860851053 0.045014646545662257 0.044311383509879898 0.048485192666712827 0.028178462159224555 0.010313127683450239 0.016523555349022469 0.040269931766120433 0.06704945335106971 -0.0044268468154852912 0.085995433189691661 -0.0067544894477469712 0.020821359447067991 -0.0097484240118317789 0.043519641249605799 0.010337703287507409 -0.007918554574612444 0.039720653829467156 0.027355500092199128 -0.009934963335630393 0.027447669412288711
leaf_weight=312.87471131980419 2283.6030198335648 946.88784921169281 19.084072694182396 349.13756991922855 297.50432394444942 92.710430637001991 106.65553107857704 164.86946108937263 108.20467187464237 15.515544861555098 105.91743253171444 345.85152478516102 272.42013463377953 369.02254171669483 1654.5551910102367 424.40925990045071 378.64856871962547 28.866265416145325 244.67719826102257 7.2826179265975943 54.987134203314781 218.70327785611153 83.065819412469864 665.35923594236374 291.95135797560215 42.126867547631264 77.392582818865776 196.0866082906723 17.00175666809082 378.65494248270988
leaf_count=1054 6309 1930 74 1040 1624 335 204 429 395 64 281 841 625 973 5633 1383 933 59 1068 30 285 657 307 1579 966 158 238 505 55 1117
internal_value=0.0244464 0.032457 0.0153782 0.0134549 0.00231507 0.0290207 0.031382 0.0177255 -0.00593565 -0.0102756 0.019025 0.0383616 0.0275966 0.0405046 0.0132964 0.0259844 0.0314916 0.0232436 -0.0161303 -0.0240723 0.00413319 0.0205093 0.0123896 0.0380547 0.0169683 0.015887 0.0228949 0.0396601 0.0417538 0.0200089
internal_weight=10554 5603.35 4950.68 4568.74 1266.48 4656.46 3893.15 3302.26 847.691 739.486 418.792 381.937 2752.11 1141.04 2150.06 1152.2 727.786 495.505 604.451 359.774 62.2698 466.639 301.769 1034.38 763.317 135.035 119.519 468.507 362.853 670.606
internal_count=31151 14543 16608 15638 5197 12613 10195 10441 3862 3467 1335 970 7439 2756 7085 3356 1973 1452 3007 1939 315 1393 964 2552 2418 460 396 1130 896 2083
is_linear=0
shrinkage=0.05


Tree=15
num_leaves=31
num_cat=0
split_feature=10 10 25 28 26 28 28 1 25 26 6 22 3 24 28 28 22 3 10 22 20 12 12 24 23 28 0 22 13 13
split_gain=308.236 160.333 72.989 54.196 55.3233 50.8139 47.992 43.0096 42.1992 46.0999 56.6945 42.8575 38.6063 32.7548 31.5948 62.6343 35.6509 32.7855 29.6506 27.0599 26.8509 24.6572 24.0684 25.693 23.7225 23.5671 22.917 22.8651 22.1126 22.1008
threshold=15.500000000000002 116.00000000000001 2.5000000000000004 8.5000000000000018 1.0000000180025095e-35 104.50000000000001 99.500000000000014 2.9142135623730954 1.5000000000000002 1.0000000180025095e-35 2.4166666666666674 9.5000000000000018 3.7500000000000004 2.5000000000000004 35.500000000000007 51.500000000000007 1.5000000000000002 4.7500000000000009 46.500000000000007 3.5000000000000004 1.0000000180025095e-35 1.5000000000000002 3.5000000000000004 3.5000000000000004 5.5000000000000009 5.5000000000000009 13.500000000000002 9.5000000000000018 1.5000000000000002 5.5000000000000009
decision_type=10 10 10 2 2 2 2 2 8 2 2 2 2 10 2 2 2 2 10 2 2 10 10 8 2 2 2 2 10 10
left_child=5 2 6 19 7 8 14 12 29 22 11 -11 21 24 17 16 -16 -2 -17 -4 -12 -5 23 -10 -14 -21 -9 -6 -26 -1
right_child=1 -3 3 4 27 -7 -8 26 9 10 20 -13 13 -15 15 18 -18 -19 -20 25 -22 -23 -24 -25 28 -27 -28 -29 -30 -31
leaf_value=0.019616941749775255 0.030794244312099445 0.048256539980986939 0.017931229553716076 0.018569110479457095 0.03203269575176565 0.036729173009621717 0.054483771726302449 -0.00033140210161427012 0.017286961662985569 -0.020692956740348444 0.011003688005943172 0.041255135919515726 -0.0038436186634549438 0.023411418832168851 0.089824847829560794 0.0199270753633079 -0.029993399178262683 0.05228062704082858 0.055187954489122504 0.094469881294696537 -0.0078506473352148547 0.047583483562979728 0.034092512669327696 -0.0094690014027649008 0.052982854874922727 -0.0037280722156505085 0.036321439728416949 0.018882614824073114 0.006994035954888126 -0.016438710132632591
leaf_weight=719.25782084465027 729.16245929896832 898.46063204109669 464.6460930109024 111.87050302326679 2101.6251415759325 157.89602780342102 266.78459687530994 351.80908031761646 321.42667086422443 402.18280050158501 654.54061967134476 29.860698938369751 231.58310149610043 913.32081159949303 6.6607084125280371 221.20002368092537 74.229121223092079 236.43095710873604 82.080157324671745 6.1440856307744971 264.99032914638519 216.74491992592812 132.92945793271065 124.11743085086346 41.691918715834618 280.96715115010738 48.389364704489708 395.33274157345295 70.700140178203583 44.944480702280998
leaf_count=2275 1980 1823 1437 316 5549 420 595 1252 1020 2123 2295 88 754 2558 11 617 257 539 179 12 1073 519 367 464 88 976 113 1119 215 169
internal_value=0.0232177 0.0283899 0.0257833 0.0229118 0.024996 0.00916136 0.0350769 0.0187596 0.00754259 0.00360141 -0.00145084 -0.0163913 0.0224562 0.0184575 0.0312337 0.0190702 -0.0199667 0.0360654 0.0295017 0.0104747 0.00556455 0.03773 0.0154126 0.00982175 0.00528644 -0.0015771 0.00409589 0.0299535 0.02413 0.017488
internal_weight=10602 7749.83 6851.37 5234.83 4483.07 2852.15 1616.55 1986.11 2694.25 1930.05 1351.57 432.043 1585.91 1257.3 1349.76 384.17 80.8898 965.593 303.28 751.757 919.531 328.615 578.474 445.544 343.975 287.111 400.198 2496.96 112.392 764.202
internal_count=31203 20909 19086 14908 12483 10294 4178 5815 9874 7430 5579 2211 4450 3615 3583 1064 268 2519 796 2425 3368 835 1851 1484 1057 988 1365 6668 303 2444
is_linear=0
shrinkage=0.05


Tree=16
num_leaves=31
num_cat=0
split_feature=10 10 11 5 5 25 12 23 26 26 11 3 16 28 13 25 24 0 28 28 28 28 28 28 28 22 10 28 28 28
split_gain=276.76 148.271 80.2336 47.7333 112.579 99.1736 45.9442 50.2405 42.5127 42.224 39.2244 36.3088 35.8887 32.5315 28.84 41.66 27.9735 27.3857 22.6226 21.3839 20.2003 19.6751 19.1731 26.1759 22.4976 19.5051 18.0829 17.7414 35.9631 36.7809
threshold=15.500000000000002 116.00000000000001 1.5000000000000002 5.5000000000000009 6.5000000000000009 5.5000000000000009 3.5000000000000004 1.5000000000000002 1.5000000000000002 1.0000000180025095e-35 2.5000000000000004 4.7500000000000009 2.5000000000000004 86.500000000000014 1.5000000000000002 2.5000000000000004 6.5000000000000009 7.5000000000000009 8.5000000000000018 8.5000000000000018 104.50000000000001 71.000000000000014 33.500000000000007 52.500000000000007 9.5000000000000018 1.5000000000000002 13.000000000000002 83.500000000000014 38.500000000000007 51.500000000000007
decision_type=10 10 10 2 2 10 10 2 2 2 8 2 2 2 10 10 10 2 2 2 2 2 2 2 2 2 8 2 2 2
left_child=6 2 11 18 5 27 7 9 14 10 -1 13 -10 22 -6 -16 -14 21 -4 -9 -8 -11 24 25 -2 -24 -21 28 -5 -30
right_child=1 -3 3 4 8 -7 20 19 12 17 -12 -13 16 -15 15 -17 -18 -19 -20 26 -22 -23 23 -25 -26 -27 -28 -29 29 -31
leaf_value=0.031816409238890675 0.018900262785583054 0.046045196225261778 -0.0040710479479092142 0.049505339961179756 0.030310784005969246 0.020239730174040793 0.017027297660380282 -0.0028539736177751497 0.039643746968300607 -0.028474939132571271 -0.0070268604784730409 0.054254134311764138 0.02732403882420022 0.051145843863135657 0.025993131129346599 0.0099416207020624203 -0.010496865232808858 -0.0029995266193685089 0.015450278204729004 0.017728434302855662 0.048752526109977268 0.033877149691739404 0.051056224800631225 0.024745684801514064 0.037564459895519466 -0.030101955052836579 0.0017039061619723605 0.063716111889859386 -0.01885852406279484 0.041258308807842606
leaf_weight=129.31039276719093 235.80399557948112 894.62990289926529 177.69420729577541 521.89719521999359 304.01550263166428 569.05132211744785 692.80077184736729 221.04133433103561 391.94225345551968 224.87525933980942 130.1767553538084 213.0819183588028 140.47096295654774 182.34662829339504 535.37007641792297 1659.4247031211853 74.662263989448547 352.02082523703575 887.70226137340069 813.16091997921467 54.258802220225334 13.25167542695999 8.8101626038551313 158.72332416474819 523.79009459912777 42.965072780847549 225.62355181574821 143.93540036678314 41.899937391281128 64.185752913355827
leaf_count=371 692 1823 634 1143 781 1582 2203 869 889 1370 484 422 392 396 1536 5290 245 1423 2656 2638 129 33 20 415 1291 148 774 275 134 145
internal_value=0.0219991 0.0268906 0.0243977 0.0217067 0.0239854 0.0360971 0.00868739 0.00491013 0.0187535 -0.00448151 0.0123155 0.0352546 0.0306307 0.0317329 0.0158649 0.0138603 0.0141762 -0.0118764 0.0121896 0.0112477 0.0193444 -0.0249713 0.0280739 0.0146666 0.0317803 -0.0161238 0.0142532 0.0477764 0.0441055 0.0174719
internal_weight=10628.9 7772.4 6877.77 5512.25 4446.86 1340.97 2856.52 2109.46 3105.89 849.635 259.487 1365.52 607.075 1152.44 2498.81 2194.79 215.133 590.148 1065.4 1259.83 747.06 238.127 970.093 210.499 759.594 51.7752 1038.78 771.918 627.983 106.086
internal_count=31203 20909 19086 15702 12412 3279 10294 7962 9133 3681 855 3384 1526 2962 7607 6826 637 2826 3290 4281 2332 1403 2566 583 1983 168 3412 1697 1422 279
is_linear=0
shrinkage=0.05


Tree=17
num_leaves=31
num_cat=0
split_feature=10 10 11 5 5 25 28 26 25 10 3 16 27 28 28 3 25 27 24 26 11 22 10 28 28 6 28 28 26 22
split_gain=249.227 137.084 72.3056 42.9434 101.617 89.7368 42.3705 38.4768 36.4247 43.323 33.604 32.4867 31.6397 29.3647 28.6846 27.9551 37.9556 27.4863 25.0882 23.542 31.9863 21.7398 25.139 21.5228 21.0163 20.1912 18.5536 17.9218 31.4648 22.622
threshold=15.500000000000002 116.00000000000001 1.5000000000000002 5.5000000000000009 6.5000000000000009 5.5000000000000009 104.50000000000001 1.5000000000000002 2.5000000000000004 7.0000000000000009 4.7500000000000009 2.5000000000000004 33.500000000000007 86.500000000000014 8.5000000000000018 5.2500000000000009 3.5000000000000004 30.500000000000004 6.5000000000000009 1.0000000180025095e-35 2.5000000000000004 8.5000000000000018 14.500000000000002 99.500000000000014 71.000000000000014 4.166666666666667 19.500000000000004 8.5000000000000018 1.0000000180025095e-35 7.5000000000000009
decision_type=10 10 10 2 2 10 2 2 8 10 2 2 2 2 2 2 10 2 10 2 10 2 10 2 2 2 2 2 2 2
left_child=6 2 10 12 5 -5 8 15 -1 24 13 -9 14 -2 17 16 25 -4 -13 20 23 -21 26 -11 -10 -6 -23 -18 -29 -30
right_child=1 -3 3 4 7 -7 -8 11 9 19 -12 18 -14 -15 -16 -17 27 -19 -20 21 -22 22 -24 -25 -26 -27 -28 28 29 -31
leaf_value=0.012315493238258857 0.026569077424287504 0.043974609043193558 0.0016086144728105066 0.045328260072465452 0.01439758668132802 0.019164837269927567 0.033283142825886007 0.037632330004647496 -0.029638949711212934 0.03225698247273194 0.051731249228511328 0.025811457097428037 -0.0097859200566202172 0.048461071152208851 0.018905002253499004 0.032939083065062116 -0.0053172451959446363 -0.07404856738211775 -0.0099956348108086561 -0.0037809270236396964 -0.0064218231952269146 0.01510215681583444 -0.021492930509334346 -0.018547102328869868 0.017645588975671183 0.029155581603172966 0.062711774813135154 0.0033836310933009167 0.02800240561651543 0.0058504884780276357
leaf_weight=1409.5268056243658 973.69893008470535 890.03767463564873 135.9998622238636 772.91538344323635 504.7871805280447 570.87613826990128 159.4782737493515 392.24277497828007 149.88624632358551 193.18717674911022 212.32346624135971 141.25256371498108 149.16012062132359 182.81836588680744 769.96595299243927 200.56218710541725 208.93552090227604 13.056076511740683 74.495270654559135 671.97754240036011 108.66558867692947 56.294512197375298 28.08575613796711 23.171664193272591 27.656634300947189 432.38539178669453 32.489750817418098 659.21778678894043 320.29702809453011 181.09830601513386
leaf_count=4795 2566 1823 476 1697 1546 1582 420 889 842 546 422 392 501 396 2254 466 752 59 245 2751 393 203 106 77 78 1165 83 2187 917 574
internal_value=0.0208639 0.025501 0.0231153 0.0205644 0.0227227 0.0342194 0.00823948 0.017761 0.00675774 0.000687319 0.03341 0.0290543 0.0115486 0.0300379 0.0150174 0.0150195 0.0134579 -0.00503001 0.0134256 0.00434781 0.0156702 -0.000312354 0.0195746 0.0267868 -0.0222393 0.0212142 0.0326316 0.00814543 0.0105736 0.0200141
internal_weight=10646.5 7786.13 6896.09 5527.25 4459.07 1343.79 2860.42 3115.27 2700.94 1291.41 1368.84 607.991 1068.18 1156.52 919.022 2507.28 2306.72 149.056 215.748 1113.87 325.024 788.848 116.87 216.359 177.543 937.173 88.7843 1369.55 1160.61 501.395
internal_count=31203 20909 19086 15702 12412 3279 10294 9133 9874 5079 3384 1526 3290 2962 2789 7607 7141 535 637 4159 1016 3143 392 623 920 2711 286 4430 3678 1491
is_linear=0
shrinkage=0.05


Tree=18
num_leaves=31
num_cat=0
split_feature=10 10 28 16 24 24 12 23 26 24 25 23 28 28 28 22 0 27 27 24 22 28 27 22 14 1 26 28 28 24
split_gain=224.843 126.855 56.0908 39.869 44.1577 54.4384 39.6432 43.703 35.8789 33.1621 30.7252 28.3693 25.7008 112.85 43.3228 33.9613 24.9834 24.4248 25.0542 19.6508 19.219 18.5897 18.1188 17.9465 17.9361 17.8567 20.398 26.3787 111.079 17.7743
threshold=15.500000000000002 116.00000000000001 88.500000000000014 2.5000000000000004 5.5000000000000009 6.5000000000000009 3.5000000000000004 1.5000000000000002 1.0000000180025095e-35 3.5000000000000004 2.5000000000000004 1.5000000000000002 40.500000000000007 52.500000000000007 14.500000000000002 2.5000000000000004 7.5000000000000009 30.500000000000004 33.500000000000007 7.5000000000000009 9.5000000000000018 8.5000000000000018 27.500000000000004 11.500000000000002 11.000000000000002 2.9142135623730954 1.5000000000000002 35.500000000000007 50.500000000000007 6.5000000000000009
decision_type=10 10 2 2 10 10 10 2 2 8 10 2 2 2 2 2 2 2 2 10 2 2 2 2 8 2 2 2 2 10
left_child=6 2 3 4 11 -6 7 8 9 22 -4 -2 14 15 -13 -14 17 -10 -19 20 -7 -9 -1 -22 -23 26 27 -3 -29 -12
right_child=1 25 10 -5 5 19 -8 21 16 -11 29 12 13 -15 -16 -17 -18 18 -20 -21 23 24 -24 -25 -26 -27 -28 28 -30 -31
leaf_value=0.016003087948414926 0.0063495730260296661 0.048395122161355712 0.045805024346897753 0.01045510246260632 0.041371623380679824 0.020396154289121789 0.017671873314692377 -0.0029708604418914944 -0.03309856272296912 -0.0069401805474593658 0.030490369077698871 0.016709189673849861 0.033478512479873483 0.021360750622494439 0.029890691524465524 -0.040039198043507862 -0.0029332532729371085 0.058241690874309304 -0.01611118659562889 0.050613396861714566 -0.01936621875607155 0.015294759316116031 0.0562243164503533 0.058583681898960231 -0.0054508323652593602 0.022317423279888438 0.060026503296092687 -0.033207229965538619 0.046938724539388577 0.011652607353181908
leaf_weight=90.001422628760338 395.42074489593506 382.03762024641037 298.47200407087803 939.68323799967766 564.22613371908665 490.23605880141258 752.22049853205681 221.10513558983803 177.82991079986095 130.09216599166393 707.6924940943718 1313.9925880283117 18.103277802467346 614.36843508481979 1191.6572363078594 112.49881817400455 351.68487741053104 15.657739683985708 40.116206884384155 47.479965955018997 54.792394027113914 928.10415142774582 41.005666598677635 8.4138644784688932 116.9284840375185 102.88996428251266 169.78583204746246 57.516134828329086 172.58574901521206 153.47282801568508
leaf_count=269 1288 757 669 2986 1242 1392 2332 869 1102 484 1790 3810 46 1643 3074 406 1423 73 228 99 184 2997 102 19 415 238 308 175 345 438
internal_value=0.019795 0.0241974 0.0219129 0.0198871 0.021728 0.0302098 0.00781358 0.00430024 -0.00449125 0.0109092 0.0319525 0.0190154 0.0205543 0.0123835 0.0229811 -0.0297925 -0.0113707 -0.024045 0.00473972 0.0197162 0.0170478 0.010181 0.0286639 -0.00883459 0.0129685 0.042029 0.0446132 0.0403208 0.026878 0.0271407
internal_weight=10660.1 7795.33 6910.51 5750.87 4811.19 1165.15 2864.75 2112.53 846.388 261.099 1159.64 3646.04 3250.62 744.971 2505.65 130.602 585.289 233.604 55.7739 600.922 553.442 1266.14 131.007 63.2063 1045.03 884.815 781.925 612.14 230.102 861.165
internal_count=31203 20909 19086 16189 13203 2936 10294 7962 3681 855 2897 10267 8979 2095 6884 452 2826 1403 301 1694 1595 4281 371 203 3412 1823 1585 1277 520 2228
is_linear=0
shrinkage=0.05


Tree=19
num_leaves=31
num_cat=0
split_feature=10 10 28 10 25 16 11 26 25 28 11 22 10 28 22 16 26 26 23 25 28 12 27 28 22 27 27 1 26 28
split_gain=205.216 78.5762 71.1349 63.5157 42.735 35.4163 33.6426 30.982 30.8861 30.738 29.219 28.9322 26.3288 23.4117 21.5328 20.8403 24.8955 20.0015 18.7601 18.5858 18.4317 33.9695 19.9079 16.9276 24.3785 19.7731 16.7519 16.4398 19.0859 24.192
threshold=35.500000000000007 116.00000000000001 104.50000000000001 11.000000000000002 3.5000000000000004 1.5000000000000002 2.5000000000000004 1.0000000180025095e-35 1.5000000000000002 8.5000000000000018 3.5000000000000004 6.5000000000000009 17.000000000000004 7.5000000000000009 9.5000000000000018 2.5000000000000004 1.5000000000000002 3.5000000000000004 2.5000000000000004 1.5000000000000002 5.5000000000000009 4.5000000000000009 35.500000000000007 90.500000000000014 9.5000000000000018 17.500000000000004 32.500000000000007 2.9142135623730954 1.5000000000000002 35.500000000000007
decision_type=10 10 2 10 10 2 10 2 8 2 10 2 10 2 2 2 2 2 2 10 2 10 2 2 2 2 2 2 2 2
left_child=2 4 3 8 23 10 12 -8 -1 20 18 -4 -7 -10 -11 16 -6 -18 -5 -13 21 -9 -22 24 25 -2 -12 28 29 -3
right_child=1 27 11 5 15 6 7 9 13 14 26 19 -14 -15 -16 -17 17 -19 -20 -21 22 -23 -24 -25 -26 -27 -28 -29 -30 -31
leaf_value=0.013844821454789042 0.021933675997488928 0.046319181694307127 0.053474643677568046 0.0081931226114108757 0.019342163740456542 0.010746240233609677 0.00030585358190855398 0.0027149019890030492 -0.02185806136420837 0.020465866901059671 0.032483224948281562 0.044464400886862446 0.024552030906071585 3.9281754699182169e-05 0.0011263301716716917 0.0063676257696020019 0.057077115586781448 0.027203928622821096 0.025893204038524548 0.016625356972655422 -0.0029647915274654004 0.072350889446419819 -0.05053338546019797 0.043689491216349005 0.0038589203908874596 0.037175769469299284 0.06862414559466451 0.021271870284086565 0.057714034536947248 0.025653921484855881
leaf_weight=361.01038011908531 361.60186550021172 379.27663822472095 119.13662618398666 280.40985685586929 1954.4473925381899 656.87966164946556 808.97912389039993 85.530858740210533 144.82406497001648 830.84348140656948 186.16479164361954 83.137353286147118 732.90971814095974 770.99657897651196 174.76618784666061 258.38960582017899 76.201620444655418 218.51768696308136 323.99333480000496 219.28906342387199 215.43706871569157 21.980566710233688 24.441004410386086 226.29316501319408 91.859406992793083 527.11028112471104 39.233168333768845 102.56321288645267 167.81345294415951 229.08088648319244
leaf_count=1199 933 757 252 875 5278 2128 2744 307 756 2443 441 198 1995 3263 561 823 149 509 860 624 794 54 106 498 259 1256 75 238 308 520
internal_value=0.0187819 0.0267596 0.0127539 0.011276 0.0235743 0.0141357 0.0119594 0.00805302 0.00145821 0.0126811 0.0234423 0.0325726 0.0180316 -0.00342002 0.0171102 0.0198466 0.0213925 0.0349615 0.0176923 0.024307 -0.00012701 0.0170524 -0.00785139 0.0313131 0.0284476 0.0309828 0.0388238 0.0402142 0.0427077 0.0385513
internal_weight=10673.1 4593.16 6079.96 5658.4 3714.42 4381.57 3551.77 2161.98 1276.83 1353 829.801 421.563 1389.79 915.821 1005.61 2507.56 2249.17 294.719 604.403 302.426 347.389 107.511 239.878 1206.86 980.572 888.712 225.398 878.734 776.171 608.358
internal_count=31203 11528 19675 18601 9705 13383 11132 7009 5218 4265 2251 1074 4123 4019 3004 6759 5936 658 1735 822 1261 361 900 2946 2448 2189 516 1823 1585 1277
is_linear=0
shrinkage=0.05


Tree=20
num_leaves=31
num_cat=0
split_feature=5 10 5 23 25 28 28 3 11 26 24 26 24 0 28 28 28 10 28 11 11 28 11 28 25 23 28 27 27 1
split_gain=204.883 105.223 124.127 82.4187 71.7475 62.7899 42.6915 41.6184 35.7085 30.3769 30.09 30.4552 28.16 26.0513 34.0248 25.7575 86.5244 24.6535 24.0949 23.5055 22.3299 18.8557 20.4441 17.7188 17.6615 17.3962 16.2073 24.0945 20.8446 20.3001
threshold=5.5000000000000009 116.00000000000001 6.5000000000000009 1.5000000000000002 5.5000000000000009 71.000000000000014 8.5000000000000018 5.2500000000000009 2.5000000000000004 1.5000000000000002 3.5000000000000004 1.0000000180025095e-35 1.5000000000000002 7.5000000000000009 20.500000000000004 55.500000000000007 40.500000000000007 142.00000000000003 18.500000000000004 1.5000000000000002 5.5000000000000009 81.500000000000014 2.5000000000000004 8.5000000000000018 3.5000000000000004 6.5000000000000009 6.5000000000000009 12.500000000000002 38.500000000000007 2.5811813947440876
decision_type=2 10 2 2 10 2 2 2 8 2 10 2 10 2 2 2 2 10 2 10 8 2 8 2 8 2 2 2 2 2
left_child=3 2 4 5 15 13 -5 8 18 12 11 25 -8 14 -1 16 -2 -3 -4 -14 -9 -7 -23 -13 -12 -10 27 29 -29 -6
right_child=1 17 7 6 26 21 9 20 10 -11 24 23 19 -15 -16 -17 -18 -19 -20 -21 -22 22 -24 -25 -26 -27 -28 28 -30 -31
leaf_value=-0.013785279381074711 0.041540422789385675 0.032691233983217376 0.014183428985488087 0.00061092874085735534 0.056524936709758701 0.079400212272651136 0.0059220422407566566 0.041015223217249264 -0.027611899227140736 0.036210978352677607 0.020849022663583697 -0.0059416972709010855 0.024355271707304532 -0.0032900061047245808 -0.059825973306255088 0.054115346816721123 -0.011784190779814796 0.049782521698477099 0.029702856188212376 0.012409101296569212 0.015301922015002368 0.034680851274726913 0.0035416890434916653 0.015486363400531555 0.0098205569257936547 -0.0013523744015166562 0.023411994125000803 -0.026562696601787061 0.050638038311933489 -0.020532509697300982
leaf_weight=209.59548135101795 712.45272468030453 513.64046691358089 487.75948622822762 530.79199887812138 28.331952273845673 12.577309042215346 655.44627557694912 239.05073672533035 80.162714377045631 177.14708451926708 753.5823213160038 120.35339178144932 799.0206812620163 528.33511032164097 49.725247994065285 257.56834857165813 84.962327152490616 363.45816008746624 517.84037703275681 855.81723594665527 131.93518221378326 90.426958009600639 127.22089779376984 479.09712389111519 705.78329436480999 296.69601498544216 733.04682049155235 59.033282488584518 10.131119877099989 12.044003367424009
leaf_count=1206 1560 1115 1425 1907 68 26 2279 509 301 418 2111 432 2108 2053 326 502 255 703 1336 2549 342 227 435 1368 2196 987 1955 210 25 44
internal_value=0.0182175 0.0236534 0.021174 0.00934435 0.031626 -0.00295491 0.0134938 0.0159695 0.0142508 0.0162408 0.0109733 0.00417114 0.0147058 -0.00967319 -0.0226526 0.0403202 0.0358518 0.0397842 0.0221824 0.0181813 0.0318908 0.0200024 0.0165121 0.0111756 0.0155199 -0.00695722 0.0207308 0.00273724 -0.0151255 0.0334215
internal_weight=10623 6586.93 5709.83 4036.1 1897.57 1017.88 3018.22 3812.26 3441.27 2487.43 2435.67 976.309 2310.28 787.656 259.321 1054.98 797.415 877.099 1005.6 1654.84 370.986 230.225 217.648 599.451 1459.37 376.859 842.587 109.54 69.1644 40.376
internal_count=30978 17444 15626 13534 4619 4273 9261 11007 10156 7354 7395 3088 6936 3585 1532 2317 1815 1818 2761 4657 851 688 662 1800 4307 1288 2302 347 235 112
is_linear=0
shrinkage=0.05


Tree=21
num_leaves=31
num_cat=0
split_feature=5 10 5 23 25 28 28 3 11 26 24 26 24 11 28 28 22 10 22 28 11 28 11 16 24 28 27 23 25 22
split_gain=185.256 97.9374 112.557 74.117 65.7116 56.7274 38.3614 37.957 32.0335 27.431 26.9884 27.4619 25.3103 25.018 23.8164 78.1989 24.8953 23.1518 22.8975 22.2936 21.1378 16.6802 18.333 16.3357 16.1084 15.937 15.8769 15.8761 15.8371 15.5013
threshold=5.5000000000000009 116.00000000000001 6.5000000000000009 1.5000000000000002 5.5000000000000009 71.000000000000014 8.5000000000000018 5.2500000000000009 2.5000000000000004 1.5000000000000002 3.5000000000000004 1.0000000180025095e-35 1.5000000000000002 1.5000000000000002 55.500000000000007 40.500000000000007 3.5000000000000004 142.00000000000003 9.5000000000000018 52.500000000000007 1.5000000000000002 81.500000000000014 2.5000000000000004 2.5000000000000004 1.5000000000000002 8.5000000000000018 7.5000000000000009 6.5000000000000009 3.5000000000000004 3.5000000000000004
decision_type=2 10 2 2 10 2 2 2 8 2 10 2 10 10 2 2 2 10 2 2 10 2 8 2 8 2 2 2 8 2
left_child=3 2 4 5 14 13 24 8 19 12 11 27 -8 26 15 -2 -17 -3 -9 -4 -14 -7 -23 -19 -5 -13 -1 -10 -12 -11
right_child=1 17 7 6 -6 21 9 18 10 29 28 25 20 -15 -16 16 -18 23 -20 -21 -22 22 -24 -25 -26 -27 -28 -29 -30 -31
leaf_value=-0.052012464578089862 0.039509937982487274 0.031229731206528034 0.015362760140467668 -0.012894823317016683 0.019646031799878949 0.074431893169541283 0.0056151877825368129 0.03618258339688888 -0.026453911212849103 0.0097977099225617821 0.019738454031145616 -0.0056558741324534423 0.02307298727215586 -0.0039806246850271664 0.051700139751230292 0.049218324268485339 -0.023329543817343784 0.052145367420444635 0.0036664724230892533 0.030843828861918693 0.011758362331936657 0.03280912161834721 0.0033610122925781653 0.020981977478629794 0.0062119661761217918 0.01467528518512734 -0.017212743432957867 -0.0012852437544386727 0.0093085220087085058 0.043322057057135599
leaf_weight=41.537588641047478 711.63751013576984 510.87022161483765 641.31878659129143 156.1821855455637 844.57324227690697 12.747965201735495 656.6744286864996 303.78475923836231 79.509482532739639 47.614566802978516 756.12088531255722 120.12478576600552 801.20205433666706 582.39761756360531 256.16071899235249 14.064286828041075 70.818477347493172 309.66696332395077 66.333769634366035 367.33465778827667 857.9699167907238 90.802012473344803 127.35864391922951 49.535757780075073 374.71739968657494 480.27152255177498 159.60220584273338 296.59134276211262 707.34039306640625 129.73825691640377
leaf_count=275 1560 1115 1841 655 2302 26 2279 673 301 128 2111 432 2108 2388 502 30 225 589 178 920 2549 227 435 114 1252 1368 922 987 2196 290
internal_value=0.0173044 0.0224749 0.0200936 0.00887058 0.0300506 -0.00282017 0.0127939 0.0151447 0.0135083 0.0153925 0.0104051 0.00395998 0.0139364 -0.00924317 0.0383908 0.0340982 -0.0112064 0.0381095 0.030371 0.0210082 0.0172262 0.0189478 0.0156501 0.0478687 0.000580268 0.0105989 -0.0244464 -0.00662493 0.0147017 0.0343604
internal_weight=10624.6 6586.06 5715.98 4038.54 1897.25 1014.45 3024.1 3818.73 3448.61 2493.2 2439.96 976.497 2315.85 783.537 1052.68 796.52 84.8828 870.073 370.119 1008.65 1659.17 230.909 218.161 359.203 530.9 600.396 201.14 376.101 1463.46 177.353
internal_count=30978 17444 15626 13534 4619 4273 9261 11007 10156 7354 7395 3088 6936 3585 2317 1815 255 1818 851 2761 4657 688 662 703 1907 1800 1197 1288 4307 418
is_linear=0
shrinkage=0.05


Tree=22
num_leaves=31
num_cat=0
split_feature=5 10 5 23 25 3 24 11 26 11 26 26 11 11 22 24 11 22 22 26 27 0 26 16 22 0 26 23 11 26
split_gain=167.6 91.4391 107.886 66.6791 59.1095 44.2383 33.4376 33.3275 26.4787 25.2792 24.9778 34.7498 27.7786 26.6737 28.3174 24.9635 24.5101 22.3079 19.5656 16.0203 15.6659 18.5038 19.5674 15.2351 15.0119 14.9447 14.8797 14.4881 13.5853 12.8325
threshold=5.5000000000000009 142.00000000000003 6.5000000000000009 1.5000000000000002 5.5000000000000009 5.2500000000000009 1.5000000000000002 2.5000000000000004 1.0000000180025095e-35 5.5000000000000009 1.0000000180025095e-35 1.5000000000000002 2.5000000000000004 3.5000000000000004 10.500000000000002 3.5000000000000004 1.5000000000000002 9.5000000000000018 7.5000000000000009 1.5000000000000002 1.0000000180025095e-35 9.5000000000000018 1.0000000180025095e-35 2.5000000000000004 9.5000000000000018 6.5000000000000009 1.5000000000000002 6.5000000000000009 1.5000000000000002 1.5000000000000002
decision_type=2 10 2 2 10 2 8 8 2 8 2 2 8 10 2 10 10 2 2 2 2 2 2 2 2 2 2 2 10 2
left_child=3 2 4 10 -2 7 19 -4 15 -7 12 13 -1 14 25 27 26 -10 -11 -5 -6 22 -22 -3 -24 -12 -8 -9 -23 -19
right_child=1 23 5 6 20 9 16 8 17 18 11 -13 -14 -15 -16 -17 -18 29 -20 -21 21 28 24 -25 -26 -27 -28 -29 -30 -31
leaf_value=0.026564936941353902 0.037114404833974872 0.050236419868272313 0.020512934077783991 0.0020050562889888995 0.05696269615558245 0.035686943554060678 0.019610559680410478 -0.025343911952035138 0.016895689747975198 0.025202307496214632 -0.035768905096803978 0.028877406268335983 -0.0034466813507860504 0.0066144677766759204 0.038844404476290777 0.010122276443005084 0.010333407270213294 -0.0099597627942029626 -0.013197310384534401 0.02978901714172463 0.041698614828850289 0.033698472951224016 -0.014755581679784233 0.020040753774883416 0.064800017170482005 -0.014700536436904624 0.04717578721380486 -0.001221424610435032 0.017742688035971139 0.012898435136061443
leaf_weight=130.92465105652809 1123.3076550215483 305.47355699539185 1157.5338058173656 806.96891525387764 27.556471914052963 382.8747103959322 987.39637276530266 78.863360494375229 1314.45957711339 88.893132224678993 111.9395724684 58.29607680439949 186.72116515040398 154.79134392738342 21.362699821591377 600.54513931274414 1127.4430202692747 133.8123085051775 52.618868738412857 55.405440792441368 23.010961174964905 176.59257215261459 90.361295863986015 49.280459865927696 6.2300646901130667 347.13065174221992 51.780380114912987 296.49167095124722 562.01487550139427 113.25731331110001
leaf_count=366 2465 589 3092 2910 60 823 2708 301 3756 213 761 157 678 573 62 1823 3398 444 156 138 55 406 328 114 14 1676 107 987 1517 301
internal_value=0.0164418 0.0213622 0.0199538 0.00842277 0.0294931 0.0154098 0.0121343 0.0134779 0.010266 0.0290079 -0.00269039 -0.00801224 0.00891199 -0.0114096 -0.0172273 0.00379753 0.0154493 0.0143048 0.0108895 0.00379915 0.0198192 0.0186142 0.000326429 0.0460627 -0.00951089 -0.0198554 0.0209933 -0.00630836 0.0215683 0.000499241
internal_weight=10623.3 6583.18 6228.42 4040.16 2009.07 4219.35 3028.99 3694.96 2537.43 524.387 1011.17 693.52 317.646 635.224 480.433 975.9 2166.62 1561.53 141.512 862.374 885.766 858.21 119.602 354.754 96.5914 459.07 1039.18 375.355 738.607 247.07
internal_count=30978 17444 16741 13534 4845 11896 9261 10704 7612 1192 4273 3229 1044 3072 2499 3111 6213 4501 369 3048 2380 2320 397 703 342 2437 2815 1288 1923 745
is_linear=0
shrinkage=0.05


Tree=23
num_leaves=31
num_cat=0
split_feature=5 10 5 23 25 28 28 3 28 22 28 28 28 11 22 10 22 11 10 28 22 27 11 22 0 0 27 28 28 27
split_gain=151.674 85.8851 92.5852 59.9781 55.2056 47.6304 34.1577 32.0792 29.0155 26.1875 23.7781 22.532 71.0354 22.4874 22.4724 20.1949 19.8906 17.6058 29.5515 28.8175 17.0663 22.3516 16.3785 15.4105 19.0971 15.2688 15.2677 15.0274 14.328 21.36
threshold=5.5000000000000009 116.00000000000001 6.5000000000000009 1.5000000000000002 5.5000000000000009 71.000000000000014 8.5000000000000018 5.2500000000000009 88.500000000000014 9.5000000000000018 8.5000000000000018 55.500000000000007 40.500000000000007 1.5000000000000002 3.5000000000000004 142.00000000000003 9.5000000000000018 1.5000000000000002 11.000000000000002 68.500000000000014 2.5000000000000004 31.500000000000004 2.5000000000000004 6.5000000000000009 6.5000000000000009 16.500000000000004 7.5000000000000009 35.500000000000007 6.5000000000000009 12.500000000000002
decision_type=2 10 2 2 10 2 2 2 2 2 2 2 2 10 2 10 2 8 10 2 2 2 10 2 2 2 2 2 2 2
left_child=3 2 4 5 11 13 -5 8 9 10 20 12 -2 26 -14 25 -9 18 19 27 21 -4 -12 -7 -25 -3 -1 -8 29 -6
right_child=1 15 7 6 28 23 17 16 -10 -11 22 -13 14 -15 -16 -17 -18 -19 -20 -21 -22 -23 -24 24 -26 -27 -28 -29 -30 -31
leaf_value=-0.050867094692941289 0.035841358857690464 0.031408029750427599 0.023925587009789088 0 0.02945708236568503 0.037109098783963339 0 0.033103785224630124 0.021220554286134001 -0.0027600738133741064 0.02098398889597906 0.047861335348762253 0.044901709998862928 -0.0035506384947507305 -0.023988609299153724 0.044351161153083976 0.0027482838437683115 0.010438804024514607 0.023975224855238973 0.030829719490183233 -0.0067272243445464291 -0.021039542371386426 0.011025541087040722 0.048910585905242165 0.0014937394937654903 0.0010897459118218045 -0.016055248225124438 -0.040030818397138741 0.020153598791107234 -0.016069400217703041
leaf_weight=39.69852190464735 708.56472647190094 459.23112772405148 124.23421712219715 532.42391900718212 40.853092342615128 69.053813353180885 163.47108241915703 301.96450397372246 700.39989587664604 359.39160507917404 591.73255644738674 253.08270280063152 14.073055788874624 579.56484347581863 70.906094878911972 350.15886451303959 66.172115668654442 1472.2804077118635 763.75149258971214 75.029016494750977 267.24655385315418 35.338542222976685 1383.229241579771 25.06749339401722 137.55187875032425 46.040327981114388 156.43986171483994 27.236564338207245 737.41940945386887 69.33769154548645
leaf_count=275 1560 997 369 1907 112 181 658 673 1851 1140 1596 502 30 2388 225 703 178 4476 1914 181 925 127 4148 56 451 118 922 125 1955 235
internal_value=0.0156239 0.0203074 0.0180965 0.00799789 0.0271411 -0.00256889 0.0115078 0.013621 0.0121255 0.00981591 0.0116998 0.0348278 0.0306593 -0.00851492 -0.0124818 0.0350909 0.0276632 0.013955 0.0189773 0.00459032 0.000985334 0.0139295 0.0140127 0.0173135 0.00885926 0.0286561 -0.023149 -0.00571743 0.0176407 0.000775555
internal_weight=10620.9 6579.38 5723.95 4041.57 1894.24 1007.38 3034.19 3829.71 3461.57 2761.17 2401.78 1046.63 793.544 775.703 84.9792 855.43 368.137 2501.77 1029.49 265.737 426.819 159.573 1974.96 231.673 162.619 505.271 196.138 190.708 847.61 110.191
internal_count=30978 17444 15626 13534 4619 4273 9261 11007 10156 8305 7165 2317 1815 3585 255 1818 851 7354 2878 964 1421 496 5744 688 507 1115 1197 783 2302 347
is_linear=0
shrinkage=0.05


Tree=24
num_leaves=31
num_cat=0
split_feature=5 10 5 23 25 28 28 11 13 28 28 0 26 0 28 28 28 22 26 22 28 24 10 24 22 11 16 23 28 14
split_gain=137.376 79.9446 84.2674 53.9934 50.8055 43.0375 30.7393 27.6969 26.7309 23.5697 27.5285 28.1285 22.7458 21.3261 33.4966 20.9261 63.4666 19.7646 19.6373 21.4955 26.4354 19.5523 19.0478 18.7033 17.4448 15.534 14.4958 14.4399 14.3624 14.3244
threshold=5.5000000000000009 116.00000000000001 6.5000000000000009 1.5000000000000002 5.5000000000000009 71.000000000000014 8.5000000000000018 2.5000000000000004 1.5000000000000002 52.500000000000007 38.500000000000007 11.500000000000002 1.5000000000000002 7.5000000000000009 20.500000000000004 58.500000000000007 40.500000000000007 2.5000000000000004 1.0000000180025095e-35 9.5000000000000018 8.5000000000000018 3.5000000000000004 142.00000000000003 1.5000000000000002 3.5000000000000004 1.5000000000000002 2.5000000000000004 2.5000000000000004 81.500000000000014 5.0000000000000009
decision_type=2 10 2 2 10 2 2 8 8 2 2 2 2 2 2 2 2 2 2 2 2 10 10 10 2 10 2 2 2 8
left_child=3 2 4 5 15 13 -5 9 -9 10 -4 -12 23 14 -1 16 -2 -18 21 20 24 -10 -3 -8 -20 -25 -24 -21 -7 -14
right_child=1 22 7 6 -6 28 12 8 18 -11 11 -13 29 -15 -16 -17 17 -19 19 27 -22 -23 26 25 -26 -27 -28 -29 -30 -31
leaf_value=-0.011355819101605252 0.034154694994259598 0.027393623761949093 0.016230206382411759 0 0.016732122527134935 0.067520948521352042 0.0047780747355585232 0.020535761845921367 -0.0066566192228099371 0.029246548814839027 0.02829655954656924 -0.067651181770772104 0.052986396102533098 -0.0023994876291399858 -0.0585124325634803 0.045879671071546446 0.048710546325970071 -0.020939456721769785 0.01204636131077228 -0.020080810398364068 0.018256623335624649 0.0087464608343793809 0.046862038558722799 0.019738422363015637 -0.013774437360837289 0.010063891893989206 0.017145156249724132 0.006505135375088302 0.013346390920724394 0.021408238903297905
leaf_weight=201.82958406955004 706.43689402937889 502.22993594408035 656.42693386971951 532.42391900718212 848.90989588201046 12.929753839969633 659.58310502767563 512.68506227433681 376.08708514273167 404.67712767422199 12.194436132907866 19.909759625792503 50.837619096040726 523.94544897973537 46.355514585971832 250.11530464887619 11.679481297731398 74.053818508982658 143.26328253746033 77.66809868812561 907.63340808451176 455.02101580798626 297.06412844359875 805.37402817606926 120.19389617443085 863.33963389694691 48.443428486585617 148.38931873440742 219.27348735928535 126.35828776657581
leaf_count=1206 1560 1115 1823 1907 2302 26 2279 1343 1289 990 33 75 101 2053 326 500 24 233 456 258 2464 1397 589 2108 441 2549 114 438 662 317
internal_value=0.0148513 0.0193123 0.0171881 0.00759577 0.0258279 -0.00245025 0.0109186 0.0129247 0.0102364 0.0196588 0.014013 -0.0310765 0.013237 -0.00813066 -0.0202038 0.033229 0.0292231 -0.0113471 0.00786366 0.0114843 0.0142096 0.00177039 0.0336487 0.0119182 0.000246721 0.014737 0.0427161 -0.00261191 0.0164123 0.030521
internal_weight=10615.3 6573.08 5725.34 4042.25 1891.2 1004.33 3037.92 3834.15 2740.94 1093.21 688.531 32.1042 2505.49 772.131 248.185 1042.29 792.17 85.7333 2228.26 1397.15 1171.09 831.108 847.737 2328.3 263.457 1668.71 345.508 226.057 232.203 177.196
internal_count=30978 17444 15626 13534 4619 4273 9261 11007 8086 2921 1931 108 7354 3585 1532 2317 1817 257 6743 4057 3361 2686 1818 6936 897 4657 703 696 688 418
is_linear=0
shrinkage=0.05


Tree=25
num_leaves=31
num_cat=0
split_feature=10 3 26 11 28 23 5 11 28 10 28 28 14 1 26 1 26 10 9 27 22 13 4 1 27 27 5 27 24 28
split_gain=132.943 63.8249 47.777 35.1787 29.4354 27.0471 43.5788 26.4352 25.6555 25.2497 23.1058 160.302 22.7598 32.3394 20.9265 20.111 19.2753 31.8338 20.4519 27.6383 17.9415 19.5111 17.9184 17.9316 17.6447 17.3923 17.2032 16.8404 16.1279 27.0604
threshold=29.000000000000004 5.2500000000000009 1.5000000000000002 2.5000000000000004 61.500000000000007 2.5000000000000004 5.5000000000000009 5.5000000000000009 14.500000000000002 25.500000000000004 78.500000000000014 35.500000000000007 11.000000000000002 2.3189659109916136 3.5000000000000004 3.1348003584841062 1.0000000180025095e-35 7.0000000000000009 2.5000000000000004 11.500000000000002 3.5000000000000004 2.5000000000000004 3.5000000000000004 2.040832999733067 31.500000000000004 1.0000000180025095e-35 6.5000000000000009 33.500000000000007 2.5000000000000004 16.500000000000004
decision_type=10 2 2 10 2 2 2 10 2 10 2 2 8 2 2 2 2 10 2 2 2 10 2 2 2 2 2 2 10 2
left_child=2 3 5 22 -4 6 16 10 -5 -8 11 -3 13 -7 -6 -16 18 -18 -1 -20 -13 -22 23 -2 25 -19 -25 -26 29 -10
right_child=1 7 4 8 14 12 9 -9 28 -11 -12 20 -14 -15 15 -17 17 24 19 -21 21 -23 -24 26 27 -27 -28 -29 -30 -31
leaf_value=0.00068350061404826739 0.015770268441537692 0.041171624106971443 -0.029935954341050869 0.0043215619075701621 0.05108337477287881 0.0095309612707550895 0.013903343275928876 0.013746413326335494 0.046202514307992333 -0.0087600035741590802 0.045151491971262316 0.020935697794818513 0.00122852946944008 0.0272485219824266 0.030138696899415882 0.0021052895609228943 -0.024493518667709453 0.040278062454392673 -0.030671436949570943 0.046193970176922672 -0.034826716335322104 -0.099697017714306002 0.033322491154511767 0.039196946129822642 0.048609649001190081 -0.0077240056511508519 0.021191088890046783 0.0049176980767773317 0.018800490654734856 0.0046462840647271643
leaf_weight=399.01259967684746 1353.6977510899305 300.9866257160902 23.595662534236908 735.77951173484325 75.193905055522919 1390.0228068381548 822.84918378293514 174.82378962635994 42.698873996734619 144.12121111154556 329.85202606022358 7.3841925263404837 564.15677407383919 316.71415294706821 208.41244649887085 92.88862170279026 210.01569507271051 19.370286524295807 14.667113348841665 55.297319993376732 28.388164132833481 20.129148006439209 253.03863507509232 175.31687921285629 27.340418949723244 586.73165943473577 561.04986575245857 114.34803281724453 1160.771687746048 469.67790718376637
leaf_count=1326 3608 621 89 2203 158 4322 2364 441 101 512 665 17 1866 764 497 256 1233 68 51 135 86 78 542 375 91 2516 1435 468 3043 1353
internal_value=0.0133348 0.0186346 0.00745949 0.0163616 0.0240435 0.00603551 0.00232429 0.0311622 0.0121129 0.0105198 0.0355859 0.0267207 0.00994504 0.0128231 0.0274468 0.0215164 -0.00322687 -0.00729534 0.00507142 0.029988 -0.0509316 -0.061993 0.0207268 0.019198 -0.00245594 -0.00617528 0.0254895 0.0134122 0.0155357 0.00812747
internal_weight=10678.3 5613.6 5064.74 4752.03 400.091 4664.65 2393.75 861.564 2408.93 966.97 686.74 356.888 2270.89 1706.74 376.495 301.301 1426.78 957.806 468.977 69.9644 55.9015 48.5173 2343.1 2090.06 747.79 606.102 736.367 141.688 1673.15 512.377
internal_count=31284 14568 16716 12660 1000 15716 8764 1908 6700 2876 1467 802 6952 5086 911 753 5888 4376 1512 186 181 164 5960 5418 3143 2584 1810 559 4497 1454
is_linear=0
shrinkage=0.05


Tree=26
num_leaves=31
num_cat=0
split_feature=10 3 11 10 25 0 28 26 28 22 11 24 28 28 28 26 24 22 13 11 24 23 28 16 11 5 28 5 5 13
split_gain=120.858 74.6557 52.1003 37.6573 27.7132 30.8406 37.8723 24.9707 43.6358 29.0446 24.5616 23.7197 21.5108 145.483 19.7548 18.8715 16.3649 15.951 17.1713 15.9014 15.8982 15.0854 16.1632 14.822 14.0914 16.0545 14.0344 19.3526 17.5794 16.2366
threshold=15.500000000000002 5.2500000000000009 2.5000000000000004 19.000000000000004 2.5000000000000004 6.5000000000000009 71.000000000000014 1.0000000180025095e-35 8.5000000000000018 9.5000000000000018 5.5000000000000009 2.5000000000000004 78.500000000000014 35.500000000000007 14.500000000000002 1.5000000000000002 1.5000000000000002 3.5000000000000004 2.5000000000000004 1.5000000000000002 5.5000000000000009 5.5000000000000009 8.5000000000000018 1.5000000000000002 3.5000000000000004 6.5000000000000009 93.500000000000014 6.5000000000000009 5.5000000000000009 1.5000000000000002
decision_type=10 2 10 10 8 2 2 2 2 2 10 10 2 2 2 2 10 2 10 10 10 2 2 2 10 2 2 2 2 10
left_child=4 2 15 -4 -1 6 -6 11 23 -10 12 24 13 -3 -11 20 -7 -15 -19 -14 21 22 -2 -9 -5 -26 27 28 -13 -28
right_child=1 10 3 7 5 16 -8 8 9 14 -12 26 19 17 -16 -17 -18 18 -20 -21 -22 -23 -24 -25 25 -27 29 -29 -30 -31
leaf_value=0.0085116065661651752 0.0055100130496966984 0.039533802614025546 0.032841801772811666 -0.016707710919903928 -0.033857431018125411 0.0077547951569096139 0.03031376408867938 0.013733895458651486 0.019044089889554326 -0.066461307786270782 0.0130743887738781 -0.001022225047743958 0.063898101601455135 0.019994375484000262 0.0040221470521491593 0.032224845684149371 -0.0040092084081558609 -0.032821463097779384 -0.093349174683499236 0.037376582760356256 0.027550065440907014 0.026898451889137798 0.016902903453958146 -0.0058165324565472446 0.016991246337415038 -0.0074182864471786583 0.041381475646955004 -0.0011169451950909283 0.027683624650628874 0.011571544340303561
leaf_weight=1530.7767467200756 377.00493286550045 297.86770687997341 176.28350555896759 170.88858616352081 127.31181240826845 548.0846009105444 27.892344564199448 132.02204984426498 1454.440925359726 10.220939904451368 174.62943333387375 85.742450878024101 74.279635295271873 7.3508190363645545 268.03066696226597 248.48431847989559 641.08771234750748 28.616427600383759 20.421630129218102 251.39730437099934 368.52038799226284 302.20338194072247 1828.7204533219337 363.82112056016922 105.11076380312443 186.97897955775261 59.233381867408752 462.55168449878693 139.56085319817066 203.07827666401863
leaf_count=5080 1154 621 401 581 797 1847 67 376 3839 42 441 283 132 17 780 556 2521 86 78 533 864 723 4764 1264 279 649 131 1470 327 581
internal_value=0.0126759 0.015907 0.0141888 0.0102669 0.00391108 -0.00132385 -0.0222807 0.00917187 0.0124698 0.0162125 0.0298573 0.00396692 0.0341577 0.0255832 0.00139219 0.0189783 0.00140876 -0.0479602 -0.0582683 0.0434587 0.0178312 0.0164 0.0149582 -0.00059928 -0.00530574 0.00135137 0.00849046 0.00472678 0.0167414 0.0183353
internal_weight=10672.6 7797.46 6942.9 3817.96 2875.15 1344.38 155.204 3641.68 2228.54 1732.69 854.563 1413.14 679.934 354.257 278.252 3124.93 1189.17 56.3889 49.0381 325.677 2876.45 2507.93 2205.73 495.843 462.978 292.09 950.167 687.855 225.303 262.312
internal_count=31284 20972 19064 11003 10312 5232 864 10602 6301 4661 1908 4301 1467 802 822 8061 4368 181 164 665 7505 6641 5918 1640 1509 928 2792 2080 610 712
is_linear=0
shrinkage=0.05


Tree=27
num_leaves=31
num_cat=0
split_feature=10 3 26 11 28 11 2 23 1 25 4 5 0 28 28 28 28 26 1 13 22 5 26 10 24 16 28 27 22 27
split_gain=110.92 54.7786 41.0516 30.7625 26.375 22.8614 22.6038 36.5973 32.7666 21.8628 22.2958 26.7508 26.4807 21.1081 20.1578 20.049 132.178 18.8554 18.7001 18.0505 19.7194 17.5238 17.342 27.4026 18.977 16.5587 16.9196 15.9302 15.6816 15.5289
threshold=29.000000000000004 5.2500000000000009 1.5000000000000002 1.5000000000000002 61.500000000000007 5.5000000000000009 4.5000000000000009 2.5000000000000004 2.5811813947440876 3.5000000000000004 3.5000000000000004 6.5000000000000009 11.500000000000002 99.500000000000014 15.500000000000002 78.500000000000014 35.500000000000007 3.5000000000000004 3.1348003584841062 1.5000000000000002 10.500000000000002 5.5000000000000009 1.0000000180025095e-35 7.0000000000000009 3.5000000000000004 1.5000000000000002 86.500000000000014 31.500000000000004 2.5000000000000004 1.0000000180025095e-35
decision_type=10 2 2 10 2 10 2 2 2 10 2 2 2 2 2 2 2 2 2 10 2 2 2 10 8 2 2 2 2 2
left_child=2 3 6 21 -4 15 7 22 -8 13 11 12 -11 25 -13 16 -3 -6 28 20 -10 -2 24 -24 -1 -5 -27 29 -19 -25
right_child=1 5 4 9 17 -7 8 -9 19 10 -12 14 -14 -15 -16 -17 -18 18 -20 -21 -22 -23 23 27 -26 26 -28 -29 -30 -31
leaf_value=0.015728468069671101 0.014618860103200912 0.037973111311713215 -0.029198017688295705 0.025904236465455713 0.047744035863255326 0.012435562751607235 0.020917317938124888 0.0082828785659108048 0.022895583551522016 0.0010921350262482342 0.026479371061879243 -0.0057070410263620761 0.019323798893142903 0.032602744918173832 0.0079511125619110036 0.041860539000140549 -0.045274610035527067 -0.002235399553678458 0.0009394518441900924 0.0031086664707184091 -0.030742470846791787 0.027670436558632057 -0.023149124849193806 0.037478290918137473 -0.0044209301021087746 0.012773508286354276 -0.026800891715789584 0.012505874514250948 0.034176001334900827 -0.0075401583865974155
leaf_weight=214.61584411561489 440.48645105957985 294.69058009982109 23.439564898610115 263.10410666465759 75.070466160774231 174.43058544397354 480.32004322111607 1407.8414054811001 210.13921055197716 270.71763047575951 188.43861894309521 393.45113828778267 759.8946221768856 209.51068577170372 859.50019937753677 321.34337295591831 56.74496266245842 35.344287320971489 92.859851211309433 1127.6801542043686 18.493451088666916 627.04183821380138 205.18022749572992 19.673597827553749 255.74674533307552 710.71981263160706 27.90624874830246 142.54910166561604 172.93252131342888 585.44026061147451
leaf_count=612 1148 621 89 619 158 441 1217 4371 553 811 420 1310 1897 481 2491 665 181 98 256 3622 63 1441 1233 68 902 1956 86 559 399 2516
internal_value=0.0120512 0.0169031 0.00668999 0.0148116 0.0220722 0.028622 0.00537144 0.00256638 0.00969217 0.0126418 0.00994008 0.00857198 0.0145402 0.0181502 0.00365808 0.0328087 0.0245081 0.0252868 0.0196578 0.005712 0.0185235 0.0222916 -0.00308509 -0.00696483 0.00476355 0.0151195 0.0112681 -0.00251421 0.0279749 -0.0060623
internal_weight=10665.3 5597.98 5067.33 4750.77 399.647 847.21 4667.68 2831.05 1836.63 3683.24 2472 2283.56 1030.61 1211.24 1252.95 672.779 351.436 376.207 301.137 1356.31 228.633 1067.53 1423.21 952.843 470.363 1001.73 738.626 747.663 208.277 605.114
internal_count=31284 14568 16716 12660 1000 1908 15716 10261 5455 10071 6929 6509 2708 3142 3801 1467 802 911 753 4238 616 2589 5890 4376 1514 2661 2042 3143 497 2584
is_linear=0
shrinkage=0.05


Tree=28
num_leaves=31
num_cat=0
split_feature=10 3 26 11 28 11 23 14 28 28 10 24 28 28 26 26 28 5 11 28 1 26 0 24 5 23 28 28 11 0
split_gain=100.687 50.8508 37.132 27.9396 23.859 21.2733 20.5164 32.9538 21.574 48.1379 21.2678 20.1041 18.6716 120.104 17.2696 16.7438 16.5425 16.0503 15.632 15.1778 15.1585 14.7006 24.8282 18.0155 14.0832 14.6475 13.9491 17.6661 15.0025 13.4898
threshold=29.000000000000004 5.2500000000000009 1.5000000000000002 1.5000000000000002 61.500000000000007 5.5000000000000009 2.5000000000000004 9.0000000000000018 35.500000000000007 42.500000000000007 25.500000000000004 2.5000000000000004 78.500000000000014 35.500000000000007 2.5000000000000004 1.0000000180025095e-35 8.5000000000000018 5.5000000000000009 1.5000000000000002 9.5000000000000018 3.1348003584841062 1.0000000180025095e-35 6.5000000000000009 3.5000000000000004 6.5000000000000009 3.5000000000000004 93.500000000000014 81.500000000000014 3.5000000000000004 11.500000000000002
decision_type=10 2 2 10 2 10 2 10 2 2 10 10 2 2 2 2 2 2 10 2 2 2 2 8 2 2 2 2 10 2
left_child=2 3 6 17 -4 12 7 21 16 -10 -9 -5 13 -3 -6 -11 -8 -2 -14 29 26 23 -23 -1 -21 -26 27 28 -16 -13
right_child=1 5 4 11 14 -7 8 10 9 15 -12 19 18 -15 20 -17 -18 -19 -20 24 -22 22 -24 -25 25 -27 -28 -29 -30 -31
leaf_value=0.014905380097076213 0.013881732563473057 0.036482856891703046 -0.027944541745548564 0.0055027872534745307 0.049855138509402146 0.011828168686582983 0.0025559210312504741 0.012093775815023168 -0.029740104956813208 0.0048870992267743942 -0.0087138781834151004 -0.013018203453891243 0.060997125035472416 -0.042714159566542703 0.058369805936292922 0.046823806740094794 0.014295492967926513 0.026381035433978347 0.034255512100619404 0.020707492296439679 0.0032965259045017966 -0.022131887636693603 -0.0023579545709172586 -0.0046898873050852533 0.0071639955534396789 0.017394899420991313 0.039083720958578448 -0.0041773986270927229 0.00010596296960585848 0.0096984230389860898
